0.36699855 -0.25734562 -0.17603292 0.050029326 -0.41952458 0.71795666 0.5778625 -0.101080894 0.09189455 0.07418432 0.11706908 0.778192 0.6735352 0.3114514 -0.4763833 0.48473814 -0.2440278 0.36596048 -0.5821563 0.5629013 -0.630727 0.23677953 0.9150754 0.6407775 -0.6165524 0.19495152 0.34469697 0.6857393 -0.1375823 0.77815217 -0.87209505 -0.9123848 0.61036915 -0.6156268 -0.49310005 0.93191504 0.9512459 0.87786424 0.97122633 -0.2508632 0.47725675 0.4576879 -0.6138627 -0.011941071 0.22977343 0.93797374 -0.79181737 -0.028936772 0.16481799 0.7922084 0.8454449 0.32283613 0.6466053 0.79756063 0.51043695 -0.0975066 -0.95813006 -0.6214587 0.33830437 -0.6334142 0.9440009 0.22890651 -0.9065805 0.30267006 0.067900315 0.15111329 0.026259664 0.86168873 -0.76703715 -0.80641973 0.1271129 0.55213135 -0.7082599 -0.5091019 0.9456685 0.33359733 -0.14130509 0.89636326 -0.28877923 -0.840719 -0.79532385 -0.24621281 0.8112496 0.6234359 0.34209827 -0.7941665 -0.18002297 0.066105455 -0.25491145 0.0865478 -0.050238565 0.13948768 -0.7304349 0.6117052 -0.19958536 0.024057025 0.7887645 0.5599752 -0.23640181 -0.56713945 0.45824093 0.2820878 -0.26466107 0.014843502 0.92201656 0.95570457 0.640631 0.76549757 -0.6024388 -0.06829953 -0.03194221 0.057548407 -0.0143175125 -0.23176399 0.91062903 0.31840178 -0.038193237 0.6960388 0.47238457 -0.63837075 0.12945727 -0.08383278 0.8004375 -0.6845943 0.0427879 -0.9018158 -0.7683522 -0.018776352 -0.8594075 0.034863662 0.24011314 -0.085647635 -0.7482669 -0.4931818 -0.37382743 -0.52045596 -0.87730867 -0.03979701 -0.4967646 -0.7650159 0.88783014 0.86488605 0.51923424 0.23063868 -0.9855515 -0.1836813 -0.18198918 -0.10533613 -0.5884285 0.0013665453 -0.29030353 0.9367767 -0.31921783 -0.13794532 0.8573219 -0.83690464 0.6092332 -0.16110297 -0.8125976 -0.976021 0.80611676 -0.7298208 0.99319106 0.5114902 0.3179255 0.89382124 -0.21805313 -0.24133663 -0.44031614 0.53401524 0.84572065 -0.34986565 0.16529152 -0.7844541 -0.2145981 0.73884183 0.084467284 0.14908634 -0.90204203 0.11895824 0.019239489 -0.5576847 0.9489835 -0.7251761 0.13759635 -0.27774554 -0.055450365 -0.7370142 0.50526696 0.8227716 -0.67641884 0.68103635 0.73058695 0.46215886 0.054989714 -0.49356258 0.3198523 -0.5985086 0.51548976 0.030828526 0.936083 -0.17257525 0.8001233 -0.3426775 0.6786379 -0.36564073 0.2086902 0.5429462 0.27790168 -0.5999967 -0.11777597 -0.17768395 0.2824465 -0.46284515 0.8300701 -0.27636212 -0.28873053 -0.9927778 0.4961709 0.21244663 0.8977569 -0.3575137 0.63557506 -0.64080405 0.26382524 -0.2516208 0.77178776 -0.4048983 0.5479377 0.8061011 -0.35338697 0.95764583 0.15570748 -0.4583317 0.12551543 0.76183206 -0.09087872 -0.25914884 0.37856016 -0.1152393 0.5743028 -0.91301364 0.34226418 0.9848303 0.5951273 -0.12545477 -0.112526 -0.7038459 -0.5784433 -0.94356704 -0.8683207 -0.7459703 -0.6403332 -0.2783202 -0.5794668 -0.91466033 0.88516855 0.5931983 -0.21436836 -0.22983608 -0.7122489 -0.806211 -0.12740293 0.4092023 -0.79335254 -0.28935498 -0.8809971 -0.7216006 -0.7662357 0.24876727 0.8473774 0.8784912 0.6203483 -0.88424397 -0.76567626 -0.0401819 -0.8812408 0.35606116 -0.23072934 0.2321015 -0.6970673 -0.7503697 0.7971268 0.3190539 -0.054612197 1.0216066 0.02820906 -0.32244766 0.89572996 -0.80901647 0.35985267 0.5406475 0.093554854 0.27850956 -0.70604074 -0.12597777 0.8953148 0.2568348 -0.18928608 0.4297289 0.09971924 0.9635565 -0.024128163 -0.2501337 0.54409 0.97636765 -0.10327372 0.588496 0.766051 0.12600806 0.22027656 0.7666734 -0.09858875 -0.59287566 -0.2926841 0.20567603 0.42481366 0.9717024 -0.49571893 0.45394439 -0.5478196 -0.1789474 0.13830128 0.89370954 0.92690253 0.6475872 -0.26575315 -0.44317836 0.30443075 0.42406023 -0.71005636 0.08621263 0.8211349 0.9665487 -0.55105966 -0.3506398 0.049177803 -0.9747024 -0.80095625 -0.50111777 0.8223153 -0.29586214 0.34636703 -0.91931516 -0.6100779 0.9794907 -0.789083 0.8735309 0.7532275 0.69943917 0.52994436 -0.91352445 0.6901175 0.49685955 0.20337377 0.17350864 -0.40028268 0.3860849 0.59761995 -0.39577883 0.54730445 -0.28363836 0.39227188 0.46114895 0.9926561 0.5266944 -0.31559405 0.6949023 -0.8051261 0.16906756 0.13012816 0.6666245 0.42370245 0.40842223 -0.047192812 0.09406389 0.7832425 0.18655714 -0.5361379 0.08763753 -0.8433648 0.6486535 -0.49087906 -0.3901544 -0.3829116 0.18987662 -0.8845 0.032893553 0.29568395 0.07210044 0.55618626 0.43927062 0.7367888 -0.46933705 -0.3180763 -0.45798147 -0.47891974 -0.49901372 -0.71406966 -0.40732872 0.6463815 -0.63968813 0.0025110573 -0.88482 0.04219512 0.83346206 0.9917786 -0.43313515 0.23324692 -0.25613543 -0.5842717 0.12616453 -0.7329957 -0.21447022 -0.34979564 0.4921381 0.42133075 0.2559305 -0.3977479 -0.74305046 -0.6294165 0.75542676 0.3739719 -0.84119946 -0.15918535 -0.18499109 0.35717785 -0.39018497 0.52793294 -0.9802165 0.13032626 0.13863297 0.87774754 -0.5333037 0.075973466 -0.87515825 0.8201769 -0.9985544 0.9367382 -0.9205816 -0.25545684 -0.6691095 0.13333839 0.6965498 0.48386428 0.5205695 -0.18349752 0.755803 -0.26820183 -0.27110797 0.8491869 0.46588802 -0.45642525 0.28979027 -0.10206745 -1.0080411 -0.8791582 0.32985473 0.6026234 0.58268553 -0.51951903 -0.01819362 0.321431 0.18611631 -0.5138165 -0.5540556 0.047225762 -0.4201398 0.6311501 -0.9647496 0.6426001 0.12416279 0.7072686 -0.43728673 -0.63377404 0.20325857 -0.27362108 0.5365281 0.822559 0.73939073 -0.9272184 0.82272816 -0.86809635 0.014451827 0.87848884 -0.7191274 0.047046427 0.97944623 0.607903 -0.8588797 -0.7911453 -0.30094615 -0.07591819 0.95426184 -0.87143 -0.4115367 -0.88678265 -0.089792825 -0.66534996 0.61543256 -0.88183826 0.093392365 -0.16986845 -0.5316238 -0.4549924 -0.8309164 0.9345983 0.9387043 0.52135706 -0.9220953 0.20907873 -0.597999 -0.0987283 -0.62042713 -0.38964504 -0.5625174 -0.5359324 0.64080524 -1.0048566 0.26161382 -0.7013468 -0.53584075 0.2960749 0.030795509 -0.34231716 0.3607839 -0.38557765 -0.646656 -0.47296983 -0.3080386 0.43609262 0.40461954 -0.12200777 -0.32481664 -0.8825909 -0.72148937 -0.76634866 0.2681466 0.6830166 0.6892395 -0.6086241 -0.27936792 -0.19385096 -0.9430675 -0.38817376 -0.6648326 -0.5336114 0.23197699 3.9433497E-5 0.96861815 -0.49081218 -0.9491754 0.20197251 0.2824164 -0.6786429 0.1441912 -0.77916676 0.5414485 -0.70685345 0.44413382 0.74911886 0.103032954 0.73868847 -0.16451855 -0.24284913 0.6129845 -0.18464187 0.4513801 0.11073631 -0.17072517 -0.76497906 0.4756453 -0.59894675 -0.6358529 -0.81089 -0.35700816 0.8827001 -0.8634108 -0.52409184 0.3812983 -0.75179124 -0.14171077 0.081697516 0.29176646 -0.89083725 0.84255415 0.21763965 -0.5978686 -0.997079 -5.9998035E-4 0.4586294 -0.8443012 -0.5389478 -0.7207814 -0.7196281 -0.6276801 0.7856781 -0.7325972 0.004718049 -0.8732609 0.3033165 -0.07478949 -0.3292584 0.41048118 0.9396057 0.5251583 -0.56943244 0.14082398 -0.88812983 0.45378053 0.879197 -0.20332599 -0.21196754 0.58562845 -0.39928913 -0.5503778 -0.33867097 0.6557194 -0.10691556 -0.7784381 -0.030737365 -0.62488747 0.40579107 -0.2804585 -0.90299666 0.9263236 -0.84949005 -0.82081205 -0.031775724 -0.9873405 0.6867629 0.0433338 0.25538853 -0.066329055 1.012916 -0.095655575 0.11858644 -0.9828117 2.8948174E-4 -0.8556551 -0.37755612 0.46599513 -0.7670568 -0.16870156 0.8505117 -0.83396184 -0.15038297 -0.5928465 0.6302182 0.19303459 0.025895776 0.068085074 0.005347252 -0.09066038 -0.30409923 0.48725283 -0.59346855 0.8789022 -0.4932216 0.38248438 -0.91890883 0.77740437 0.043422733 -0.7976157 0.33561406 -0.6738236 0.025593955 -0.06395514 0.21973635 -0.780238 0.65924865 -0.5062726 -0.7160432 0.35058102 0.91181654 -0.3335677 0.43105632 0.39573714 -0.85631174 -0.5755246 -0.9134427 0.6059881 -0.21751377 -0.4632158 0.13158378 -0.80920804 0.05649675 0.99440545 0.97003067 0.0313964 1.0112886 0.8424888 0.31970915 -0.7418106 -0.3759341 -0.5896629 0.86560863 -0.801264 0.3503909 -0.4685521 0.36898515 -0.9375923 -0.8773467 0.9591485 -0.9151346 -0.3607726 -0.7879839 0.5767083 -0.20679468 0.24640822 0.13365509 -0.83985823 0.15096116 0.05045539 -0.018069962 -0.74099284 0.9472508 -0.28607944 0.14766124 -0.5094466 -0.17448047 -0.424052 0.132488 0.062996864 0.6714127 -0.34489232 -0.9817895 0.932973 0.96486723 -0.6936891 0.8842869 0.5936038 -0.39897692 -0.08429689 0.16883658 -0.4352343 -0.10029641 0.78247464 0.7954297 -0.60784227 0.7624548 -0.12417183 0.6071129 0.9129339 0.78242123 -0.75787926 0.5285585 0.14776807 -0.3250307 0.84126383 -0.68698734 -0.5552419 0.70233643 -0.37091514 0.2429123 -0.59920377 -0.73316735 0.66924864 0.15242447 -0.5791326 -0.48829544 0.30404508 0.98028934 0.65610534 0.25989366 0.94292665 -0.7735144 -0.5441843 0.8389474 0.66030097 -0.70315945 -0.4938594 0.71901727 -0.75524724 0.4838945 0.4722955 -0.71300775 -0.6369803 0.9474748 0.47347248 0.6489595 -0.94597965 -0.97983944 -0.73808414 0.41589993 0.8602241 0.78909016 0.4150904 -0.12372403 -0.1297503 0.1342746 0.5961092 -0.025815507 0.08362624 0.21342224 0.051776815 0.6995528 -0.068059556 0.75058585 0.1947042 0.5662996 0.110038005 0.27372193 -0.7799829 -0.5036533 0.55996 -0.032895967 0.65336305 -0.32328275 -0.2573263 0.20497456 -0.91266567 0.11437948 0.07448294 0.33124304 -0.35302347 0.30693448 -0.1868737 0.9138782 -0.89286584 0.5182801 0.751218 -0.13963166 0.14599885 0.5321441 0.2986654 0.94815296 -0.7844717 -0.8573423 0.35022062 0.49064055 -0.40511864 -0.042586926 -0.59327644 0.59105086 -0.17017186 -0.8551568 -0.35526624 -0.51236266 -0.48030597 -0.24750915 -0.5842944 -0.34052584 0.28606978 -0.3507918 -0.82464564 -0.9563338 -0.45692334 -0.039241493 0.31298286 0.030634487 0.34399068 -0.29385063 0.9862967 0.9058365 0.7981977 -0.18245654 -0.32077655 -0.17202862 0.10411972 0.7756239 -0.29893556 0.055305175 -0.30043653 0.8485112 0.036888555 -0.89598405 0.6302394 -2.8860063E-4 0.68828267 -0.8130335 0.7339545 -0.5162886 0.18562 -0.62621886 0.63207257 -0.7972456 -0.7837701 0.72393996 -0.70070636 0.61217 -0.7247792 0.036314886 -0.45555153 0.5510251 -0.021411613 0.48746336 0.23913604 0.75435454 -0.70396394 -0.925497 -0.034827072 0.4588641 -0.7345489 0.6246223 -0.0842951 0.55393094 0.047702592 0.3226132 -0.008768238 -0.17238888 -0.6340177 0.22938731 -0.9824976 -0.39806908 0.382824 -0.27779347 -0.4899795 -0.24772322 -0.83077836 -0.21454047 -0.58356905 0.020912765 0.32624006 -0.85929036 -0.49568194 0.8719442 -0.5365836 0.5364907 0.34016216 -0.52110714 0.41173396 0.0982334 -0.8304151 0.4871378 -0.56616646 -0.34329778 0.20964904 0.80028707 -0.4017549 0.72565717 -0.6934227 0.25177938 0.9431044 -0.74912435 -0.3273364 0.081416525 -0.35255367 -0.07879006 0.7707042 -0.16942254 -0.07073046 0.20103021 0.17355317 0.2994805 -0.20240666 -0.8847561 -0.26973203 -0.84445614 -0.21559617 0.6977127 -0.73739254 0.6804028 -0.92579645 0.44763947 -0.74703264 -0.42394248 0.7526242 -0.6367944 0.35309067 -0.3886218 0.37815046 0.67693186 0.82181036 -0.43153685 0.73199475 0.9754409 -0.8336888 -0.7972351 0.315876 0.0065138694 -0.7999638 0.28210366 0.933994 0.08153899 -0.27944052 -0.14749399 -0.97409856 -0.59263885 0.9119866 -0.75854516 0.6915026 -0.18522036 0.67463815 -0.24128313 0.21324474 -7.8276754E-4 -0.6915762 -0.7608785 -0.12225587 0.6307161 -0.19034278 0.38774228 -0.76530623 0.6817483 0.6586018 0.35310766 0.1651322 -0.17121986 -0.06578817 0.653744 0.038749557 0.07804584 -0.67296284 -0.3799354 0.18898045 0.23942384 -0.8541233 -0.077088244 0.042278644 0.05057858 0.6943167 -0.013955886 0.40098438 -0.96042395 0.23896417 -0.9024794 0.94458044 -0.029197443 0.30219924 -0.49903953 -0.011240395 -0.5794642 0.16472305 -0.4308995 0.7458551 0.8067019 -0.61473477 0.7656987 0.4745815 -0.25354347 -0.20628077 0.35048056 0.74999344 0.64799994 -0.9379532 0.8272176 0.5806679 0.44177285 0.7556675 -0.7009019 0.26319528 0.6471467 -0.41100827 0.071474984 -0.97442436 -0.51120853 0.8622871 0.20787272 -0.031349123 0.4999215 -0.19514225 -0.08989749 -0.3167051 -0.04298278 -1.016309 -0.7358809 -0.18925804 -0.55804265 -0.07604122 -0.23829679 0.19751321 -0.8629656 0.04177963 0.109059855 -0.5897291 0.27380398 0.48259524 0.46764514 0.06124377 -0.30684745 3.3367818E-4 0.06686174 0.8745101 -0.19726036 0.7768664 -0.07331451 -0.30832523 -0.33587867 -0.84873587 -0.8373092 -0.8415771 -0.97614974 0.8569024 -0.28943536 0.094607435 -0.19160879 -0.7914793 -0.7783114 0.19241647 0.49856007 -0.80024993 -0.8317164 0.6091757 -0.36054277 0.2396579 -0.9594006 0.6274186 0.32149425 0.26072124 0.42115402 0.020551682 0.18907785 -0.02478658 0.64098513 -0.69891423 -0.4868369 0.09416672 0.28619996 0.85967237 -0.8453464 -0.9497066 -0.35038587 -0.06353209 -0.41832194 0.950792 -0.7507781 -0.68994606 -0.73615795 -0.30108908 0.8917954 -0.6457805 -0.0963334 0.7071801 0.06481087 0.5348287 0.41814053 -0.8735663 -0.75620633 0.7824024 -0.909509 0.045543198 -0.7656888 -0.61497545 -0.8378218 -0.84920347 0.48273885 0.077867135 -0.8100699 -0.71915275 0.606268 -0.06581126 0.4122604 0.32249558 0.1234247 -0.39833423 -0.07418686 -0.63764775 -1.001335 0.17581499 -0.1417525 0.9288535 -0.74394244 0.87146366 -0.92245674 -0.8506167 0.24179402 -0.46751615 0.28765705 0.6409552 -0.28937715 0.8500101 -0.7667394 0.58224815 -0.91046953 -0.79418147 0.7725406 0.68107903 0.28777906 -0.46653968 -0.69792724 0.36850172 -0.5131695 -0.070109524 0.63697374 0.33819497 0.03877815 0.24293299 -1.0546945 0.54615927 -0.37011296 -0.30917245 -0.10861672 0.7445987 -0.9261034 -0.9550083 -0.93971366 -0.050862934 0.9386546 0.05916202 0.9744386 0.0066670924 0.11974412 0.24427035 0.0983131 0.91881615 0.6452022 0.53162754 -0.36729357 0.59256047 -0.87347364 0.8466266 0.43729693 0.5765764 0.94402367 -0.1898559 -0.4114333 0.74258506 0.5034097 0.3951332 -0.5725851 -0.26101398 -0.6884708 0.11626413 -0.28407356 0.17338228 0.08019065 -0.61739844 0.24017574 0.6391845 -0.027416851 -0.009597604 0.5451867 0.87767035 -0.78753346 -0.7327847 -0.47989866 0.43707165 0.10420072 -0.9089772 0.19890752 0.43919182 -0.3040248 -0.59135437 -0.7709106 0.34716833 -0.5919874 -0.6526208 -0.11563956 -0.7649454 -0.25176957 0.19814771 0.060284287 0.9153108 0.39920795 0.99090564 0.47121587 -0.12776971 -0.62271327 -0.7115581 0.42313585 -0.5507012 -0.3427284 0.7561593 -0.16668549 0.70552975 -0.7938818 0.78960216 0.87610424 -0.7765102 0.883657 -0.6197266 0.1469867 0.9328826 0.17839907 -0.42465946 -0.920995 0.6794675 -0.3007696 0.24573681 0.9210975 0.6194231 0.71309173 -0.23659408 0.2585311 0.6654126 -0.5387429 -0.39185476 -0.7043321 -0.8795059 0.4099015 -0.30134255 0.06442228 -0.5608475 0.4207166 -0.9175545 -0.9404597 0.7146789 -0.07227433 0.28228682 -0.7522692 -0.73029786 0.7281363 -0.9613436 -0.5620506 0.78488785 0.2610293 0.42043483 0.951983 0.6041567 0.14995453 -0.36637038 -0.65597546 0.61577314 0.50281936 -0.36475375 -0.4457182 0.48917717 0.6042322 -0.02673985 -0.6724172 0.24049069 0.9074779 0.7343106 0.84409034 -0.03192818 0.32872373 0.55945194 -0.39251125 0.5625271 -0.20185074 -0.37757868 0.8655104 0.8210128 -0.86608404 -0.90401363 -0.5865391 -0.8050279 0.20045465 -0.81798774 0.62360203 0.54817206 0.8376929 -0.756486 -0.7204352 0.8791438 -0.865789 -0.5588736 -0.21036309 -0.776076 -0.043278426 -0.017309444 -0.40157446 0.556614 0.1678255 -0.69340855 0.6761726 -0.09340668 -0.52647746 -0.8629353 -0.40635478 -0.3129508 0.5395983 0.7760195 -0.31484863 0.3661411 -0.6040659 0.40683568 -0.43845996 0.9145837 -0.8332819 0.7947133 0.87913764 -0.11677932 0.4568279 -0.20538597 0.85028774 -0.8004132 -0.09863446 -0.66867024 0.23126213 -0.41079763 -0.61064494 -0.09424795 -0.77754766 -0.5010465 0.43076465 1.0158192 0.016840363 -0.234465 0.6668877 -7.5264595E-4 0.97486883 0.78260976 0.18070821 0.9867903 -0.6752886 0.58228123 0.27126434 -0.18782222 0.17550693 0.5395273 -0.72665966 -0.17672911 -0.6483151 -0.26311186 -0.95336074 0.66566914 0.76264703 0.5457599 -0.159394 -0.63202065 0.49444026 -0.9193169 -0.1498656 0.25132588 0.7339054 0.862414 0.020637179 -0.3743384 -0.84628177 -0.10241311 -0.78856736 0.809299 0.48573413 0.38447797 0.27477676 0.65906996 0.29679257 0.016781833 -0.73921454 0.78985393 -0.9432966 0.38090003 -0.92231274 0.20860119 -0.023460547 0.9429313 0.7263731 0.62348527 -0.99499166 -0.5841244 -0.72423416 -0.49847606 -0.22123164 0.9277934 -0.25029993 -0.7752839 0.4187786 -0.8728828 0.9056222 0.73884076 0.14518005 -0.42910513 -0.04888332 -0.061388515 -0.2875674 -0.48388216 1.0056589 0.26585573 0.16414705 -0.14405952 -0.23829797 -0.6100346 -0.14807396 -0.78348833 0.03386997 -0.6132062 -0.13525131 0.5000234 0.27996108 0.22367361 -0.5283453 -0.9320462 -0.21619536 0.2888562 -0.55755997 -0.74005497 0.5728573 -0.100934364 0.4152203 -0.17032397 -0.7925798 -0.65853566 0.36102813 -0.07810116 0.71232224 -0.9513129 -0.6660237 -0.6022329 0.8759627 -0.13997711 -0.85815924 -0.4809678 0.44870353 -1.0203108 0.25725564 -0.49162805 -0.94296086 0.7139741 -0.9571836 -0.8310411 0.46633792 0.7339046 -0.92688113 -0.13855278 0.9775888 -0.88486755 0.8171252 0.62441057 -0.119336426 0.29396376 0.2599297 0.57447755 0.9059687 -0.4452429 0.3647481 0.104813784 0.5352619 -0.7104944 0.36103955 -0.62426203 0.4335569 -0.18241851 0.9669533 0.5913418 -0.74394345 0.39363706 0.20651183 -0.4043392 -0.3054256 -0.7191619 0.98740804 0.36984107 0.30833325 -0.68116874 0.4705348 0.87019116 -0.59617627 -0.37730932 -0.15368071 -0.57307297 -0.35150123 -0.08550832 0.9129572 0.58872247 0.12678671 -0.666903 -1.0424178 0.987128 -0.39578035 -0.89629936 -0.4310333 -0.53967357 -0.28290117 -0.06841966 0.8721649 -0.41277587 0.80340075 0.37159428 -0.25084078 -0.90130645 -0.5416333 0.72847474 -0.7667891 -0.7814277 0.5265799 0.59518754 -0.6428205 0.25662833 -0.68808895 -0.7651276 0.28876242 -0.21197926 -0.09584866 0.77077025 -0.42893592 -0.2944243 0.39585596 -0.82029533 -0.43399322 0.18170369 -0.9163965 -0.14283563 0.08606989 -0.4515822 0.55290484 0.28065926 0.84314805 -0.13881415 0.13250907 -0.1313759 -1.0416267 -0.029511599 0.20153707 -0.24259101 0.43268612 -0.54537743 0.08561174 -0.12590778 -0.49617088 0.85300463 0.7133003 0.8688087 -0.2765769 -0.46666598 -0.4759098 0.62055594 0.3734893 0.8857252 -0.76425385 0.81410605 -0.93549395 0.8209654 -0.18092819 -0.6029403 -0.22415459 -0.6664277 0.57526225 -0.02578315 0.0072906762 -0.83994395 -0.9332702 0.55175257 -0.4906536 0.122492164 -0.22480272 0.7221795 0.36761868 0.5515891 -0.62246114 -0.39368075 0.085960664 0.92396694 -0.9406759 -0.5623813 0.47660986 0.30089387 0.26599467 -0.48756984 -0.59591514 -0.11640177 0.85163915 0.13380226 -0.1048453 -0.7516003 -0.6570104 0.988715 -0.84284574 0.3443671 -0.45664167 -0.59599364 0.38333952 -0.869594 0.18691203 -0.97592604 0.1505829 0.27978557 -0.6291293 0.627449 -0.40023512 0.09116382 -0.736662 -0.8825324 -0.9157437 -0.22738296 -0.98132354 0.30189088 0.358429 -0.0024505025 0.416561 -0.28422007 0.8410016 0.068897925 0.5867533 -0.24933872 -0.830027 0.7826884 -0.041539017 0.6233845 -0.8459888 -0.90863526 -0.12737298 -0.81112427 -0.07393237 0.5631612 0.42573464 -0.46217677 0.2191645 0.4144262 0.3334373 -0.06333181 0.7376541 -0.72441494 0.1197373 -0.60103184 0.7948704 0.6539704 -0.66487974 0.3086706 -0.28885636 -0.6809335 -0.5106979 -0.76020616 0.10094928 -0.6904331 -0.20643538 -0.27023283 0.4226012 0.35375348 0.102126904 -0.69055426 -0.017962823 0.27697733 -0.9471825 0.14600888 0.49445033 -0.27553138 0.53247696 -0.007906859 0.79071164 -0.94055194 -0.07353247 -0.24665214 -0.87722194 0.94913965 0.73663825 -0.428541 -0.733854 0.56772554 0.10563949 -0.42788094 -0.20417836 0.47887874 0.1485185 -0.9325231 0.7521427 0.90540516 -0.3435446 0.19558258 -1.0384309 -0.9819001 0.09793315 -0.28289258 0.2020023 -0.93352216 0.64893585 -0.1356907 -0.7337765 -0.48762676 0.7668281 0.740419 -0.30426064 -0.9111872 -0.7909459 -0.6913661 0.3815639 0.7578534 -0.059801698 -0.1295594 0.22133803 -0.83763087 0.8757503 0.7577872 0.41975945 0.2884307 -0.47601616 -0.7032143 0.8731183 -0.83777976 0.20870674 0.14655614 -0.43535712 -0.32916307 0.700885 0.4389492 0.77142 -0.42014664 -0.6601615 0.51020026 -0.5798241 0.95238453 -0.8064141 0.8033375 0.5204595 0.47293413 -0.4805117 0.83824426 0.77294016 -0.3910139 -0.8061845 0.8937518 0.6055095 0.9106353 0.8498869 -0.4259429 0.38735908 -0.8396154 -0.13858366 -0.25807732 -0.109883904 -0.49116737 -0.067542195 -0.7845048 -0.66384697 0.30362225 -0.6601465 -0.1430913 -0.7102283 -0.007873098 -0.32329977 0.9839916 -0.07775363 -0.47699547 -0.57928836 0.36882994 -0.7026465 0.2450449 -0.8799539 -0.5391871 -0.3916676 0.2702529 0.34478578 -0.78088367 0.6796026 0.046235073 0.97278386 -0.64154154 0.51603156 0.52728164 0.47309884 1.0157939 0.20287874 0.043184042 0.32596773 -0.5521039 -0.09351659 0.59928024 0.26611447 -0.1647693 -0.6004727 0.31856906 -0.30779698 0.8510356 0.59514874 0.6293163 0.6487594 -0.83512425 -0.7742477 0.115305394 0.88621753 0.74942607 0.1241183 -0.14013381 0.4828175 0.70899874 -0.12185673 0.70752233 -0.69867975 -0.1470446 -0.54647106 0.3944422 0.8466626 -0.16494656 0.7029756 0.6162359 -0.187692 1.0317575 0.067079276 0.2685517 -0.43305615 -0.65897894 -0.019172668 0.8872711 0.23318216 0.14940466 0.3201497 0.7176315 0.34274566 -0.98144805 -0.9375524 0.65913045 -0.72409296 0.38866407 -0.69437134 0.5198709 -0.56363434 -0.9816882 0.94911057 0.26261523 -0.0051274193 0.76864415 0.41791478 -0.99012035 0.9901273 -0.37486616 0.5883209 -0.9393987 -0.2619423 0.3219328 -0.29690245 0.303993 0.48370975 -0.5563716 -0.11594853 0.93989307 0.59041244 0.70371497 0.5986516 0.34548172 0.5206619 0.14280033 -0.59431666 0.73471045 0.98449147 0.2334443 -0.6497383 -0.6476428 -0.8739211 -0.6078102 0.16686213 -0.5219338 0.40521577 -0.7002689 -0.25382274 0.8829105 -0.6078269 0.51364505 0.32557166 0.5746993 0.14072251 -0.56121707 0.7080431 0.30665946 -0.1917629 0.68490195 0.4921067 0.34123802 0.342202 0.13279861 0.4096642 0.98856837 -0.33991385 -0.08812253 -0.97719234 0.47901595 -0.92990303 0.17963715 0.7468766 -0.5054846 0.924497 -0.48064023 -0.34502822 -0.0054531214 -0.7531368 0.22502871 -0.24476463 0.8671365 0.03240623 0.9113123 -0.39332408 -0.8318601 -0.06690546 0.06970185 0.5477646 0.68466926 -0.44184977 -0.5670898 -0.5804123 -0.64846784 -0.915016 0.883015 -0.009648563 0.9343807 0.47578886 0.9215324 0.8127992 -0.8157925 0.031550396 0.4084984 0.77438474 -0.2973068 0.86594456 0.058163743 -0.36465034 0.68224037 -0.81233627 0.7511466 0.94106567 0.45138657 0.6180126 0.8086547 -0.9255993 -0.84204495 0.037946302 -0.86223763 -0.573452 0.73101234 -0.9567863 0.58912563 0.37865385 -0.5399932 0.7468346 -0.13546766 0.06316335 0.0011389354 -0.07419348 -0.14070955 -0.36489168 -0.35988426 0.99766374 -0.06367493 0.8662759 -0.9255749 -0.41812313 -0.31543857 -0.83648866 -0.8922988 0.25642985 0.8591198 -0.58136 0.40270627 0.21067965 -0.020473601 -0.5063008 -0.69489264 -0.28229368 0.67872274 -0.20623988 -0.101934895 -0.27851263 -0.088518165 0.04303589 0.43920618 -0.061492644 -0.680704 0.3307581 0.5959876 -0.18141112 -0.22071649 0.12292519 -0.5477523 -0.4765769 0.5540082 0.7706399 -0.92938966 -0.7853684 0.4022213 0.48797524 0.2714092 -0.63378334 0.8585807 -0.8147496 -0.6679655 0.18975627 0.64527607 -0.5984889 -0.50592005 -0.5131178 0.6641407 -0.98644006 0.6180861 -0.24525072 -0.056169946 -0.893942 0.007829368 0.024418252 0.04007232 -0.9259123 -0.3970288 0.8637849 0.66539043 0.18630141 -0.4293172 -0.4527294 -0.23213437 0.7827405 -0.32275894 -0.52355474 -0.7774484 -0.043219447 0.10730122 -0.29215032 -0.96360856 0.94903475 0.67536485 0.51532245 0.6190298 -0.45490685 0.8414783 -1.0082346 -0.15823166 -0.6228126 0.4603052 0.4694199 -0.22855927 0.49379253 0.1784359 0.044395175 0.36411613 0.035346832 -0.58084625 -0.9659998 -0.13394944 0.54512423 0.46667343 0.3928231 -0.5662504 0.4298871 -0.5423667 0.8205045 -0.46801955 0.6878441 0.18868257 -0.565602 -0.505495 -0.24136478 -0.1908441 -0.85055476 0.6736252 -0.78713995 -0.6576441 0.23191564 0.5283968 0.55028296 0.030115947 -0.31730607 0.7040124 -0.627502 0.2925138 -0.6413868 -0.95678777 0.43135372 0.6317503 0.54921305 0.71618664 -0.067567125 0.88344705 -0.9493643 0.4764313 0.10797963 -0.21133079 0.24985287 -0.33774334 -0.47882363 -0.3838522 -0.035938587 0.77715176 -0.4441912 -0.7173062 0.7137555 -0.790434 0.86138207 0.6615004 0.8707502 -0.3038242 -0.6819072 -0.21441722 -0.66681546 -0.6624318 0.6936255 0.18374753 0.59028023 -0.37996566 0.3283348 0.6505991 0.47777292 0.88614786 0.19069634 -0.18374965 0.14563024 0.011103161 0.357145 0.35919473 0.98309225 0.7506562 0.044379354 -0.25154793 0.38251904 0.44732037 -0.46352118 0.39932087 0.7621966 0.3100964 -0.109712996 0.079911135 -0.6838395 -0.36573434 0.31256506 0.926538 0.1896936 0.98721576 0.5686527 0.45004785 0.78124565 -0.50143665 -0.6884379 0.07773379 0.95556426 -0.7801714 -0.58789533 0.07085539 -0.62499666 0.2764094 0.7535411 -0.19214913 0.126929 -0.34409362 -0.27212137 0.24088593 0.92578393 0.2507455 0.8242788 0.86173916 -0.896184 -0.61483747 -0.5886863 0.5028563 0.21684355 0.8125176 -0.61113924 -0.84430563 -0.16081993 0.10339308 0.7805626 0.7884012 0.43547207 0.039630283 0.07838572 0.16323079 -0.72395176 -0.14250872 0.71349263 0.70245546 -0.10138834 -0.058598626 0.22051844 0.8693735 0.19824322 -0.453335 0.9867148 -0.036834225 0.8833073 0.021544201 0.48205996 0.6256515 0.35183832 0.5304504 0.7863259 0.51840425 0.9098075 0.6127443 0.6040052 0.31893885 -0.9345492 -0.95859325 -0.53760463 -0.60911375 -0.85512716 -0.7403942 -0.5218641 -0.9130216 0.20882271 -0.8318977 0.8777649 -0.07933233 0.84077 -0.2822994 0.2057346 0.65932524 -0.62782776 -0.987957 0.7281986 -0.97134733 -0.6819036 -0.90839803 0.76455796 0.10509472 -0.13675141 0.7935091 -0.3887858 -0.90338385 -0.9375836 0.2682427 -0.46405128 -0.75765187 1.0179154 0.44727692 0.77373123 0.56149477 -0.74712765 -0.23878752 0.81905305 0.57909876 0.91940653 0.087148644 -1.0203531 -1.0300596 0.39893892 -0.638473 0.6534271 0.25862178 0.70827883 -0.56580955 -0.47616506 0.094537236 -0.097473636 0.90679026 -0.80600166 0.30073416 -0.9857193 0.9000591 0.1781252 0.8315426 0.8972931 0.7492715 -0.23422362 0.11515173 0.07961486 -0.75057375 0.77111113 0.94154763 -0.76205224 -0.98511815 -0.7204748 -0.6293419 -0.66764736 0.74198097 0.7012322 -0.7787853 -0.88649064 -0.3229221 0.04971862 0.43773267 0.5220098 0.73081553 -0.671659 0.4238612 -0.37573045 -0.26149824 -0.7987769 -0.65668476 -0.22391719 0.46152115 0.7264046 0.6123454 0.38469094 0.66624033 0.70267653 0.2093606 0.6402606 0.47678345 0.4338863 0.41979325 -0.052255835 -0.58522356 0.6029418 -0.20795971 0.80559355 0.9492729 0.6776312 0.9106739 0.18201989 0.21301493 -0.0800986 -0.7282732 -0.13163029 0.78501683 0.9625029 -0.8461264 0.7834261 -0.4161502 -0.43217006 -0.82808715 0.4484544 -0.5954804 0.5858204 -0.16788849 -0.22392185 0.12467197 -0.15656814 -0.6585002 0.73537457 1.0042946 0.4839419 -0.2700042 0.5567283 0.21164025 0.9239474 0.012744919 -0.5726435 0.8993124 0.5125348 0.4532458 -0.9465884 -0.95538944 0.27747142 -0.06136138 0.6630351 0.07803273 -0.122100346 -0.25359258 0.60775787 -0.14468212 0.7913234 0.32850572 0.6298969 0.7021495 -0.38387012 -0.2583007 0.22788739 0.8743585 0.33039722 0.2515061 -0.01101709 0.6773289 -0.25664175 0.17677355 0.8211617 0.9515331 -0.044549674 0.23659484 0.929649 -0.43238997 0.6872205 0.98520005 0.70798004 0.9572943 0.7122892 -0.21949051 -0.33887914 -0.3881023 -0.0051370854 -0.7185707 0.9676705 1.019909 -0.741499 -0.89814794 -0.19710061 0.49101833 0.79446465 -0.041418444 0.19391882 0.033336107 -0.5089742 -0.9455764 0.6352497 -0.1931061 -0.67845136 0.4700731 -0.45267516 -0.3914854 -0.5289194 0.6329387 -0.7800915 -0.38460526 0.51320297 0.48496306 0.40775797 -0.55712914 -0.9051237 0.5038109 0.4416242 -0.1119837 -0.34971553 -0.9422659 -0.8285628 0.82538164 -0.26818874 0.73518825 -1.0307969 -0.2221287 -0.20311974 -0.9624353 0.23471123 0.01405597 0.026895376 0.5639452 -0.18130378 -0.35159364 -0.060425308 -0.37747094 0.94743687 -0.25701052 0.7104664 0.35614398 0.78358227 -0.42510587 -0.28021535 0.77468604 -0.6005912 -0.9318233 -0.2999218 0.8880821 -0.7576483 -0.44196743 -0.5281678 0.0735001 -0.81911534 -0.7314525 -0.82691705 0.84243846 -0.48847368 -0.13857624 0.34890118 -0.90829456 0.777224 0.31723082 0.8046266 -0.50474 0.2854572 -0.766181 -0.57914895 0.9079769 -0.42196578 0.26289117 -0.7683001 -0.61094266 -0.6848591 0.84437686 -0.09219973 0.9876472 0.72854054 0.1503669 0.19665883 0.6332834 -0.47960114 0.59684837 0.73814374 -0.38223988 -0.35598817 -0.93284094 -0.1912765 -0.82390934 -0.55481213 0.66029394 1.0218121 -0.9459479 -0.9304678 -0.4661571 -0.012077402 0.8645428 -0.1353411 -0.18024811 -0.81967103 0.040836502 -0.6839905 0.41677797 -0.9691601 0.7262438 0.95042324 0.08826066 -0.011998886 0.011289129 -0.339138 0.8211513 -0.5678855 -0.4932371 -0.5092378 -0.26225385 -0.636786 -0.8666149 0.04325957 -0.6613326 1.017944 -0.68219954 -0.9932327 -0.49749577 0.50761116 0.48212922 0.718189 0.29307538 -0.6681479 -0.06557849 0.6486412 0.9418745 0.9073465 -0.036219053 0.054638974 -0.8621285 -0.23439172 -0.6128647 0.94216216 -0.07497192 -0.69082904 0.14110883 0.2644952 0.092713684 -0.7095592 0.62995166 0.81041473 0.27741748 0.42805183 0.8412985 0.7139811 -0.6259075 -0.21365124 0.78473604 -0.45833978 0.39520335 -0.3178399 0.79156405 0.19310646 0.22804038 -0.17960048 -0.5038934 0.07895607 0.2954579 0.40399766 0.32075536 -0.7497798 0.1625143 -0.73743814 0.57691103 0.6469138 -0.5127288 0.8160625 0.38221496 -0.96330816 0.6168075 -0.99808264 -0.34397092 0.37438628 -0.4317152 0.47577697 -0.42830482 0.15406077 0.60083467 -0.0393985 -0.73019904 -0.44928882 -0.4833613 -0.4388661 0.027393345 0.67365086 0.89329094 -0.26131198 0.8936231 0.89755034 -0.45664695 -0.7826479 -0.3832577 -0.8076356 -0.97450954 -0.843715 -0.5111497 -0.865569 -0.83171177 -0.12238543 0.32519308 -0.18945847 -0.47084624 0.40472603 0.13053733 0.7495063 -0.28633815 0.089042224 -0.22340591 -0.04836306 -0.6651396 0.42579618 -1.0007977 -0.027414776 0.010024941 -0.44793105 0.78040546 -0.0152434455 0.9763064 0.043208152 -0.034781814 -0.5976917 -0.49709892 -0.19037949 -0.49383193 0.57101494 -0.43876243 -0.11154999 -0.93833494 0.41365275 -0.9036163 -0.99157315 -0.74883056 0.34749925 -0.30408797 0.8454472 0.11520785 0.46543285 -0.4468739 0.5405086 -0.6140022 -0.18745694 -0.51782125 -0.90814716 -0.5617565 -0.91838187 0.16300309 0.85406846 -0.74146104 0.30212852 -0.91583 0.7138611 -0.9424902 0.7808872 -0.29629514 0.55776256 0.18992019 0.25772196 -0.90072566 -0.9969985 -0.5259021 0.27687395 0.09779067 0.633882 0.81517994 0.4002262 0.7718123 -0.30399963 -0.04932864 0.31183913 -0.2966748 0.5530319 0.97116596 -0.33186916 -0.17216027 -0.8080686 0.062351953 0.43552893 -0.8230609 0.8520686 0.41994816 0.27385926 0.7320995 -0.2443234 -0.08837038 -0.27628678 0.928812 -0.10963047 -0.12481394 0.97375685 0.6847517 0.3638785 0.72583514 -0.9852137 -0.05564661 -0.5097873 0.6102211 0.7279718 0.6318787 0.2897598 0.5277228 -0.51428205 -0.72845787 0.98643285 -0.21243224 0.2033995 0.066589706 0.91881263 -0.6649152 0.0496128 0.65082663 -0.7202713 -0.84336233 0.09264385 -0.8001115 -0.19800486 0.42843497 -0.5724261 0.10943377 0.5907993 -0.70353264 -0.45894402 -0.09778961 0.82001036 0.044157717 0.3600366 0.41132358 0.89080626 0.19717321 0.22340116 -0.8911166 0.7236408 0.69710696 0.46438658 -0.9088397 0.010211114 0.92889106 0.20217465 0.3371731 0.30273598 0.03865353 0.9611047 0.97242403 -0.17161967 0.11854851 -0.23696497 0.59629834 -0.940706 0.6306307 -0.61050636 0.8354789 -0.90110743 0.45743412 -0.8292402 0.9312575 0.13727112 -0.370474 -0.96797967 -0.26032853 -1.0229824 0.11025769 -0.35371646 -0.8798154 -0.54459465 -0.020941596 0.85659736 -0.7807453 -0.099508464 -0.2474877 0.0076597477 -0.036352992 0.91194355 0.5273059 -0.86999047 0.16957425 0.23423237 0.080579646 -0.048665762 -0.13029481 -0.5864477 0.17064205 0.89951646 -0.5274565 -0.9936795 -0.018755173 -0.52824074 0.95298254 0.034710974 -0.7689069 -0.27503362 -0.61327463 0.6586952 0.07357678 -0.4817713 0.7961482 0.9739717 -0.5877246 0.39912674 0.8041351 0.38382173 -0.93368894 0.85369843 0.2918857 0.118698284 0.39578962 0.63935435 -0.7572747 -0.84566087 -0.26127678 -0.19714375 0.8360139 -0.11930454 -0.8247186 0.43921548 -0.8951398 -0.29254973 -0.8542437 -0.6902646 0.33111495 0.5042004 -0.12975508 0.4073535 0.6485338 -0.4151659 0.86503154 -0.93802124 -0.6983276 -0.07833001 0.29450628 -0.9347245 -0.35983723 -0.25456268 -0.47783664 -0.51326174 -0.2852422 0.1668095 0.28243816 0.054272205 -0.2804206 0.9348007 -0.95611066 0.10058679 0.1588809 0.49114153 0.832484 -0.054686587 -0.5941515 0.84406716 0.6061054 -0.60985035 0.66965085 -0.73780817 -0.7945979 0.24369499 -0.5308237 -0.21581268 0.75475335 0.42057288 0.74327165 0.16829444 -0.8947781 -0.1886443 0.9254777 0.21856259 -0.8087531 0.40603283 -0.51318043 0.16107075 -0.21118313 0.016869687 0.5109541 0.6753426 -0.31931737 0.513952 -0.3762287 -0.52747 0.8951917 -0.62224525 -0.11250246 0.2880304 -0.754556 -0.86243623 0.37662292 0.5611796 0.851799 -0.86680627 0.97736895 -0.8008403 -0.82739675 0.5624124 0.47768643 -0.47573215 -0.30772474 -0.8201942 -0.69022876 -0.5523468 -0.017521534 0.20372859 -0.51167315 -0.13349928 -0.25123164 0.4565878 0.15332127 0.441697 0.7013923 0.61622053 -0.0131332725 -0.58563876 -0.7419362 0.3660687 -0.4793751 -0.04653787 0.13452399 -0.21049353 0.9220621 -0.70252866 -0.5613323 0.8662318 0.5119379 -0.73643845 -0.045825038 0.65654075 -0.7669759 0.06993337 0.5968096 -0.09070942 -0.0023502714 0.061090026 -0.6314843 -1.0149984 0.5767764 -0.18107092 0.5607722 0.8504749 0.64016336 0.47215253 0.22149248 -0.681272 -0.9736096 0.08204374 0.4060034 -0.86521333 -0.66139805 0.7458423 0.5539723 -0.6228958 0.1210341 0.041331872 0.7525905 0.15203807 -0.06779145 0.11512831 -0.5327893 0.40058917 -0.39747226 -0.09581813 0.8872965 -0.605771 -0.47531623 -0.8296117 0.9910157 0.20873748 -0.32018095 0.77431047 0.72950816 -0.29034427 0.9686311 0.15309599 -0.8341905 -0.74422306 -0.53868383 0.8327737 -0.25799918 -0.18036991 -0.6054745 -0.3218557 -0.9221255 0.28845304 0.019835621 -0.48547253 0.70669097 -0.12523045 0.73784417 -0.32578936 -0.79593885 0.46006587 0.84476256 -0.2408513 -0.8683183 0.87048125 -0.94464004 0.3554326 0.37723643 -0.6546335 0.39246762 0.39858764 -0.24152988 -0.5434769 -0.4069703 0.44032207 -0.3449328 0.36419165 -0.92160606 -0.62741745 -0.8883415 0.5738531 -0.6657226 -0.015424736 0.8780622 0.8697295 0.014282142 0.334877 0.64862937 0.9505998 0.59413904 0.7073415 -0.65026706 -0.48543915 -0.92711645 0.40987623 -0.33059672 -0.42118588 -0.05679411 -0.72612774 -0.07202759 0.6497135 0.7806171 0.7810719 0.96578294 0.6378162 -0.6610998 0.7589228 -0.06454348 0.045758843 -0.19474818 -0.32436174 -0.12638256 -0.6265259 0.5760087 -0.57127035 -0.3629507 0.7462011 0.3185932 -0.13531756 -0.5012336 -0.37143582 0.14483938 -0.41993842 -0.43927333 -0.5350248 0.44558954 0.15726686 -0.97691613 0.074111536 -0.3391655 -0.18229985 0.66692036 -0.19511 -0.7199046 0.5128878 0.7152908 -0.5625286 0.79753155 0.6915688 0.7372462 0.29700333 0.80081606 -0.753206 -0.6932986 -0.27165157 0.3155884 -0.23328666 0.14556502 0.9937726 -0.79108775 0.34325317 -0.9638619 -0.89768904 -0.3027689 -0.95994264 -0.60831136 -0.31469858 0.051104188 0.76267207 0.20119755 0.6462348 -0.5827674 0.033449568 -0.8034051 -0.14337741 0.7843707 -0.43329218 -0.21796493 0.34818795 -0.056325916 -0.44068214 -0.8288948 0.18037395 -0.5019632 0.8187486 0.7591585 -0.74174 -0.54034233 0.0045806216 -0.41223222 0.0345096 0.14361979 0.15083358 0.82562023 -0.2555474 0.093741655 0.6704064 -0.70381045 0.5543554 0.8768222 0.33459473 -0.8163462 0.3791645 0.9779524 0.32451716 -0.16383357 0.766146 -0.47825167 -0.9006349 0.8345795 0.07881522 -0.9464724 0.298733 -0.23061834 0.38544044 0.94041795 -0.6526321 0.7150441 0.5735083 -0.06249602 -0.8066719 0.9544608 -0.17170759 0.38961947 0.43289208 -0.8995644 0.95766985 -0.6888312 -0.7640949 0.85677266 0.6732093 -0.81964916 -0.14570175 0.67076284 0.06652226 0.7754807 -0.27322662 -0.39748573 -0.93739206 -0.118036486 -0.9372526 0.26624754 -0.9228123 -0.9900353 0.48658395 0.6826409 -0.44119838 0.6935259 -0.0112735955 -0.06656175 -0.7662626 0.38382986 -0.94620985 -0.43485272 0.27953488 0.34248954 -0.97997326 -0.6183086 0.6437684 -0.4513367 -0.9266978 0.59345555 -0.44689873 -0.32678294 -0.6824466 0.970662 -0.86584496 -0.9249466 0.2935819 0.49848652 0.57582563 -0.17008853 0.12765676 0.09040193 0.10284833 -0.80368453 0.3590911 -0.06245277 -0.94899815 -0.041376468 0.72561866 -0.5405656 0.9859379 0.8049711 -0.2619609 -0.3471788 -0.47009724 -0.12766436 -0.72907615 0.18427743 0.5438115 -0.39951223 0.11633904 0.65263313 -0.7441844 -0.9228969 -0.7041004 -0.6041176 0.41232178 0.81312853 -0.5922894 0.68083096 -0.41057214 -0.9383499 0.94503033 0.04421954 0.026222238 -0.89449924 0.59985894 -0.25430802 0.61360604 0.5540796 0.59623146 0.5145726 -0.6069993 -0.4014281 -0.24205552 0.010051527 0.8344981 -0.7275068 0.3622028 -0.45147064 -0.19338037 0.038573775 -0.21304032 -0.037919346 0.14549121 -0.013529719 -0.636425 0.7979715 -0.36645627 0.9580312 0.57896405 0.7393204 0.81113434 0.6633271 0.6486598 0.04370836 -0.98198587 0.85612893 -0.42623338 -0.5476023 -0.7084852 0.10482339 0.26318428 -0.4162532 0.25266048 0.18915036 0.91177523 -0.14422585 -0.524709 -0.5599035 0.8455913 -0.08919489 -0.8414211 -0.19990613 0.87128514 0.36137748 -0.75268924 0.12046101 -0.67993546 -0.59801894 -0.091017015 0.13236918 -0.13387738 -0.75289875 -0.54179096 -0.022081017 0.18092307 0.5623717 -0.92498803 0.1687995 -0.96076965 -0.97084594 0.89775825 0.1777675 -0.25423315 -0.9517846 -0.2847561 -0.7299516 -0.59558856 -0.68938005 -0.605298 0.40755528 -0.6912535 -0.19596657 0.5167502 -0.93702143 -0.91489816 -0.05653283 0.7672649 0.57623696 0.48517215 0.7808606 -0.65016156 0.6057161 0.84587705 -0.9275201 -0.7862243 -0.43364993 0.1837067 -0.57547855 -0.15466064 -0.17630303 0.64911264 -0.005643045 0.45588833 0.4351192 -0.50518453 -0.84473896 0.30715817 0.8714497 0.123381905 0.5572657 0.67964554 -0.35126835 0.3204905 0.7062307 0.91321486 -0.0067527913 0.66940206 0.043578517 -0.34362483 -0.22444978 -0.5536034 -0.27978256 -0.19903193 -0.02572913 -0.65414506 0.8976255 -0.52630526 0.35787737 -0.30904403 0.73334485 -0.38745078 -0.6600961 0.34396663 -0.12761036 -0.016447758 0.73928934 -0.097618476 -0.27019906 -0.18048282 0.35585973 0.7084828 -0.3122633 0.76950794 0.26147532 -0.49316534 -0.4698108 -0.95801103 -0.32054734 -0.34394273 0.80263734 0.45498133 -0.50323576 0.75796497 0.266832 0.2120751 0.043795798 0.45916644 -0.08139895 0.21190448 -0.41029307 -0.256847 -0.084269226 -0.4844979 -0.043026987 -0.9583321 -0.20276438 0.36629412 -0.44804204 0.10956238 0.8034281 0.5012514 -0.20746875 -0.84053916 0.6793868 -0.03953168 0.65661 -0.01179162 -0.9313756 -0.57748985 0.79408956 -0.97321767 -0.04022406 -0.1773547 -0.69138557 -0.72104526 -0.96019167 -0.13360289 -0.9979169 -0.36751294 -0.6109177 0.9453438 0.696129 0.8113932 -0.88388956 -0.6162953 -0.9983578 0.47461212 -0.72840774 -1.0001233 -0.091853015 -0.20398831 -0.6839633 -0.6695716 -0.2973003 -0.7267211 0.4793812 -0.87562054 0.94055897 0.11156202 0.17579953 0.18128598 0.7442461 -0.08420623 -0.77665746 0.5385692 0.81612074 0.12767567 -0.31924516 -0.384739 0.6477323 -0.13622136 -0.5289448 0.77927035 -0.21522975 0.5332852 0.6539625 0.62254685 -0.1552654 0.021460252 0.98726755 -0.15035468 -0.40756217 -0.38091198 0.6893612 -0.4352718 -0.2116508 -0.7818833 0.15198572 -0.68563014 0.3236851 0.106100686 -0.96366614 0.7044751 0.106906965 0.44740024 -0.47772783 0.45447534 0.27951896 0.055216607 -0.18734065 0.96288794 -0.70922726 0.8265528 0.96532 0.8728413 0.8550096 0.7868167 0.69024575 0.3249018 -0.42719057 -0.6924042 -0.3035209 0.46037495 -0.81730574 -0.74528205 0.2798437 0.6825509 0.014253552 0.27441105 -0.9128534 -0.046736844 -0.86864334 0.18526736 -0.74075216 -0.48109388 -0.12618649 0.4396169 0.72369397 -0.44109222 -0.46057534 -0.31483865 -0.8629818 -0.1230489 -0.8240386 0.4800726 0.15299082 -0.27821162 0.51949704 0.005698752 -0.7548364 0.773171 -0.43388048 0.2514561 -0.27684188 0.16075134 0.30212805 -0.2206245 0.028097155 -0.8856111 -0.6937165 0.5738746 -0.5702099 -0.940418 0.047223914 -0.08324326 0.31091294 0.7743906 0.10172618 0.09278788 0.3257203 -0.35156187 0.33106568 0.54829276 0.83100766 -0.42284802 0.16767015 0.3037665 0.9084706 0.5566634 -0.06665325 0.3174078 0.13880767 0.2774372 0.5383545 -0.41064414 -0.9821068 0.8508936 0.81725776 -0.78553784 0.65443504 0.6731093 -0.14435397 -0.967656 -0.88226676 -0.8062541 -0.29284686 0.69560415 0.77828366 0.16929789 0.8503416 0.36740294 -0.63847345 0.15988761 -0.39972734 0.19042408 -0.91583306 0.4693577 -0.19494514 -0.921317 -0.4263242 0.61137015 0.8177698 -0.75326246 -0.65258443 -0.6866989 0.055865582 0.18887559 0.6411868 0.75708956 0.05357488 -0.58622897 -0.80906713 0.88994324 -0.7505516 0.43820298 -0.39571154 0.25448707 0.06774171 -0.49790904 0.7797604 -0.81250054 -1.0077556 -0.60776633 -0.04907917 -0.9528453 0.5124101 -0.26781234 0.52576786 -0.80848914 -0.95570654 0.43294865 -0.96076757 -0.3173392 -0.32706428 0.22059381 -0.50623184 -0.18155234 0.28004175 0.25458708 -0.2150577 -0.4719438 -0.036867477 -0.6142304 0.2556435 0.21571104 0.5287421 0.33456838 0.2683497 -8.014395E-4 -0.3484738 -0.20984963 0.017471222 -0.0423937 -0.7905191 0.5425696 -0.5739542 0.9378123 -0.45296937 0.38057208 -0.16419877 0.29770234 -0.7961897 0.66888815 0.007049538 0.30796686 0.7801581 -0.0045456444 0.45450053 -0.2749734 1.0111566 0.8302104 -0.061236672 -0.5790762 0.58594877 -0.086181656 0.24409279 -0.47382826 -0.37461913 -0.56057304 0.95272547 0.8611055 0.29843247 -0.2628622 -0.21497555 -0.27084842 0.7181406 0.41153815 -0.31345898 0.97574174 -0.0058677923 -0.42043346 0.61862975 -0.20124152 0.19962648 0.6635525 -0.9035075 0.042843584 -0.84662825 -0.10642019 0.3164089 -0.89249796 0.11775277 0.4483018 0.21136485 0.2565337 -0.9132581 -0.8418137 -0.40662277 0.70614153 -0.8301821 -0.10452825 -0.3888551 0.9804278 0.61085063 -0.21153745 0.7111644 0.9666022 0.4808767 0.82541233 0.13299292 0.13387981 -0.7376802 0.77696407 -0.5843154 0.709808 -0.16387141 -0.12093601 0.25763142 0.818706 0.07812937 -0.6486717 0.3965825 -0.61962444 -0.44432956 0.7745071 0.71364456 0.7908898 0.99344105 0.9077552 -0.081700385 0.5122661 -0.71772885 0.65640634 0.018052759 -0.8775533 0.42451555 -0.8742378 -0.40821227 -0.68550617 -0.2950762 0.4934947 -0.51917 -0.5203465 0.56066364 0.6105517 0.22681925 0.44744155 0.7697031 0.29920855 -0.93587995 0.72101814 -0.60770553 0.80590475 0.47128737 -0.27770582 -0.8973821 0.020493412 -0.0076872157 -0.9624067 -0.6963714 0.4333945 -0.97341454 0.8266758 0.71745455 -0.95914084 0.53968567 0.17850614 -0.11794289 -0.41858134 -0.954101 -0.20904805 -0.85040754 0.52448195 0.04034168 0.5518184 0.88599825 0.9600911 0.1699419 0.95259583 -0.005858144 0.8522313 0.11742675 0.5843909 -0.7298356 -0.17711432 0.3561201 0.89059263 -1.0014806 -0.19721963 -0.89620566 -0.21502376 -0.20102859 0.6823487 -0.8689777 -0.29905096 -0.37489274 -0.71649957 -0.8741239 0.70450616 -0.2612102 0.82106125 -0.48865086 -0.4175153 -0.16112633 -0.072571725 -1.0279241 0.34408072 0.39983276 -0.20517592 0.44073793 -0.20808743 0.5882624 -0.5423162 -0.2779382 0.70337176 -0.7858522 0.04688396 -0.5906649 0.37194765 -0.9527137 0.4801469 0.23172273 0.6959919 -0.69432425 -0.36489373 0.6072993 0.09880194 -0.08301639 -0.7193539 0.91045904 0.17956114 0.019128317 0.62922364 0.07047525 0.28208095 0.061874084 0.8020617 0.7535028 0.44992632 0.80678177 0.093649864 -0.5883574 0.40416 -0.16656403 -0.37941074 -0.6774947 -0.5865658 -0.8591055 0.7175824 0.45044827 0.8327136 0.1995132 -0.7205953 0.7325836 -0.6245126 -0.027245162 -0.9944378 -0.91123223 0.5445801 -0.5402044 0.491071 0.49637806 -0.88501894 0.4476183 0.47961202 0.4235368 0.43861994 0.24531011 -0.4404695 -0.70723575 -0.7481659 -0.57395905 -0.7827009 -0.37788442 -0.54126626 -0.981536 0.78902453 0.14669801 0.963016 0.6566563 -1.0129664 -0.18675439 -0.2720116 0.3564803 0.3136795 0.7197712 -0.2210557 -0.49798477 -0.6244365 0.302997 0.6369908 0.19578467 -0.36926794 0.9282716 0.88714033 0.75668246 0.23613319 0.5034563 0.7286613 0.012700915 -0.1869824 0.6171917 -0.6095222 -0.65148026 -0.7674304 0.951709 0.8522077 0.44717866 0.99413604 -0.9686261 -0.99618345 -0.87802523 -0.84031904 -0.48456886 0.14650035 -0.52318466 0.8970675 -0.20767342 0.7110493 -0.3279916 0.6277604 -0.17415464 0.86701447 -0.35792518 -0.094561376 0.7933077 -0.13301833 0.50037324 0.21510231 0.045784477 0.7450621 0.9710343 -0.83838016 0.7908286 0.9197854 -0.004557227 0.875347 -0.943479 -0.43855444 -0.2636659 -0.4371314 -0.90962446 0.1807839 -0.3343391 -0.25921386 -0.22232486 -0.72905666 0.06837783 -0.99318844 0.9189726 0.093323626 0.43721533 -0.6398637 0.90804493 -0.48558226 0.7609699 0.07298438 0.43068552 -0.23619518 -0.4376642 0.54243547 -0.10439931 -0.5964495 -0.013687106 0.018091545 -0.58960545 -0.06777918 -0.5105827 -0.86999714 0.9441341 -0.49638566 -0.8310694 -0.059008207 -0.3091699 0.80228144 -0.2137289 0.79776174 -0.39392206 -0.11179968 -0.7300771 -0.25992936 0.3835011 -0.3517807 0.22918254 0.9500806 -0.8261868 0.8230973 0.8136221 0.6423593 0.20393427 -0.14413995 -0.31126565 -0.56585765 0.40123692 -0.77967185 -0.2563396 0.07143487 -0.018330308 0.13670664 -0.6016399 0.2279658 -0.94232446 -0.7541098 0.72021264 0.4421114 -0.69180405 -0.0691848 0.69534177 0.65892017 -0.4164449 -0.8739802 0.6477142 -0.4606782 -0.21891677 0.5340379 0.12530144 -0.7795621 -0.8013524 -0.43272156 0.5672617 0.23974268 -0.16550484 -0.19617438 0.6246857 0.92371505 0.633169 0.81808037 0.11764806 0.6154415 0.7621372 0.5479698 -0.2144841 -0.48762262 0.4979409 0.4408859 -0.39424247 -0.5170106 -0.5068666 -0.7092062 0.16398412 -0.14624032 -0.9874211 0.5799002 0.8990365 -0.13624038 0.6545805 0.17448807 0.2258606 0.44617137 0.28383636 0.40784845 -0.88177514 0.9723946 -0.04395468 0.50173235 -0.5176853 -0.14336304 -0.05788826 0.033326082 0.94712406 0.8624305 0.5786889 -0.21732463 -0.3511767 0.09785624 -0.45457616 -0.7596325 0.09144961 0.44290864 0.109196045 -0.7086052 0.5770228 -0.12393473 0.9808807 -0.22358537 -0.9839444 -0.66091526 -0.32547784 -0.32885468 0.97693336 0.5240495 -0.22012506 0.9476491 0.32144514 -0.013382573 0.27723002 0.6429093 0.45968747 -0.0109319445 0.3472125 0.4669127 -0.90171474 -0.054031547 -0.1431133 0.5166889 0.3618527 -0.39663255 0.3220304 0.84843177 -0.32326686 -0.9297925 -0.6676801 0.92045426 -0.9182643 0.51244015 -0.15622433 0.9359612 -0.06922477 0.69588536 -0.7527029 0.1911469 0.5112388 -0.5150187 -0.27110553 0.693598 -0.9540939 0.1816265 0.42961276 0.17697829 0.33360443 -0.6302338 0.07407373 0.34603935 -0.6003718 -1.046032 -0.70301384 0.98691326 0.807749 -0.65523535 -0.65637845 -0.7781954 0.94047296 0.6495364 0.8567075 0.9289208 -0.07439794 -0.02785997 0.8280606 0.89429617 0.3819684 -0.3996139 -0.33833143 0.6487239 -0.059848934 0.44167495 -0.70675015 0.8768977 -0.6423211 0.7120754 -0.49431437 -0.6431202 -0.1647561 0.8570699 0.7218347 0.008473556 -0.23630965 0.63212186 -0.8743205 -0.22712179 0.59892815 0.43441972 0.2558657 -0.67974025 0.67115325 -0.53042084 0.28073913 0.63367194 -0.4167321 -0.06056074 -0.19425398 0.26005054 0.08523725 -0.21841884 0.38012442 -0.40438715 0.9414388 -0.16808107 0.042593066 0.5959732 0.081331275 -0.95127136 -0.2937228 0.3246053 0.51040095 -0.017101554 0.41468564 1.0037048 0.03618622 0.9816186 -0.4248231 0.26432836 -0.30187356 -0.3766089 -0.16715144 -0.66918916 0.13866416 0.31747496 0.34769475 0.81959325 -0.16339883 0.43496305 -0.69688356 0.18739107 0.2843198 -0.6940513 0.48459148 0.72195613 0.92517257 0.6530395 -0.64231384 0.012278796 0.73514533 0.82764643 -0.8554214 0.645672 0.3183895 0.14047968 0.6544271 0.81198 -0.6660233 0.8915092 0.9423559 0.5990471 -0.14917609 0.6425753 -0.88514125 0.81095684 0.58301127 0.14524165 -0.5353467 -0.2770417 -0.5750216 -1.0114152 0.71278065 0.19774564 -0.10117925 -0.15333262 -0.81253856 0.8984203 0.36916646 0.31682545 0.68907386 0.8454055 0.44239944 0.8845728 0.64887184 0.92612624 0.19487132 0.660897 0.2828596 -0.56142104 0.66793585 -0.5705323 0.52710056 0.5532483 0.3973924 1.0120443 -0.9453185 0.7167631 0.27080077 -0.38416347 -0.8601688 -0.5658826 0.47542924 -0.84702814 0.61595154 -0.76529247 -0.6184266 -0.27840886 0.38181785 -0.91424996 0.108089276 0.16646916 -0.30504215 -0.7502066 -0.79403484 0.426162 -0.3252774 0.88245165 -0.726227 0.3605959 0.26339734 0.21167131 0.3817401 0.96802276 0.0394509 0.5393266 0.37425566 -0.24601687 -0.6977086 0.15074515 0.11222422 -0.84592694 0.5019456 -0.8824019 0.38907406 0.25225884 -0.506353 0.08846206 -0.51550764 0.37706143 -0.14038122 0.5368958 0.71526134 -0.74220705 -0.4167189 -0.5147341 0.791455 -0.8061619 0.41848904 -0.4473045 -0.69028574 0.347023 0.80078334 -0.7566142 0.9581198 0.31722817 -0.027498947 -0.7650072 0.025808398 -0.16647115 0.2895169 0.08811058 -0.4671778 0.6184416 0.102505066 0.34358194 0.9681252 -0.037934884 0.35298336 -0.8002745 0.48452723 -0.65102684 -0.9760026 -0.538288 0.9168937 -0.6395485 0.017827667 -0.7215643 -0.78037035 -0.14300871 0.54279387 -0.89769685 -0.540523 -0.07018851 -0.7073568 0.2516559 0.20585702 -0.46235046 -0.7915005 -0.68822366 -0.691523 0.7159852 -0.5459494 0.18979965 0.74793464 -0.47970974 0.4777905 0.31741917 -0.37425104 -0.5521516 -0.21362527 -0.30349132 -0.10416778 0.020145709 0.08787301 0.8289436 -0.010356246 -0.7202889 -0.8034799 -0.87974 -0.91559327 -0.46768314 0.5863971 -0.08015003 0.8299081 -0.18676344 -0.5517702 -0.24476157 0.197792 0.78973573 0.24029255 0.29114187 0.07579363 -0.55695784 -0.64528984 -0.9215751 0.47790942 0.9754395 -0.082865074 0.3287991 0.7857924 -0.69180685 -0.9700142 -0.33847356 0.38763797 -0.7494896 0.7692823 -1.0030466 0.11266071 -0.38079393 0.102868795 0.33170637 -0.20168565 -0.9488152 0.0942273 0.09157455 0.96687955 0.44959027 -0.07334393 0.8664663 0.48273003 0.84622663 -1.0000619 0.61715496 0.37300998 0.20972355 -0.030449513 0.37503985 -0.31874913 0.12395284 -0.6056777 -0.08346865 0.07009693 0.43899944 -0.32469654 -0.41317964 -0.9615561 -0.670185 0.14813559 -0.36922148 1.026572 0.81953925 -0.9067048 -0.36123762 -0.78791416 -0.01978576 -0.3170482 -0.4100834 -0.36972895 -0.37334484 -0.7769204 0.7043139 0.99271524 -0.4826237 -0.1092399 -0.55881107 -0.8851388 0.61869824 0.2570773 -0.23828521 -0.9087475 0.15855181 0.45673454 -0.94549817 0.47233087 0.7083978 0.58861095 -0.5387092 -0.082884096 -0.94184715 -0.3311021 -0.19847813 0.30233487 0.2716278 0.99504125 0.56027514 -0.3654637 -0.9494986 0.69572747 0.028536446 -0.28313944 -0.37482688 -0.06938503 -0.5722449 -0.55679345 0.024871243 0.41451788 -0.12790544 0.57029957 0.3783027 0.8566935 -0.8253485 -0.5760553 -0.9183682 0.13450335 -0.54112685 0.94934195 -0.06195549 0.28941348 0.894608 0.32477885 -0.17053716 0.24002154 -0.24841332 -0.5151455 -0.21129282 0.90516263 0.28110015 0.7617973 0.2107893 0.27843812 0.2544718 0.58698785 0.9610652 0.32241228 -0.82338476 0.018147396 -0.75340825 0.6674463 -0.8208326 -0.7104947 -0.092791125 -0.7025947 -0.80295867 0.20815888 -0.07490222 -0.8874209 0.29795954 0.13330613 0.24610807 0.55052745 0.5380084 0.69837755 -0.518599 -0.72903436 0.77603716 -1.0356978 -0.71595883 -0.13047814 0.8231473 -0.9409418 0.5449505 -1.4051609E-4 -0.7730774 0.558312 -0.18342997 0.69717294 -1.000957 0.9294128 -0.4805945 -0.67103523 -0.9343051 -0.834551 0.1847205 0.34434795 0.11961293 -0.47688136 -0.35866883 0.7270254 0.7261697 -0.9266421 -0.42727736 0.725101 0.68469715 -0.5581794 -0.40800193 0.62683976 -0.72281647 -0.09826165 0.017081505 -0.16716734 -0.9559795 0.68382 -0.8653581 0.497971 -0.03140398 0.31737435 0.6415442 0.052498072 0.9951705 -0.9983487 0.6463396 0.5296095 0.7949264 0.097927324 0.71660644 -0.35249355 -0.02068163 -0.07389502 -0.41235763 -0.65403956 0.48770055 -0.47693813 0.11239399 -0.08187136 -0.35821712 0.20563821 -0.7586078 0.63168025 0.20031571 -0.036627077 -0.4135978 0.059708867 0.25345263 0.045330565 0.4666422 0.7681589 0.44903687 0.7635943 -0.118295714 -0.39155257 -0.91980684 -0.52328634 -0.50306976 0.14215286 -0.14096245 -0.43335104 0.01580212 -0.47332194 -0.33133796 0.8013299 0.55773056 -0.50511277 0.67501426 0.19785391 -0.7592643 -0.34247437 0.72860867 -0.28644764 -0.35934705 0.0807257 0.44254422 0.73007464 0.030325288 0.7819296 -0.064125165 0.18509616 0.67171705 0.13546906 0.14121239 0.62452644 0.981143 -0.5147552 0.6777311 0.4782514 -0.28718132 -0.5517885 0.52555424 -0.2246064 0.5101942 0.64989215 -0.39503616 0.07802453 -0.46234196 0.18734695 -0.95234966 -0.7673051 -0.72238636 0.4349651 -0.8351857 -0.36648273 0.45641217 -0.62480944 0.63065314 -0.8896326 0.39799508 -0.9366013 0.003958467 -0.9152115 -0.4689328 0.9561181 0.5342506 0.021868749 0.553832 0.8806526 0.78792703 0.53580415 0.98332924 -0.41277513 -0.97224903 -0.87738925 -0.18375115 -0.1058828 -0.08175332 0.19117756 0.9803104 0.41319197 -0.043871313 -0.5665867 0.16280274 -0.8835736 -0.3110317 0.00924089 0.6942753 0.9662518 0.57001936 -0.9347358 0.5971971 0.8820325 -0.22527687 -0.6529702 0.42873988 -0.79853433 -0.9702289 -0.7360467 -0.24193883 0.56999016 -0.2871711 -0.4845568 0.31252477 -0.8616819 0.7044507 -0.11519222 0.9941462 -0.53127486 -0.0124328565 -0.56303054 -0.43858016 -0.38288534 -0.38451573 -0.47788936 -0.056152664 -0.7777959 -0.012015758 -0.16105711 0.5325069 0.91841894 0.43805513 0.9512925 0.3403899 -0.17207208 -0.3774719 0.28453925 -0.49836197 0.7633641 -0.32467014 0.91015965 -0.68558794 0.6846392 0.4027562 0.078900196 -0.8208601 -0.68864906 0.5613525 -0.22793192 0.91806513 -0.8214487 0.86602247 0.4439319 -0.16586925 -0.88306373 0.7715802 -0.24600662 -0.43169364 -0.94807637 -0.8694313 -0.5992859 0.23022234 0.5794707 -0.012653129 0.64965683 0.36957458 0.45810106 0.18472892 0.89826244 0.56787366 -0.99547416 0.27194706 0.06982302 -0.9849236 -0.12676905 -0.27985486 0.4308616 0.6368736 0.0040765693 0.78661263 -0.06662244 0.68813926 -0.8048522 0.0022765642 0.9771938 -0.7812453 0.8915274 -0.2780198 0.7592276 -0.9551787 0.7599 -0.6834132 0.21301499 0.78947306 0.15694003 -0.36452782 -0.3417347 0.052731477 -0.46857643 -0.16020554 -0.66476285 -0.16307844 -0.0142839635 0.41132885 0.021743923 -1.0102384 -0.7896029 -0.37633842 -0.040891666 -0.111582935 0.35927427 0.3256168 -0.95071983 -0.60768557 -0.03445697 0.6134441 -0.24373834 -0.28521934 -0.8871367 0.16265877 -0.7168764 0.76987636 0.26110223 0.74845177 -0.070105106 0.064519644 -0.71199834 -0.002879433 -0.07842653 0.33676124 0.5350829 1.0231079 -0.13246143 -0.4502193 -0.3345601 0.8703991 0.6663142 0.1136083 0.4300032 -0.2628117 -0.20533693 -0.87625414 0.17418523 -0.6241467 -0.91393256 -0.20278098 -0.57608086 0.03657381 0.443268 -0.80220693 -0.9052176 -0.9079939 -0.43310738 -0.21505895 0.9598856 0.3935051 -0.31985575 -0.6675556 -0.4770671 0.46684563 0.70614064 0.606924 -0.35986295 0.13855095 -0.48446497 0.26024798 -0.2492873 -0.24023123 -0.56839794 -0.4497107 -0.98601735 0.3123822 0.8485696 -0.07447449 0.7916456 -0.7453814 -0.066748485 0.6750083 0.3387892 -0.8279123 0.043487705 -0.7364378 0.9809506 0.9480957 0.66242796 0.50842124 -0.0062304987 -0.8123258 -0.027665652 0.752514 0.9760708 -0.00614361 -0.94316506 0.5902878 0.9804863 -0.37800205 0.4909919 -0.14385948 0.23188423 0.27471748 -0.0428179 -0.4332991 0.42171448 0.2910227 0.1750696 -0.199204 -0.70489115 0.37338483 -0.42129546 -0.506957 -0.4462476 -0.6438912 0.7662361 0.80784714 0.63793176 0.104034394 -0.048767198 0.31338933 0.36479437 -0.669652 0.5949322 0.46721706 -0.014283389 0.30401266 0.27356827 0.73614323 -0.038537268 0.49788353 0.56739765 0.37667543 0.6345377 0.8877487 0.70087117 -0.49376512 -0.13038826 -0.3257512 0.63459945 0.25306624 -0.46634367 0.68135107 0.6762529 -0.36497346 -0.5889699 -0.919934 -0.17719547 0.05564225 -0.28690988 0.24098289 -0.5400116 0.01579991 -0.23601691 0.16966856 0.14100885 0.3342393 0.12810616 0.36413988 0.6947897 -0.115906924 -0.98207366 -0.3633695 0.8251086 0.7430643 -0.7740175 0.020014266 0.854996 -0.9859131 0.32193872 -0.43924853 -0.12510502 0.8646521 0.26692232 0.13046277 -0.725726 0.22051348 0.4373952 -0.3797517 -0.8231389 0.24554062 0.639778 0.86725754 0.1551954 0.17433427 0.6847912 -0.046047334 0.6427202 0.55473465 0.34551668 -0.8148916 0.08634743 -0.0050863912 -0.18076804 -0.2334091 -0.20624654 0.8102643 -0.23695207 0.5424086 -0.6348868 0.80142075 -0.10537303 -0.19512069 -0.14842798 -0.70318323 0.91614974 0.5490886 -0.55812293 0.47716057 -0.83057666 -0.11506401 -0.19556722 -0.019164257 0.69001824 -0.69171244 0.6731776 -0.3030586 -0.14162256 0.58186764 -0.049944226 -0.60261464 -0.8320562 0.16673745 -0.061058596 -0.73058844 0.1956632 0.9649115 0.5114107 -0.9781416 -0.2746342 -0.0806761 0.41501138 0.028740069 0.55622274 0.57870114 -0.36197755 -0.8562708 0.18585598 0.47000033 0.31466448 -0.027654778 0.4875473 -0.5735839 0.68101305 -0.91019934 -0.7470436 -0.95790464 -0.86724037 -0.19273071 -0.9894132 -0.3578792 -0.23893163 0.6731847 0.88348854 -0.3581066 0.40619463 -0.58753926 0.94482505 0.45571142 0.026401518 -0.039711133 0.044435237 -0.23166259 0.021970183 -0.6454676 -0.40197045 -0.055135444 -0.89624304 -0.6245614 -0.82447004 0.032946076 -0.70711327 0.052352834 -0.91261256 0.12670922 0.63765454 -0.86143905 -0.03472199 0.85796016 0.024820374 -0.8011842 0.307769 -0.34577304 0.577733 0.65719366 0.59869134 -0.50389165 0.41314837 0.54247004 -0.09837086 -0.7680723 0.44801617 0.8469957 0.8781839 0.3888371 -0.4182229 -0.8371695 -0.5664017 0.5839627 -0.34454483 -0.036908947 -0.62024754 0.7152255 0.82043093 -0.5348639 0.25352374 0.8610433 0.41445625 -0.45946553 0.21558806 0.08987799 0.6141305 0.08799843 -0.34450793 -0.96317387 -0.8883513 -0.52349913 -0.6030518 -0.7115433 -0.51308095 -0.21018924 -0.54680836 0.30307516 -0.36954615 0.55169404 0.024173265 0.36294413 -0.16249378 0.9165632 0.24607356 -0.7758329 0.10488569 -0.8931911 0.0898637 0.66688854 0.08220801 0.4536836 0.76941437 -0.69312924 -0.90606034 0.21295953 -0.6053764 -0.023801291 -0.67672986 0.7686147 0.47580564 -0.22984046 0.2309072 -0.64251965 -0.5520752 0.15398245 -0.70366967 -0.97404647 -0.50736845 1.0155506 -0.32167453 -0.53809476 0.017037963 -0.7227199 0.63060236 -0.21189079 -0.23500264 0.93864006 -0.681916 0.5628533 -0.7958278 -0.15977758 0.2848586 -0.81182253 -0.27904 0.86522263 0.21758848 -0.0027277053 0.3507975 -0.34882775 0.31578457 -1.0010654 -0.47543633 0.87531 0.967356 0.5886285 0.28101152 -0.28145856 -0.80573803 -0.9447708 0.03876185 0.021055706 -0.62035656 -0.82081145 -0.08622276 0.114572324 0.52017266 0.42107645 0.6981351 -0.15715173 -0.16349363 0.5467072 0.7841511 -0.17308126 0.23953214 -0.8612162 -0.51809865 0.21926962 -0.8937654 -0.6387704 0.028070094 0.6443823 0.87569636 0.30331936 0.8956657 0.67311096 0.047960814 0.015616613 0.35123882 -0.83894265 0.054348357 -0.88776135 0.8151887 0.7107733 0.017730184 -0.10879089 -0.7930612 -0.05379397 -0.09128542 0.057100452 0.1129866 -0.55441403 0.93729866 0.60531825 -0.22556648 -0.38215983 0.17675182 0.1064613 -0.037227344 0.7501914 -0.52981466 -0.8254838 0.9470037 0.8093509 0.7335157 0.08337729 0.34988335 0.8366317 0.6420766 0.5072003 -0.26436535 0.043442 -0.3176539 -0.6612078 0.8869239 -0.33642784 -0.44602224 -0.5251841 0.84666693 0.83883315 0.86292917 0.95488685 0.55621 0.6180357 0.2175989 0.5021025 0.31103873 0.7898228 -0.5593642 0.8637762 -0.0016254956 -0.040294796 -0.92479604 -0.4060014 -0.0069213607 -0.3989649 -0.019766834 0.0414195 -0.29052266 -0.5360331 0.7674101 -0.51400393 0.8913967 -0.44290322 0.4300184 -0.08945957 -0.8285737 0.38387233 -0.2059054 -0.24209693 0.32550815 0.64720076 -0.041027915 -0.26670682 0.25988427 -0.5660626 0.46726173 0.74196684 0.9102625 -0.35398966 0.5459582 -0.7839415 -0.7557252 0.7420897 -0.9190764 0.8753739 0.08445941 -0.27096877 -0.27697545 -0.057850398 -0.53817344 -0.62268776 -0.60117084 -0.7834366 -0.5356065 0.72040457 0.6762852 -0.2347218 0.8289666 -0.5696156 -0.09234595 0.9475382 -0.17551342 0.3901946 -0.26866078 0.1611338 0.17278536 -0.7619434 -0.6484515 0.9626513 0.123689435 -0.53230965 -0.45964074 0.92836964 -0.78853023 -0.6176052 -0.09849905 0.67093295 0.9514158 -0.37224713 0.24439868 0.615052 -0.28526843 -0.18746257 -0.51543736 0.5392792 -0.26167655 -0.22923195 0.51676416 -0.32725993 0.849608 -0.6651432 -0.43609896 -0.9433068 0.57987875 -0.33559287 -0.64637625 -0.78562236 -0.66883403 -0.6839608 0.49858958 0.31051525 -0.83138186 -0.6270484 -0.24372514 -0.5519477 -0.39908257 0.5323933 -0.6719566 0.95142984 -0.813616 0.041960306 0.36874175 -0.21976343 -0.925306 -0.5553044 -0.5775043 -0.9173933 0.62674165 0.13956952 0.3993805 0.4659071 -0.81384134 -0.7800783 -0.32651314 -0.47543114 -0.14131206 -0.22237003 -0.33022672 0.23695552 -0.94077104 -0.992563 0.87488693 -0.49387845 -0.23039256 -0.6634862 0.5643419 -0.3002007 0.77771217 -0.6677571 -0.9787704 -0.5247625 -0.9441057 0.48304003 0.92366153 0.439378 -0.05946194 0.71366775 1.0175685 0.26394174 -0.90582687 -0.60558254 -0.22273177 0.61656773 -0.7761152 -0.6774287 0.9565493 -0.0074746204 0.6186368 -0.26694885 3.6729887E-4 -0.6141506 0.31767312 0.13013294 0.032741558 0.9397492 -0.35258085 0.2538795 -0.1800709 0.33302465 0.1362571 0.6440088 0.69110745 1.020858 0.51924616 0.97592753 0.3901776 0.0681888 -0.06858489 -0.6920957 -0.33806354 0.18293476 -0.88506156 -0.47709233 -0.2859179 0.24471214 -0.007924578 0.38287625 0.43822762 0.87367135 -0.14410053 -0.06316977 0.8251347 -0.7924356 0.6934741 0.02722479 -0.45538175 0.43717578 0.5824157 -0.7143419 0.39516634 0.9209219 0.64834803 0.9230625 -0.5201742 0.90230125 0.42852834 -0.5756056 -0.65752286 0.7310355 -0.5685281 0.884501 -0.18509269 0.81107265 -0.22306858 -0.6938926 -0.21713251 0.42637882 -0.70689386 -0.66312164 -0.6769417 -0.5393571 -0.91918486 0.20295314 -0.028168982 -0.42526424 -0.65529954 0.23049209 0.16458559 0.918485 -0.29293317 0.88746333 -0.88722426 0.7985362 0.67463833 -0.053682577 0.6344033 0.5560893 0.5723907 -0.9239716 0.8368799 1.0047907 -0.5162411 -0.5955511 -0.12866914 0.32891154 0.54065776 0.46134934 0.54014647 -0.5167335 0.9040595 0.08810848 -0.75977945 -0.13715848 -0.09756279 -0.02817142 -0.50080174 -0.08120725 -0.3173312 0.7421527 -0.5210384 0.10080957 0.37697244 -0.6896713 -0.5081794 -0.48280928 0.91456556 0.54718876 -0.7648873 -0.75999165 -0.9733636 -0.93254334 -0.6116135 0.2150619 -0.25199232 0.5179246 0.6175948 0.457797 0.5596153 0.201204 0.20216852 -0.078250796 0.65026534 -0.44206733 -0.5277331 0.08029818 -0.32416376 0.415837 -0.39515597 0.38531613 -0.85971826 0.18718657 0.8416195 -0.16409425 -0.07779217 0.053592313 0.86680466 0.7180673 -0.13456038 0.20034273 -0.4035595 -0.3432475 0.3848358 -0.6099686 0.6886162 0.00974474 0.6666652 0.1758638 -0.5967018 -0.43968782 0.051641535 0.7433763 -0.8113591 -1.0261623 0.35816658 0.12680227 0.5373002 -0.7549905 0.21067163 -0.8721234 -0.8633459 0.43619922 -0.23373775 0.19471727 -0.88117 -0.6862386 -0.13499227 -0.5708058 -0.18725824 0.8717228 0.41945732 -0.6679976 -0.80978477 0.06431735 -0.90024817 0.6724453 0.8279393 -0.82552207 -0.017174121 0.6320128 -0.780182 -0.81336594 0.31014085 0.015369153 0.87472546 -0.5210304 1.0048689 0.86549443 -0.6129738 -0.14037523 0.7004685 0.8473718 -0.6640556 0.719581 -0.84182996 0.37997612 -0.16043024 0.25124356 -0.887621 0.7328609 0.95943385 0.81312466 -0.23903196 0.60887784 0.83056945 0.010441191 0.09633658 0.079020485 0.72414553 -0.7292868 -0.81901747 -0.2189213 0.239143 -0.9006115 0.25915948 0.9418701 -0.71083605 -0.07122512 -0.5867555 0.46542618 0.21124269 0.23059641 -0.73941946 -0.09369941 -0.068677746 0.043110155 0.22543493 0.7701367 0.6333867 -0.23011392 0.36042705 0.5764139 0.8074063 -0.65078306 -0.5971561 -0.62800664 -0.7709768 0.61385155 0.14607495 -0.92185956 0.6463283 0.8393175 0.34307325 -0.20343119 -0.1660397 -0.91307443 0.43651402 -0.3004771 0.82968485 -0.1457336 0.28484368 0.07473402 -0.93172157 0.056317665 -0.8492591 -0.47411403 -0.9926201 -0.36859986 0.10045455 0.5410711 0.5403204 -0.6959929 0.1456958 0.26443255 -0.76306885 -0.6812006 -0.88553625 -0.8171651 -0.7631969 0.6101094 0.44785747 0.50190824 0.9276951 0.40520892 -0.8609429 0.92734975 0.8194683 0.6691918 0.5153523 -0.6868335 -0.069253914 -0.3520119 -0.026739255 -1.0007192 0.44306132 -0.19049835 -0.3148206 0.8366489 0.7498633 0.5151605 0.6907688 -0.62322664 -0.49226856 -0.82097834 -0.5289552 0.4510758 -0.8973883 0.6040602 1.0320623 0.007245554 -0.709932 0.6784074 0.39093152 -0.7761751 -0.5322457 0.40499225 -0.0659356 0.5300597 0.99743176 -0.9002864 -0.029621487 -0.6581961 1.0250057 -0.31547108 -0.82395285 0.70831877 -0.8160104 -0.3427081 -0.72905856 0.19589059 0.6967962 0.28021336 -0.81353474 0.44534692 -0.38560987 -0.9172984 -0.3393044 -0.5175215 0.2295061 0.7811979 -0.9671895 0.2560837 0.14518765 -0.15785694 0.16087073 0.9363269 -0.81620866 0.9229507 -0.75507414 -0.28312194 0.08549223 0.5155055 -0.10061639 -0.66596335 0.080046944 0.42247543 -0.30124164 -0.08167297 0.810688 0.21095338 -0.4450971 0.7185144 -0.31586057 -0.88729566 0.3048061 0.993173 0.7834538 0.5804414 -0.20626956 -0.7903303 -0.7783016 -0.6127006 -0.7527914 0.8328384 0.66958266 -0.020621942 0.65278643 0.008483396 0.049863048 -0.26030806 -0.73992026 -0.94661003 0.23634844 0.0811206 0.9062137 0.69928783 0.33661053 -0.8440948 0.09102191 0.9559037 0.80523694 0.41249284 -0.3664399 -0.30464417 0.81610745 0.7668114 -0.3789371 0.80995136 -0.21963975 -0.7347381 1.0179763 -0.2460465 -0.3562932 -0.39358526 -0.9193391 -0.969299 -0.69473106 0.25935438 0.26442692 -0.235855 -0.122527845 -0.28140938 -0.43146932 -0.5174882 0.27217397 -0.09828387 -0.96562076 -0.4695561 -0.08462789 0.36804587 -0.83817875 0.51149654 0.25684905 -0.41181317 -0.6758911 0.5940886 -0.96083134 0.97974163 -0.27474502 0.9222525 0.020155502 0.77414566 -0.66997147 0.383706 0.5080309 0.82170236 -0.6269052 -0.8444505 0.05441442 0.0652938 0.800089 -0.4227405 0.59982705 -0.56662214 -0.7598981 0.6391812 0.8249409 0.38177696 0.34121454 0.62087184 -0.36875513 0.4254777 0.69160134 -0.8168028 -0.87757826 0.5000005 0.6562454 -0.9022403 -0.052522447 -0.8462833 0.7176531 0.88834333 0.7802891 0.7888339 -0.66927904 0.9980848 0.15198831 -0.037309036 -0.1414879 0.12715973 0.72681135 -0.4586792 0.6461548 0.08225785 -0.23678565 0.61891246 0.82858056 0.5009563 -0.061516494 0.06261861 0.0148791615 0.06431055 -0.2461608 -0.56493795 -0.30987036 0.71952236 -0.9064752 0.59100664 -0.02740469 0.863336 0.9395255 -0.857874 -0.46565962 -0.4637931 0.70097786 0.7263727 -0.8084883 -0.22823113 -0.8838495 0.9256885 0.76407427 0.22578332 -0.44252986 0.686398 0.70776886 0.25541025 0.11343548 0.18714792 0.79054415 0.3383446 -0.8493455 0.24810572 0.9204802 0.8222366 0.78571916 0.4440763 -0.008816009 -0.832073 0.2893477 0.386302 0.71371907 0.13081211 0.14904675 -0.68057495 0.4207913 0.0130223455 -0.8423196 -0.54025596 -0.7313282 -0.15577334 0.71585125 0.44584516 0.30047628 0.950537 -0.4884994 0.21229193 -0.44742897 -0.2132742 -0.6289274 -0.9554412 0.03810696 0.8238811 -0.20196271 -0.47704574 -0.31611508 -0.36748236 0.19231634 -0.92516696 -0.4107467 0.88851905 -0.12274407 -0.31231058 0.8909002 0.05593259 -0.7471588 -0.21764567 -0.95347255 -0.54306495 -0.17965436 0.70844704 -0.7085595 -0.7110821 -0.3017679 0.92142355 0.33484912 -0.4839562 -0.20829825 0.6831793 -0.26426145 -0.9297438 0.7960699 -0.16827925 0.6088608 -0.62297606 0.62179995 0.56738013 -0.07944653 0.007977515 -0.57387835 0.45743605 0.8934569 0.87193316 0.07215976 -0.69368523 0.6867741 -0.6600674 -0.21551938 0.91206163 0.5750716 0.28565177 -0.05995035 0.3224806 0.7797023 0.7682973 -0.6989412 0.87677705 -0.6727839 -0.79454297 0.6363794 -0.2712984 0.9686961 -0.7059503 -0.29814658 0.47243994 0.68457973 -0.87554663 0.76028013 0.119279705 0.6194712 -0.99595743 0.5256343 -0.855626 -0.9457631 0.13588458 0.50679183 0.62496537 -0.8350638 -0.926853 0.14232033 -0.76864487 -0.5289752 -0.8969451 0.124508575 -0.38993898 -0.96007586 0.65916586 0.12345877 -0.9582039 0.40561324 -0.2694585 -0.82711834 -0.6332145 0.5947861 -0.38961366 0.55678666 0.034392163 -0.32591328 0.9103537 0.33024877 -0.06902493 0.5886337 0.40296155 0.9165252 -0.32540324 -0.8381157 0.4004796 -0.41457573 0.29706427 -0.95778316 -0.53439003 -0.37768608 0.18514505 0.3934522 -0.52324325 -0.6017567 0.30006912 0.041540053 -0.86942506 -0.629872 -0.14954534 -0.0500321 -0.5586843 0.94333667 -0.7472611 0.9448223 0.72651535 0.8271685 -0.07157764 -0.49573004 0.5329916 0.7238458 -0.5053108 0.95129514 0.8485076 0.08053644 0.73939836 -0.6755948 -0.84551156 0.1910125 -0.8873088 0.5222636 -0.8394746 -0.94540626 0.3678533 -0.08494842 0.9441499 -0.927141 -0.6291782 -0.24039513 0.3331267 0.4011768 -0.19452633 -0.68579435 0.26156938 -0.047083974 0.41455457 -0.19644189 -0.6878555 0.32432353 0.34841806 0.26303506 -0.6282459 -0.18851346 0.21384524 0.28244364 -0.8243138 0.4324319 -0.3105524 0.9419994 -0.48845068 -0.99167573 -0.1374056 -0.65017015 0.58536494 0.67142797 -0.9819851 0.5802348 0.6197338 0.021901788 -0.13637519 0.4924356 -0.8048322 -0.3283722 0.63808954 -0.15147144 -0.3975213 -1.0202621 0.6122823 0.14764568 0.5228461 -0.24172652 -0.46532136 -0.23499511 0.350325 -0.39340818 0.052909732 0.28839993 0.32310796 -0.85704994 0.20406972 0.5275148 -0.23441817 -0.546648 -0.60382366 -0.5263027 -0.9771598 0.32618707 0.6166604 -0.20686993 0.24562849 0.24392127 -0.61444104 0.39092126 0.38005227 0.6722629 0.5408572 0.060790163 -0.57827026 0.25497502 0.24461377 0.6449707 0.39348918 -0.6133432 -0.39770404 -0.46740675 -0.80050206 0.4097681 0.97579235 0.9154232 0.21285634 -0.020480039 -0.69608545 0.8636596 0.85168886 0.4287973 -0.16535823 0.39427435 0.53248715 -0.512982 0.77001745 -0.14631623 -0.44641533 0.29744667 0.642718 0.6348533 0.28786445 -0.43638322 -0.14756285 0.6692795 0.39449546 -0.16978973 0.019078221 -0.63935906 -0.47723785 -0.14750081 -0.8288283 0.91165227 0.8787487 -0.8236541 0.27654675 -1.0039427 -0.028464628 -0.90117437 0.79790235 -0.09793317 0.67239726 1.0071115 -0.42157602 -0.8013162 -0.4038528 -0.8929959 -0.77690643 -0.3652098 0.24918047 0.92266345 -0.35671017 -0.8161671 0.33720517 0.89562935 -0.3058859 -0.16146637 0.72228235 -0.8524236 0.9043893 0.64477044 0.37603799 -0.18860231 0.91812634 -0.6964522 -0.7663542 -0.81502974 0.20653315 0.04026825 0.24163067 -0.86679584 0.028758505 0.57985884 0.72807604 0.49239945 -0.14771448 0.72409743 -0.94025403 1.0003374 0.23421395 0.21496014 -0.38697103 0.39060485 -0.20597543 -0.24271151 -0.06740284 -0.2713078 0.2455032 -0.3221499 0.7989103 -0.099912986 0.15592933 0.8634589 0.68776506 -0.49189404 0.938273 0.7465091 0.26861823 -0.9078567 0.7491494 -0.81772125 -0.73874766 0.8523953 -0.40012053 0.70876694 -0.17405078 0.85314643 -0.9201066 0.82973754 0.28975624 -0.08719371 0.24497059 0.24732761 -0.28022742 0.34114102 0.040442895 0.39298713 0.90240264 -0.43268275 0.63627005 -0.12084526 -0.11729577 -0.052537438 -0.5489688 -0.56273705 -0.055752583 0.9403535 0.4186276 0.5610336 0.46980357 -0.42363936 -0.6110051 0.1881475 -0.638876 -0.97295874 -0.24792932 -0.26382336 -0.93207484 0.13847096 0.3957362 -0.26832327 -0.7837965 0.61740226 0.47310817 0.41625288 0.5282238 0.9057361 0.64180934 0.8859269 0.88920236 0.66646963 0.2573725 -0.13670126 0.61877686 0.9047616 0.9506058 0.7589489 0.28675774 0.7645193 0.6493989 0.2033405 0.35406145 -0.30256644 0.6498619 0.5147151 0.41173506 0.16013081 0.34182066 -0.6145289 -0.77067065 0.2477057 -0.6767594 0.3989187 -1.0414081 -0.38690972 0.9522397 0.718553 -0.800121 0.64001197 0.8124477 0.6933279 0.8516084 0.64408267 0.9381118 0.064691186 0.28711057 0.25273615 -0.15305972 -0.7773812 0.23184572 0.70513856 -0.723312 0.47081423 -0.5915081 0.16188973 -0.9213755 -0.9914446 0.46551335 0.42643377 -0.8390354 -0.5069445 0.92770034 0.31617507 0.45149496 -0.82982975 0.48974717 0.055304874 -0.16089742 0.084105864 0.018755456 -0.13867618 0.34761092 -0.1848548 -0.8270798 0.48300865 -0.08158383 0.5159921 -0.97142607 -0.28948775 0.5355754 -0.47585934 0.5067601 -0.8288982 -0.62177885 0.6302809 0.36619663 -0.9497447 0.7075087 0.14805485 0.9817456 0.5579792 -0.58175576 -0.6087345 0.49056605 -0.29306206 0.30562598 0.9793104 -0.9812626 -0.96239114 -0.1753799 0.8265812 -0.24561612 0.27423272 0.93899095 0.8854552 -0.06904357 -0.46560872 0.89425623 -0.42769518 -0.7834447 -0.021912366 -0.6656239 -0.27703446 -0.24419585 0.96703595 -0.8956147 -0.038450304 0.7815381 0.02367669 -0.695062 -0.28547263 -0.98116046 0.7472724 0.56458914 0.6281023 -0.2709896 0.8288684 -0.62739444 -0.7345651 -0.77446234 0.6475767 -0.17135093 0.24173468 -0.6636396 0.46795136 -0.47968638 0.91156846 0.21223384 0.2141262 -0.4853029 0.52592283 -0.059448153 -0.8338186 0.9662182 -0.48936418 -0.46284285 -0.8063838 0.120389834 -0.5645419 -0.23577456 0.75389236 0.5188765 0.0010274226 0.76810277 -0.4977584 -0.44725963 -0.5712069 0.5762166 -0.117826805 -0.078979306 0.570476 0.21873388 0.89974123 -0.17344919 -0.15270932 0.15100774 -0.39940917 -0.7169762 -0.4127346 0.70622087 0.78505164 -0.16883336 0.40506482 0.12727235 0.4288903 -0.67605025 -0.33894667 0.9382772 -0.06276595 0.97139156 -0.49143222 -0.050806623 0.65461123 0.3163165 0.16616608 -0.8228854 0.7953934 -0.6050261 0.07486456 0.030599447 0.98276955 -0.6413705 -0.7349761 0.7897783 0.17403857 -0.9640222 0.57802176 -0.04493828 0.81079936 0.5851278 0.835498 -0.014678836 0.54047084 0.38548344 0.034786206 -0.48056045 0.88654035 0.3081317 0.3240739 -0.70919293 0.9090634 0.25595278 0.26709548 -0.9180464 -0.0017842844 0.5706906 -0.2569415 -0.6572383 0.78780293 0.7027178 0.35570967 0.17720571 0.65756905 -0.5801979 -0.6171645 0.882109 0.34907836 -0.6007373 -0.28275418 0.4073156 -0.88175046 -0.09602476 -0.07081389 0.2552305 0.8003738 -0.08579369 -0.7626958 -0.33975896 -0.39596027 0.7750648 0.6261719 -0.034171328 0.67142963 0.11225802 -0.36553487 0.6538165 0.6225962 -0.35657555 0.20984991 0.3199057 0.75524324 -0.12438081 -0.10774465 -0.5120345 -0.6768317 0.4893715 0.51812905 0.94652766 0.959838 -0.011147402 0.9158463 0.47095606 0.60900784 0.42379764 -0.5072085 0.057846416 0.2800939 0.4722491 0.5407619 0.72820944 -0.7581319 -0.5892044 -0.8489512 0.58953243 0.6059267 -0.9579582 -0.21227899 -0.23650056 0.3527325 0.7344449 0.61084175 -0.11844147 -0.11789934 0.89242685 0.33964992 0.5130825 -0.8819531 0.093705915 0.78416663 -0.12028501 -0.04072398 0.8597632 -0.96382326 0.044949032 0.43037 0.48932806 -0.030271709 -0.91444623 0.7656046 -0.5774462 0.026530743 -0.90226245 0.22911201 0.09143866 -0.46894258 0.075852536 0.3854636 -0.024386093 -0.07487673 0.36919904 0.3291243 -0.32142207 -0.18189466 0.47333932 0.26332256 -0.556988 0.7869105 0.36222836 -0.6493846 0.38980368 -0.007404592 -0.99976826 -0.28878248 0.16897912 -0.6649367 0.1960204 0.19114994 0.044424538 -0.93467873 -0.39757666 0.1777312 0.22079118 -0.5238605 -0.12232507 -0.8014628 0.86754835 -0.68979603 -0.2252832 0.652931 -0.8398007 0.95711666 -0.12340081 0.79693377 -0.7797028 -0.66399705 -0.24902797 0.85236967 0.22268094 0.70226777 0.8849056 -0.44629773 -0.15195343 -0.5588927 -0.25530994 -0.6655003 0.39920846 -0.5229811 0.8344816 -0.3504279 0.7598779 0.40084484 0.026482785 0.63811123 -0.7266903 0.6581746 0.5954382 -0.20841126 -0.50429666 -0.43163604 0.49054724 -0.20488323 -0.3866327 0.61226976 -0.9730034 -0.62454695 0.07713613 -0.46519196 0.085032396 -0.5730411 -0.43020153 0.21542239 0.75633585 0.36500257 0.09066243 0.38656235 0.21422938 0.8213601 -0.13383755 0.6951156 0.70098096 0.27320832 0.19159937 -0.18502319 -0.44353426 0.22820422 -0.7533163 -0.49446002 -0.0069459486 -0.84918636 0.7336784 -0.24753462 0.7918214 0.9055193 -0.6220618 0.6778105 0.94357246 -0.44917125 -0.10456163 -0.5779621 -0.5928441 0.5064898 0.5377724 0.14160168 0.42879483 0.33512983 0.52389437 -0.7954485 -0.555276 -0.96710545 -0.6425213 0.593342 -0.024083994 0.9857366 -0.39122555 0.23966122 0.07852065 0.8338757 -0.67052794 0.4764731 -0.5391937 -0.3850631 -0.082105 -0.31085786 0.9388595 -0.46355364 0.69920075 0.3569754 -0.5860497 0.469097 0.502453 -0.44127288 0.14609039 -0.43624866 -0.73444617 0.9231233 -0.6130573 0.11449962 0.5081851 0.6779942 -0.025765087 -0.7999933 0.13206777 -0.09604295 0.5054711 -0.35891986 -0.28479096 -0.19481012 -0.24132216 0.39151648 -0.8672602 0.17818977 0.32856306 -0.2957418 0.6137543 0.44077826 0.91127557 -0.59931594 1.0112127 -0.024761615 0.78794926 0.116306044 0.30611122 0.13090785 -0.067046724 0.811275 0.32958707 -0.35648787 0.4818512 -0.9889196 -0.6420726 0.3940866 0.62378055 -0.8808989 -0.78485984 0.9819254 -0.35431075 0.9863931 0.41468284 -0.47638273 0.1057744 0.9466729 0.20695971 0.12958804 -0.8373761 0.1614604 0.37597066 0.46881938 -0.48429862 0.66028 0.23553148 0.7505424 0.92537504 0.08731078 -0.31080478 -0.9173327 0.72273976 -0.80983216 0.7453497 -0.0864318 -0.45613462 0.5316285 -0.52203137 -0.79589957 -0.8342683 0.37250787 -0.38405252 -0.613808 -0.022394877 -0.09007172 0.21082123 -0.14729506 -0.013223492 -0.91467637 0.9780916 0.032594204 0.91325384 -0.3348133 0.4352893 0.6766962 -0.08601039 0.9572125 -0.5827234 0.77200305 -0.6299043 0.07025601 0.17231944 0.29973868 0.8666734 0.22636159 -0.42902762 -0.36334956 -0.6136731 0.27635753 -0.3328487 0.74446434 -0.425345 0.15222083 -0.0072407173 0.2859573 -0.7491781 -0.5016156 -0.52661425 -0.27396083 -0.24635464 0.6715522 0.5496466 0.18178189 0.7875303 -0.9345331 -0.12883282 0.5639913 -0.03157582 -0.052078456 0.6030667 -0.6697101 0.9145805 -0.7630657 1.0227344 0.4334768 0.37938488 0.09513561 -0.14854819 -0.029232217 0.59932643 -0.5505055 -0.58016765 -0.82144696 -0.6840904 0.3156482 -0.4149475 -0.7935602 0.9281639 0.49967992 -0.31067434 0.5582158 -0.02297757 0.97434014 -0.6998304 -0.8258981 -0.8994221 -0.11865056 -0.59128284 -0.34830803 0.7021636 -0.955554 -0.45836657 -0.8292716 0.5005758 0.094813496 0.34180322 0.2682284 0.78880167 0.631516 -0.2744118 -0.16348204 0.042537823 -0.023730008 -0.57876885 -0.45287755 0.3541491 0.7920482 0.24922007 -0.39563227 0.17388637 -0.9266582 0.40308574 -0.53845423 0.34088236 -0.20402649 -0.44666755 -0.24195507 -0.7279125 -0.83153176 -0.23724616 -0.33088213 0.6306569 -0.7490837 0.9498398 -0.8378556 -0.58058155 0.81921166 0.940618 -0.48289573 -0.046565548 0.35860115 0.8761318 -0.23839188 -0.75625 -0.5541488 -0.8016541 0.80334026 1.0124003 0.7634808 -0.22118422 -0.4084359 0.15308096 0.41294175 0.18723738 0.11006054 -0.41802347 0.2936428 0.70030665 0.57334894 0.9348685 0.07373721 -0.25449926 -0.052621283 -0.61657506 -0.8112436 0.5799369 -0.90041226 0.6711075 -0.19199097 0.10846543 -0.844024 0.22103553 -0.53252596 -0.58566654 -0.5322591 -0.33752432 -0.01807449 0.56467134 -0.46448642 -0.44492826 -0.27727127 0.35582796 0.29955533 0.95342505 0.5554129 -0.7167049 0.177706 0.70890784 -0.11367696 -0.7262031 0.07486362 -0.3187482 -0.40674967 0.6564757 -0.005208157 0.9444273 -0.088590674 0.20956235 0.6243463 -0.44078422 -0.4625025 -0.3226558 0.9022203 0.67733 -0.90876025 0.062811166 0.37442517 0.25794286 0.4920345 0.602771 -0.18221629 0.067094326 0.036882702 0.3625759 0.1997898 0.12377532 -0.082402945 0.1354043 0.006060966 -0.09285855 -0.43617424 0.66116273 -0.28171542 0.6663081 -0.38010597 0.7453835 0.91514254 0.9920359 -0.33161756 0.4404034 0.49252203 -0.09884357 -0.19503331 -0.76574844 -0.15129119 -0.83650917 0.15417427 -0.6800051 0.17569539 0.13561052 -0.71209586 0.47666362 0.16967571 0.54808325 0.20533854 -0.5109685 -0.83990866 0.8309144 -0.6782136 -0.03177222 0.85019946 0.91439724 1.0072674 0.4337956 0.28563577 0.21785524 -0.9531707 -0.2150081 0.13377614 -0.6807576 -0.7433772 -0.19091469 -0.092052296 -0.71144944 0.56001407 0.32785803 -0.84064215 0.71029276 0.42280468 -0.7256308 0.28863993 0.4724205 -0.31091633 -0.6193184 0.57844025 0.892731 -0.8572791 0.76332915 -0.41117224 -0.11318132 -0.69391835 -1.0006906 0.005131372 0.34853405 0.08341568 -0.9042767 0.7189482 -0.70393366 -0.4565583 -0.4297919 1.0027941 0.67434925 0.11361753 -0.76358354 0.06339313 -0.42635193 0.45122036 0.4439614 0.815161 0.9230464 -0.5752303 -0.97964716 -0.8187401 0.8331573 -0.019838097 0.6557097 0.5825725 -0.54571694 -0.934555 0.029074842 0.40353212 0.005087452 0.24422619 0.51821727 0.3984387 -0.8531431 0.6446879 -0.30188513 0.09258032 -0.3209157 -0.14657809 0.90340525 -0.48213845 0.41858956 -0.085415505 -0.28274113 0.033096045 0.74652976 0.2796199 0.42687038 -0.9991187 0.56115717 -0.4241853 0.41504714 0.8969694 0.27660403 0.9838612 0.902987 -0.42384702 -0.35436273 -0.39045143 0.6901097 -0.66082543 0.6578473 -0.12910213 0.9492362 -0.8420542 0.61228013 -0.28165886 0.24933614 0.8851498 -0.87345 0.35476992 0.20378305 0.30589408 0.2993822 -0.62421525 0.83390474 0.58892816 0.14818561 0.9128188 0.3792025 0.03454979 0.7005143 0.25276187 -1.0020571 -0.8749813 0.16096531 -0.7595433 -0.70788157 -0.2783226 0.260314 0.2998827 -0.44131228 0.08616093 0.3766808 -0.90539366 -0.39492807 -0.6090676 0.6206582 -0.30247366 0.19752967 0.39145955 -0.31126454 -0.010133775 0.6638273 -0.62550145 0.09387489 -0.8461463 -0.16552955 0.43118382 -1.0166535 -0.3204863 0.3502606 -0.27391517 0.86335903 -0.11580563 0.2530687 0.60772574 0.85477006 0.013266143 0.024410533 -0.45221317 0.6440915 0.79350543 -0.011752552 0.5764157 -0.6356748 -0.3174209 0.4695456 -0.38936394 0.8724498 0.2252017 -0.6346123 0.024631819 -0.8724653 0.88280684 -0.83016855 0.06795983 0.54340917 0.9333289 -0.48711076 0.55424637 -0.00785397 0.9869774 0.9167865 0.27361232 0.48943567 -0.006991473 0.30663946 0.28953683 -0.68688834 0.22167192 0.5900721 0.23428966 -0.40962264 -0.99991465 0.13711855 0.9105386 0.7290541 0.13263512 -0.34900734 -0.26305714 -0.5755235 0.16376057 -0.16318093 0.80235344 0.9754421 0.15958185 -0.49605462 0.20509045 -0.09359703 -0.696073 1.0110484 0.7287771 0.35730445 0.2395978 0.060018606 0.3047962 0.4970537 -0.46713305 -0.07808842 -0.6164097 0.9580663 0.7530454 -0.43658066 0.02547448 0.5320987 0.7079092 0.59298795 -0.7597357 -0.6642451 -0.7277968 0.7284257 0.32663268 0.907452 -0.03359101 -0.51745653 0.09537131 0.4512075 -0.9416695 -0.38025331 0.06007281 0.61071914 -0.41298613 0.4300142 0.33300105 0.22717062 -0.85656786 -0.8093906 0.073203765 0.61327046 0.79984903 -0.5235896 -0.48916674 0.63769 -0.85453284 0.2275044 -0.24788427 0.9481022 -0.095412 -0.7072765 -0.6119694 0.2750275 0.34639373 0.14193846 -0.6183177 0.21376923 -0.1399192 -0.89812577 -0.48487073 0.3823513 -0.9046028 -0.9725181 -0.34900987 -1.013474 0.24957915 -0.24604815 -0.7519449 0.2883932 0.6004639 0.167601 0.7165026 -0.8794847 -0.45390192 0.5885661 -0.28891477 0.8639268 -0.7460362 -0.6642099 0.41632894 -0.34380072 0.12231502 -0.63467264 -0.44713113 -0.79672474 0.3907413 0.21768661 0.038268354 -0.86207104 0.4026035 0.98393047 -0.68977016 0.9773186 -0.09643198 0.10581322 0.90757227 -0.580697 0.05994011 -0.8888347 0.96157897 0.56498605 -0.68246454 0.086558476 -0.43506727 -0.44609427 0.96113235 -0.653864 -0.66665673 0.44118005 -0.72981226 0.04066041 -0.16240862 0.68911475 0.38692033 0.4218091 -0.1579278 0.91121703 0.4137595 0.05907384 0.72186387 -0.8716221 -0.6552726 0.33459795 -0.098860025 0.3235109 -0.40717906 -0.10047483 0.95044243 -0.67985976 0.74698126 0.2768398 0.02305914 0.6078407 -0.6775042 -0.48671436 0.09035885 0.5933978 -0.13866127 -0.12456725 0.12283309 -0.114721715 -0.6420313 -0.18017402 -0.48043615 -0.791963 0.39832544 -0.8876538 0.14177541 0.49373457 -1.015458 0.42269358 0.27744365 0.6461245 -0.11778835 -0.5009103 0.7146316 -0.1366115 -0.62722796 -0.45856237 0.641373 0.21139067 0.8665384 0.9988444 -0.5778938 -0.97949684 -0.05950538 -0.80369544 0.39860773 0.5386555 -0.17458309 -0.92648697 -0.14602336 0.5411761 0.8953004 0.5968021 0.12546332 -0.8638391 0.062105365 0.78710777 0.81747836 -0.037127376 0.10815163 0.28398386 0.3111687 0.6845967 -0.09085682 0.25699735 -0.8418122 -0.98390156 0.5452255 0.22136343 -0.10486938 0.6826661 -0.23717333 -0.11138402 0.3820125 0.2844104 0.25158775 -0.43242386 -0.849752 0.7514164 0.3476619 0.6829797 -0.7000803 -0.39352947 -0.45771092 0.016680049 -0.36175752 -0.35721555 0.795454 0.44149092 0.562571 -0.82762414 0.9732579 -0.56749004 -0.820654 -0.6662013 0.96456295 0.5696342 -0.51523584 0.91091996 -0.8159649 0.91904885 0.19808866 0.63797957 -0.2813089 0.113706425 0.28782415 0.7429883 -0.22994804 0.13583064 -0.9804209 0.4391448 -0.057110086 -0.19820449 0.9443935 0.020065304 0.23670731 0.5159685 0.20814385 -0.6489497 0.71006984 0.7921707 -0.11194695 -0.6356411 -0.11387873 0.7379016 0.5517703 -0.37542975 -0.7356164 0.27912986 -0.15870263 0.75875777 0.017836194 0.4188445 0.3084661 -0.8390735 0.89523786 0.012221556 0.73102814 -0.17845297 0.4258649 -0.8238254 -0.70160764 -0.47140995 -0.45449913 0.69095623 0.6105383 0.655214 -0.43163538 -0.06978647 -0.8715039 0.84274465 -0.69933164 -0.28580785 0.56773627 0.33299348 -0.06754494 0.30861786 -0.7957436 -0.94138515 -0.8648563 0.4465602 0.5798572 0.08033021 -0.39732397 -0.6022887 0.79978645 0.47972956 0.22090587 -0.48291966 -0.09664525 0.8625793 -0.068331145 0.5673116 -0.3450525 -0.69152385 -0.5164479 -0.43583694 -0.8373748 -0.40911606 0.5243995 -0.06889337 0.92024755 -0.62331194 0.82814306 0.97339386 0.81961495 -0.7939191 -0.87221086 -0.30525056 0.38964343 0.60878587 0.260118 0.3062277 -0.2921545 0.941139 0.55066544 0.6229584 -0.08824344 -0.9876048 0.8679235 0.8915747 -0.94533 -0.98895687 0.73938257 -0.37672204 -0.045487363 -0.5113813 0.6549441 0.026796548 -0.920421 0.6621799 0.2179709 -0.39927545 -0.5207307 -0.50539595 0.7274862 -0.118334085 -0.42499086 -0.9023878 -0.1471164 -0.27454957 0.08916867 0.67203224 -0.70194274 -0.36065835 0.8468208 0.03622567 -0.56929547 -0.92348903 0.2805944 0.83248264 0.47033995 0.8036176 -0.8410698 0.32593748 0.7118297 0.69385594 0.1304754 0.20974675 -0.42878497 0.11684866 0.90784407 0.40152866 -0.02963424 -0.82749254 -0.7150722 0.20946038 0.6190805 0.3994538 -0.42764714 -0.011162364 -0.9014496 0.21273282 -0.26988566 -0.8663032 -0.19166052 0.013599109 0.3297528 -0.4995631 -0.8082948 0.56511146 0.7808317 -0.048352823 0.8461232 -0.35918027 -0.06782403 0.28238022 0.7012558 0.21099602 0.6957772 -0.75185484 -0.39045218 -0.31283918 0.91086346 -0.22998573 -0.99072695 0.7701292 0.82937473 0.23149669 0.55186117 -0.49466443 0.79033774 0.21050957 0.11596925 -0.36010006 -0.12152711 0.038694102 -0.4346628 0.81803405 -0.40198532 0.69743794 -0.15248536 -0.04526661 -0.3620352 0.7179295 0.9257512 -0.35135537 0.7732305 -0.39038146 0.5881853 0.21354908 -0.2021247 -0.19696343 -0.7892704 0.94919574 0.26454723 -0.41235557 -0.22696851 -0.65948987 0.6554698 0.914401 -0.40275043 0.6693935 0.7109552 -0.6314354 0.35451838 0.5395764 -0.8567924 0.42374438 0.87430847 -0.6292777 -0.2618952 -0.84654397 -0.46792644 -0.04805708 0.30290872 0.08429618 -0.22379686 -0.366115 0.11977836 -0.57084763 -0.1985395 0.6607198 -0.2980863 -0.7485648 0.09484778 0.3611257 -0.4105873 -0.13062023 -0.9588082 0.74215007 0.079383336 0.05175524 0.21782562 0.6109633 -0.26948723 -0.41907492 -0.7282026 0.9016951 0.72766083 0.19423038 0.580385 -0.52135587 -0.09081505 0.60346943 -0.7583321 -0.35037392 0.5329949 -0.83189327 -0.1862492 0.46966454 0.9389244 -0.44898805 0.060164 -0.36224946 0.8122727 -0.75567114 -0.5711389 0.94978523 -0.77520645 0.026220683 0.9925618 -0.37262452 0.600663 -0.60271674 0.5123717 -0.81283945 0.21185999 -0.6630969 0.33029318 -0.7482913 -0.44466326 -0.7191993 0.16314009 0.94918907 -0.046042457 -0.32491657 0.78012675 -0.6462051 0.6547479 0.42897752 0.8060711 -0.47745094 0.33438107 0.006289437 -0.58250535 -0.14190842 0.83880275 -0.1073709 0.28801602 -0.06903124 0.42026126 -0.62915546 -0.35793555 0.8624098 -0.55938953 0.48229897 -0.03275384 0.6424461 -0.507949 0.97322273 0.7216116 -0.37796864 0.6251037 0.48190117 0.23301491 0.74078846 0.2721872 0.42924556 -0.005799746 -0.5157143 0.6698452 0.94620615 -0.17618099 0.8889734 -0.4971234 0.19492796 -0.30971274 0.3131317 -0.88166773 -0.27746323 -0.30748105 -0.68855774 0.5998081 0.70140105 -0.3514664 0.7772321 0.18924046 0.64645714 -0.09812425 0.15357783 0.62629396 -0.2318579 -0.42058668 0.5672682 0.944491 -0.22335693 0.8392401 -0.27020738 0.8336338 0.90774703 -0.93567616 -0.41493326 0.6686049 0.7765201 -0.22046721 -0.0563066 -0.24574965 -0.91645545 -0.5218701 0.9163485 0.99762565 0.047079775 0.84619147 -0.85935396 -0.502108 -0.8354853 0.10591185 -0.4479592 -0.48489794 0.9561363 0.93897396 -0.7025143 0.21952225 0.9065446 -0.5227983 -0.18588261 0.34373146 -0.4098186 0.1518992 0.89657235 0.6992062 -0.46957687 0.46819562 -0.73915845 0.12273486 -0.2677944 0.70843023 -0.77374136 0.7403333 0.62936276 0.89742213 0.91632706 0.26713428 0.28832662 -0.7572531 0.36407155 -0.8252164 -0.49115914 0.68782985 -0.22923516 0.93634933 0.7053159 -0.9211976 0.9659752 -0.91727704 0.6734504 0.7358802 0.77773255 0.7557833 0.17055175 -0.5508541 0.3775307 0.68078864 0.2180047 -0.5336964 -0.4001874 0.28945738 0.97641456 0.55243945 -0.43139237 -0.9649306 0.5949159 -0.7775183 0.7556224 0.2348324 0.4946823 0.98028374 0.0176528 -0.771445 0.12902941 -0.59156644 -0.027347634 0.81254286 -0.045829974 1.0043764 -0.45196915 -0.77147907 0.2488654 -0.8636603 -0.9373128 0.47163963 -0.42766318 -0.50588876 -0.68733037 -0.69931775 0.49349293 0.849438 0.2206408 -0.11306944 0.73357975 -0.84807944 0.04587212 0.6378475 0.69863784 0.98685217 0.40803865 -0.6563475 0.44073415 0.021904632 -0.41539186 -0.44695354 0.8084303 -0.010917472 0.39760083 0.94505906 -0.21247613 -0.26168913 0.21582553 -0.3031708 0.94578505 -0.08013417 0.6532947 -0.3930789 -0.19859272 -0.0866808 -0.23441863 0.89099914 0.7285717 0.05625106 0.866287 -0.46887857 -0.12923113 0.3317823 0.4922267 -0.10777762 0.06519189 0.5657862 0.5044896 0.21722952 -0.3054642 -0.5263743 0.6956583 0.4325055 0.36760086 -0.9485725 -0.113011755 -0.13780202 -0.57595444 0.073494986 -0.5055142 -0.47169504 -0.24033485 -0.33926553 0.13434756 -0.78412133 0.0042307666 0.2682673 -0.9040941 -0.4165763 0.5021698 -0.021862844 0.76213115 -0.6207996 0.76952714 0.17686826 0.8184591 0.5387474 -0.16544156 0.9809789 -0.6486922 0.24394828 -0.9736638 0.8146153 -0.7364836 0.37829745 -0.82202244 -0.7620299 0.5784467 0.7917585 -0.9509919 -0.11896776 0.9637231 0.3790262 -0.45973754 0.32527518 0.58173436 -1.0203104 0.9370477 -0.78760964 -0.71667683 -0.5172928 -0.40318832 0.9668632 0.25547263 -0.045080483 -0.18374448 0.096578784 -0.74846244 0.88480955 -0.9931065 0.0063956277 0.24475633 -0.6943664 -0.092917606 -0.5787867 0.9157667 0.8828239 -0.020096457 -0.28859866 0.13855885 -0.23809981 0.9438204 0.9242337 0.3194214 -0.9093361 0.78013766 -0.9413644 -0.6536816 0.12418141 -0.8791523 0.049789734 -0.10930966 0.102912135 0.8520482 0.13239601 0.5286188 -0.1828683 -0.007899556 -0.16101769 0.3835215 -0.6766299 -0.09711694 -0.3393322 -0.06652466 0.66154635 -0.22379684 -0.33406067 -0.59061086 -0.7537842 -0.2209265 -0.9750929 -0.17506978 0.8105917 0.8297915 0.36589843 -0.26869386 -0.0028945708 -0.9787054 0.4602466 -0.11830312 -0.08454465 0.46677002 0.106237546 0.6433892 0.9424254 1.024164 -0.30374795 -0.5783881 0.5355435 0.54328686 -0.90786123 -0.46741763 -0.084134296 0.6740317 -0.71123105 0.07491671 -0.106088944 -0.27436143 0.2186436 -0.30512992 0.2748638 1.0217737 0.97583365 -0.3145497 -0.74201494 -0.9012194 -0.6980824 -0.87672985 0.3182532 0.132763 0.14408186 -0.7932743 -0.9633308 0.8539777 0.4732163 -0.5720159 0.5679495 -0.50383365 -0.9824268 -0.8185099 0.546221 -0.9283009 -0.17274107 0.4419657 0.1832802 -0.9608769 0.3583425 0.46103266 -0.09587511 -0.8653253 -0.78461105 0.58206224 -0.1407386 -0.83872235 0.8129171 -0.07579509 0.03993723 0.626566 -0.10258039 0.90061265 0.37906632 -0.18329634 -0.8912788 -0.7657489 -0.5696732 0.8189769 0.057721857 -0.8433119 0.8366959 -0.2871276 -0.8589355 0.6974924 0.11807752 0.44255254 0.1458351 0.22000746 -0.7511328 -0.58859617 0.16335338 -0.310528 0.5490484 -0.50040036 -0.3645889 -0.25277367 -0.25147682 1.0139953 -0.9406874 -0.734512 0.26231343 0.6239753 -0.24521802 -0.05520411 0.1675698 -0.2844837 -0.487566 0.084521815 -0.8836507 0.8517674 -0.9781644 -0.5725858 0.4183794 -0.4050713 -0.3929135 -0.6395912 -0.40916342 -0.19234759 -0.6670029 -0.8965111 -0.095895566 -0.6383176 -0.011802558 0.3134996 0.82106483 0.8460907 -0.37589878 -0.09769731 -0.1291518 0.8150394 0.9420855 -0.4882618 0.36389217 0.21074362 0.6327432 0.71192306 0.7229587 0.96264434 0.7361358 -0.9131096 0.21995063 0.8532174 -0.77645475 0.25634265 0.45805934 -0.9019552 -0.3695445 -0.53074265 0.37434918 -0.50112736 -0.99318105 0.7861012 -0.908523 -0.61954147 -0.24790174 0.78027177 0.45620593 -0.88984084 0.8338132 0.30761993 -0.009423023 0.17872576 -0.3523404 -0.74352163 -0.03597523 0.8220349 0.9404925 -0.38326344 0.67053163 0.044330925 -0.6815059 -0.17657802 0.6531262 0.6365963 0.3507749 0.26235706 0.12308206 0.8842368 0.97419894 0.40222523 -0.84539694 -0.7872569 0.4558574 -0.45200625 0.5110579 -0.19699495 0.8769118 -0.7404292 -0.91927177 0.85384846 0.716044 0.7180879 -0.8924563 0.92556435 -0.4951323 -0.6093357 0.39508414 0.38593933 0.10474098 0.53820425 0.40422353 -0.7158741 -0.923105 0.79894155 0.3556649 -0.2905525 0.140924 -0.19478776 0.35008037 -0.37524292 0.0065924646 -0.9373407 -0.718496 -0.18678193 0.76648086 0.30913517 -0.6293029 0.95973647 0.45509395 -0.21823964 0.502323 0.08714934 -0.8919062 0.63257337 -0.22661273 0.2109118 0.5468573 0.15610151 -0.6176434 -0.2699188 0.45259446 -0.28819385 0.2086419 0.9434615 0.9581926 0.09307739 0.7854001 0.74125695 1.0022801 -0.2403953 0.832668 -0.8186639 -0.9250446 0.42400038 0.9998512 -0.76590353 0.89674515 0.48878038 -0.55073476 0.95606834 0.80485415 -0.5096062 0.15665776 0.83602566 0.3949468 -0.48797092 0.48075283 0.73653644 -0.55624187 0.0021975604 0.77212656 -0.74114805 -0.22505483 -0.12012442 0.1386343 0.9416375 -0.6249538 -0.05806079 -0.029398 0.5008922 0.44810995 -0.09423994 0.16422251 -0.23896396 0.91458446 0.13451366 0.99096704 -0.53830546 0.35253677 0.18087158 0.25115654 0.49500194 0.61406595 0.9348498 0.6152709 0.14861529 -0.12694472 -0.3331699 0.91746587 0.23824936 -0.58093536 -0.38419965 0.42841497 -0.5097028 0.92592305 -0.60507315 0.9706351 0.44518313 -0.17048454 -0.94176275 0.45050448 -0.25270742 -0.10195989 0.7436897 0.4871391 0.9482151 0.73859304 -0.8947187 0.7745919 -0.06099309 0.5694762 -0.33612493 0.35777283 0.91010386 -0.20068893 0.091685824 -0.8556323 0.041082818 -0.01917273 0.7279419 -0.8585447 -0.6394961 0.5191674 0.092728995 -0.9198537 0.18279994 0.02072385 0.7582897 -0.015085578 -0.31383577 -0.65358335 0.74390674 -0.31598675 -0.7766504 -0.19840455 0.16923903 -0.73999906 -0.5497862 0.8486346 0.54609066 0.26977342 -0.21709801 -0.15458646 0.15520065 -0.86660314 -0.35839546 -0.72800994 -0.13902634 -0.0962224 0.6265794 0.73856115 0.4690965 -0.15148364 0.32576895 -0.50102437 0.10566332 -0.5418002 -0.50140214 -0.13380723 0.4238707 -0.91368634 0.38319907 0.31067938 -0.96862864 -0.5791512 0.3039212 0.12877625 0.94454974 0.37664422 -0.17640053 -0.49271047 0.6394669 0.5635391 0.12420231 -0.5536157 -0.61511004 0.34647202 0.96388936 -0.83531547 0.020582277 0.6890693 -0.1392858 -0.86555815 0.7878044 0.32440287 -0.67746866 -0.68610895 -0.7040261 0.017936828 0.9048127 -0.2575732 -0.28111228 -0.2453162 -0.39676073 0.58088815 0.4812158 0.29686952 -0.31290138 -0.12080428 0.24566448 -0.637413 0.3476217 0.1730703 -0.24014342 -0.51149553 0.31014925 -0.18199147 -0.26181534 0.25576308 0.1024831 -0.4618674 -0.024002548 -0.89738125 0.22728033 0.5274629 -0.9690566 -0.36991596 0.7338096 0.43775654 0.7752112 -0.65149266 0.81639445 0.9626669 -0.9692843 -0.8627623 -0.063356444 -0.48051614 0.1015694 0.09735915 -0.7135758 0.27741447 -0.34403154 0.47383937 0.0092521245 0.46891984 -0.53872 0.38840553 -0.5969778 0.9879853 -0.8036989 -0.32779616 0.456743 -0.68697387 -0.60224587 0.26247942 0.74278986 0.0014752767 -0.24984021 -0.42975092 0.3233423 0.108401194 -0.5489672 -0.74456465 0.24754599 0.28647757 -0.89897245 -0.18025719 0.2943329 0.13668358 0.6559338 0.51266074 -0.71361685 0.05493725 0.12532715 0.058410108 0.08804631 0.23598725 -0.29636744 0.06814366 -0.7048986 -0.24505343 -0.7941923 0.42309853 0.042211313 0.49694297 -0.7786286 -0.34385875 -0.8547416 0.014007476 -0.21771787 0.5721545 0.64584917 0.9521312 -0.068222545 0.085544325 0.35367084 0.89785725 -0.18901756 -0.5414942 0.31892094 -0.9693488 0.4103191 -0.7583678 0.9311968 -0.8656132 0.5487828 -0.94786376 -0.27176955 -0.962207 0.30786037 -0.4124484 -0.076339774 0.8123049 0.3431394 -0.14244546 -0.38491488 -0.19439161 -0.39741158 -0.85035735 -0.28694353 -0.37736857 0.23630822 -0.3625871 -0.41113532 -0.021469586 0.10624558 0.79799867 0.52559245 -0.001866073 0.04804251 0.27507314 0.42128527 0.7743269 0.23350443 -0.42317724 0.77296996 0.13100001 -0.03643485 0.7091198 -0.6827102 0.59558123 0.21984713 0.38101542 -0.4348349 0.5473261 0.31171793 -0.38566226 -0.19327107 -0.13257758 -0.8592842 -0.9425433 -0.36782506 -0.08786267 -0.7531239 -0.8760893 0.17161153 0.56004345 0.07707702 -0.26679263 0.20823577 -0.51495093 0.67374784 -0.4563268 -0.32105964 -0.39499784 0.9556035 0.91481286 -0.12373973 0.18936191 -0.80879945 0.82771933 -0.120144136 0.9492014 -0.9568195 -0.8572817 -0.442138 -0.63301975 -0.74473536 0.5264113 -0.6117962 0.14576593 -0.37138453 0.26485232 0.24710658 -0.71715635 0.22161454 -0.34337902 0.7117119 0.76332414 -0.89049274 -0.22204995 -0.6566898 -0.79104406 0.869674 0.9413348 -0.034528013 -0.074655555 0.14972244 -0.25407153 -0.9154115 -0.77475214 -0.67871785 0.99330807 -0.87628174 -0.8701365 0.8277243 0.10896051 -0.18490925 -0.19067714 0.334768 -0.108892165 -0.7580429 0.76685965 0.42429447 0.9882004 -0.563613 0.9555156 0.4893627 -0.3886026 -0.19055344 -0.70230854 -0.43047044 0.16619681 0.84548795 -0.53367245 -0.26408786 0.23114431 0.6906544 0.2009523 -0.8374469 -0.45778582 -0.82202476 -0.5778798 0.9842133 -0.56878763 0.47988346 0.09503499 -0.4327012 0.23019406 0.5020684 -0.341061 -0.8961849 0.61962897 -0.8385886 0.8094544 -0.8228664 0.08044933 0.7734785 -0.5780171 -0.91065043 0.97521126 -0.8505223 -0.9304606 -0.7685919 0.749493 0.82694805 -0.15626165 -0.92696375 -0.2249827 -1.0322673 -0.9225499 -0.3309924 -0.041162156 0.4829986 -0.16846782 -0.27590394 -0.40078852 -0.7109628 0.020859083 -0.76877224 -0.6091614 -0.469086 -0.77845484 -0.5282001 -0.94832814 0.505429 -0.92692727 -0.61337346 -0.23589312 -0.5367305 0.90777045 -0.0875479 -0.077438235 -0.18238837 0.5627854 0.48650143 0.9656417 -0.50733525 -0.15696532 -0.69694847 0.18449594 0.1043572 -0.36745098 0.5007442 -0.34464222 0.470763 0.62465376 -0.20391622 0.91145736 0.10048673 -0.64105266 -0.4318374 -0.27884772 -0.61960226 0.7999721 0.45296314 0.23111881 -0.41281796 -0.92489463 -0.12408764 -0.0970241 -0.3436721 -0.21075065 -0.7353704 -0.62079144 0.026710877 -0.8530907 -0.4698219 -0.52533203 0.23304373 -0.656323 0.62325746 -0.32448027 0.712118 -0.5981252 -0.413043 -0.4204521 -0.07142139 -0.562597 0.94649816 -0.30940104 0.54511887 0.90002894 0.118750885 0.11000582 -0.47806653 0.9403129 -0.14775693 0.3156771 0.47272658 -0.66408217 0.6224138 -0.58182937 -0.008779299 -0.69547653 0.77534455 0.4644526 0.720205 -0.23596852 -0.89860684 0.11250848 0.33691537 0.6698105 -0.36344713 -0.77946764 -0.57170695 0.48208344 0.7588909 -0.325993 -0.898999 0.116662815 0.79736066 -0.81789774 -0.7176222 -0.6049982 0.5617696 -0.43890715 0.9470014 0.60882217 -0.26413953 0.41780356 -0.5683455 -0.9336313 -0.5546194 0.8600455 0.67681324 -0.15596893 -0.83811796 0.0052713165 0.45933387 -0.014132359 0.8034318 0.34868956 0.48162988 -0.7810096 0.95997614 -0.35180998 -0.73163164 -0.045746416 -0.5764542 0.9998325 -0.7507417 -0.71109104 0.85118794 0.8672706 -0.37940928 0.023740688 0.6678258 -0.11232892 -0.2267422 0.10223376 0.2482011 1.0021077 0.3835135 -0.566786 0.1352086 -0.96002287 -0.7886362 -0.55945367 0.83840215 0.8529307 -0.4664217 0.056475163 0.9224089 0.86551005 -0.16019356 -0.7821924 0.04639934 -0.3280489 -0.1659219 -0.36146897 0.91575634 0.8155298 -0.8307247 -0.762881 -0.04223411 0.26342884 -0.7372649 0.62555045 0.7502938 -0.9031997 -0.71592766 0.34123552 0.73081744 0.34451592 -0.5896625 0.54383856 -0.05114715 -0.28391567 0.9395675 0.11663415 -0.053513702 0.4950924 0.42360193 -0.71466625 0.16038722 -0.9099614 -0.1627003 0.03680247 -0.66072226 0.80698144 -0.24576667 0.6622578 -0.022562 0.14401618 -0.26112062 -0.7498863 0.60677016 -0.34070015 0.6555908 0.43379897 0.21863115 0.361376 0.74150157 0.13692194 0.1196943 -0.63325053 -0.81291056 -0.6626307 0.8439513 0.9153253 0.68793744 0.45392466 0.8270124 -0.17517236 -0.90010315 0.058940277 0.35246563 -0.36156493 -0.058138095 -0.25274694 -0.33107525 0.6160499 -0.25735286 -0.5822514 0.6621935 0.18634887 -0.45457792 0.136107 0.0045471047 0.6679883 0.3426753 -0.926456 -0.10247826 -0.37259775 0.39488286 0.32697117 0.124426626 0.32049975 -0.09858298 -0.063797645 0.98541504 0.8018178 -0.6794771 -0.8922529 -0.38180858 0.83988535 0.21795182 -0.54272246 -0.33129588 -0.8627484 -0.79708254 -0.97252184 0.8862774 0.78451216 -0.9277979 -0.30517998 -0.33918798 0.12292767 -0.50677735 -0.091281906 -0.7299229 0.24583259 -0.5364769 -0.0850217 0.8706546 0.45992467 0.27224487 0.113005966 -0.9895943 0.2936077 0.40236312 0.4767084 -0.8863811 0.972172 0.9361536 0.33016056 -0.7881398 0.6446234 -0.4317641 