-0.9261386 -0.7582995 -0.73321193 0.4996766 0.44050828 -0.10828764 0.32621774 0.7566084 -0.52356327 0.5909072 0.5114368 0.48042068 -0.5856607 -1.0151296 -0.052474886 0.43098456 0.29303372 -0.55120945 0.18110831 0.49620253 0.1162477 0.289284 -0.3090893 -6.2276784E-4 -0.40472382 0.19794673 -0.9075437 -0.5352817 0.7630563 -0.7741948 0.1206881 0.12651807 -0.9354222 0.07786173 -0.2206192 0.40914375 -0.66843504 0.18851033 -0.15025155 0.8557568 0.75426704 -0.5786358 0.20897911 -0.5001441 0.9553637 0.12743926 -0.60171485 0.81137055 0.4773804 -0.9724866 0.83714736 0.5592403 0.8091999 -0.14639021 0.21675403 -0.7040217 0.46367538 0.11577323 -0.17744562 -0.8334071 1.0100669 0.34604684 0.21689542 0.021727905 0.8519568 0.045591995 -0.72807544 -0.05058402 -0.9067808 0.30483636 -0.22224694 0.5056505 -1.0000159 0.65036535 -0.1487662 0.603773 0.10578732 -0.8392029 -0.90610385 0.2078902 0.9911263 -0.7588969 0.73858243 0.65485084 0.11821041 -0.6394015 0.040251296 0.16292237 -0.15538494 0.3313546 -0.49437782 0.3435601 0.5043471 -0.025437627 -0.55810106 -0.11341543 0.76555 0.30548847 -0.59372723 -0.45234457 -0.7044859 0.8791145 0.16088225 -0.11073648 0.6153171 -0.8201251 0.24058163 -0.43805838 0.5468423 -0.83150434 0.5179133 0.8058372 0.25100625 0.6456847 -0.43850258 0.75441855 0.6391197 0.28707287 0.60079294 -0.38077953 0.016907921 -0.17923433 0.26461333 0.4092494 0.52897125 -0.9797013 0.008127549 -0.55479026 0.12554896 -0.80832934 -0.22965564 0.55078405 -0.5405181 -0.0013153024 -0.5439676 0.18905418 0.57458884 0.63909984 -0.56547964 0.8876445 -0.14840618 0.7369882 -0.5901305 -0.64374125 0.15142098 -0.50823843 0.83294475 -0.1406389 -0.6436443 -0.81184644 -0.11699642 -0.97373235 0.4207272 -0.97572786 0.37938997 0.606641 0.8996739 -0.6554889 0.33984023 -0.5588415 0.97771 -0.9252136 -0.42911002 -0.018519558 -0.6869299 0.39768168 0.73138106 -0.8766572 0.14896062 -0.23128588 -0.9125478 0.13040811 -0.7862519 -0.08877318 0.8621519 -0.70644563 -0.84102976 0.44046277 0.3798991 0.5299653 0.82291055 0.25719056 -0.66318536 -0.48268792 0.5102894 -0.17235652 0.6807897 -0.8462794 0.63702935 0.34801957 0.17526771 -0.3768182 0.23263241 0.90066487 -0.62382996 0.84920853 -0.8174864 -0.6088219 -0.34630522 0.5118981 -0.472797 -0.43649942 -0.744195 -0.15008605 -0.57125837 0.64915824 -0.6842989 -0.77732944 -0.008467746 0.19335255 -0.10874057 0.6791472 0.6861345 -0.5842198 -0.35726565 0.9687812 0.5335166 0.95249313 0.14914373 -0.6313821 -0.5727772 -0.98271084 -0.97967196 0.03412308 -0.07863839 -0.36791718 0.22567491 0.2874506 0.8400175 -0.47267923 0.13695683 -0.9570244 0.45044464 -0.24656764 0.63324344 0.13783781 -0.24806237 0.3066209 -0.54789925 0.43978497 0.43644175 -0.51623124 -0.4050502 -0.77453095 0.9647032 0.94539195 0.22713307 -0.27812484 0.5508349 -0.8713836 0.83592594 0.39301205 0.6416443 -0.6492137 0.7096844 -0.4526351 0.2657262 0.41545755 0.5502052 0.1581101 -0.87815326 -0.44428658 0.10098257 -0.8580119 0.26150525 0.28442073 0.9987692 -0.59770197 -0.38690603 -0.72436255 0.23920222 -0.56975615 0.9472023 -0.8534107 0.0092504565 0.78260434 -0.7964486 -0.21754992 -0.42846918 -0.03148827 -0.6800115 -0.22842938 0.3108057 0.4833374 -0.71907365 0.8596179 0.44492054 -0.36263916 0.17836106 -0.5375518 0.77786505 0.9319346 -0.23595981 0.16591159 0.37125024 0.77619404 -0.31545708 0.37465438 -0.91042256 -0.73269117 0.7150913 0.6397703 -0.09151657 0.9341666 0.7734827 -0.97236085 0.90257645 0.2184472 -0.30873227 0.08873155 -0.8386595 -0.8801863 -0.38594556 -0.23259874 -0.5814356 -0.6570557 0.9277309 0.55647224 0.30742377 0.10038456 -0.74872583 0.67566025 -0.7178907 0.024193315 -0.5276678 0.023477938 0.17851776 -0.40610167 -0.025504401 0.087779045 -0.7946903 -0.41767025 -0.122548535 0.964972 -0.17335513 0.24507369 -0.64711726 -0.9130301 -0.6415071 0.32274157 0.81158066 -0.10297683 0.31180298 -0.052221052 1.0076851 -0.66112083 -0.82458824 0.7202562 0.5040456 0.27084374 -0.3377259 -0.8907158 -0.97979224 -0.19877553 0.11468681 0.46034238 0.8906188 0.27949068 -0.51803344 -7.493959E-4 -0.28211612 -0.22960682 0.607701 -0.026129961 0.9608837 -0.45561764 -0.2147126 0.0063779233 0.050677206 0.76634574 -0.9766883 -0.70470685 -0.20694472 -0.51486766 0.67380875 0.092254154 -0.5976744 -0.0041903662 -0.24830455 0.36733457 -0.14843163 0.82362735 -0.53425646 -0.27745235 -0.86301976 -0.8129047 0.67964345 0.39900714 -0.37787536 0.1887347 -0.23144801 0.39835605 -0.9100885 0.0026131861 -0.24452099 -0.7715452 0.866837 -0.8430983 -0.2807925 -0.117203474 -0.88339585 -0.71361816 0.351799 -0.51436883 0.042390127 0.02022073 -0.4037139 -0.055843268 0.15793744 -0.12525019 -0.052047823 0.18832876 0.2748707 0.1271769 -0.1956055 0.8798626 -0.33303034 -0.04154575 0.48873177 -0.29958162 0.047809985 0.620056 0.32070625 -0.45195517 0.14126721 -0.7050672 -0.29124895 -0.60214865 0.82890606 0.33535865 0.86573905 -0.50950474 -0.6582128 -0.32470804 0.11871948 -0.265779 -0.113083825 0.4311572 -0.89114857 0.8874788 -0.49147332 -0.9670989 0.65128624 -0.8022988 0.77594846 0.08509736 -0.94029444 0.20046133 -0.20910464 -0.13113163 -0.03360709 0.05006686 -0.7198454 0.30303928 0.26587072 0.9341391 -0.018661648 0.5432402 -0.0035960586 -0.41449007 -0.04377017 0.13348176 -0.1769948 -0.30327994 0.30044618 -0.2888037 0.043227553 0.9788249 -0.33714825 -0.1888699 -0.25052696 -0.9169584 -0.09583582 0.15079984 -0.503546 -0.54226875 -0.92231435 0.9507601 0.42431185 0.08447147 0.6229113 0.05465453 0.6220402 0.90815157 -0.4265124 0.7926113 0.28790233 0.35082442 -0.024494749 0.8225942 -0.085913874 0.28084302 -0.34564826 -0.07669535 -0.4955373 0.9530669 -0.2695736 -0.77403444 0.5285529 -0.28005064 0.5548036 0.36176524 0.1423488 0.0026538759 -0.4077587 1.0174885 0.85000837 0.61455584 0.20577401 -0.933776 0.5255343 -0.93810713 0.84341747 0.5138746 -0.9672211 -0.073115796 -0.4955487 -0.24998914 0.44805214 -0.41809475 0.35695446 0.1801426 0.034618087 -0.04376726 0.90215635 -0.6540523 -0.7529492 0.60580885 -0.30749118 -0.5125227 -0.5241934 0.5228616 -0.6868174 6.18577E-4 -0.6303506 0.6275212 0.064849325 0.5200451 -0.68018657 -0.9981888 -0.0046127024 -0.32465452 0.5260834 0.37557366 -0.23835485 0.30065927 0.51170945 0.6430564 -0.6296999 -1.0064013 -0.85271704 -0.98206526 0.56878334 0.004294348 -0.856611 -0.221058 -0.08693891 0.2794808 -0.14897843 0.7740795 -0.73711526 -0.5784676 0.3061852 0.38916746 -0.96589196 -0.75584227 0.9827708 -0.3707295 -0.06072615 0.7414477 0.5745215 -0.2147016 -0.3936238 -0.7747913 -0.3005641 0.5145309 -0.13333026 -0.5368041 0.118577875 0.626433 0.82121664 0.8476203 0.6884211 0.6080307 0.97602946 -0.089769125 -0.09481515 0.43324423 0.541015 -0.0576703 -0.48591363 -0.53901553 0.4873931 0.027643371 -0.9113268 0.23697302 0.07338772 0.16592509 -0.109228075 0.32405263 0.30678335 0.13882342 -0.6976668 -0.6263735 -0.1569749 0.99388504 -0.10379869 0.08122449 0.65428436 0.5090481 -0.54485357 -0.042240757 -0.6085764 0.96404994 -0.33812934 -0.2529516 0.22889258 0.4899284 -0.67374915 -0.5156311 -0.23235866 0.45038894 -0.8164466 0.16259772 0.6838065 -0.9410441 0.8499264 0.20152915 0.35871708 -0.9170321 0.92868036 -1.0079038 0.82016295 0.8064512 -0.74375606 -0.8106577 0.29713798 -0.42250752 -0.085845195 -0.8870691 -0.6381447 0.47574675 -0.59815675 0.5644545 -0.917265 0.25342563 -0.1927013 -0.6657835 0.082364075 0.5752257 0.051709775 0.57413256 -0.7358116 -0.11163394 0.33712205 0.35183847 -0.03896628 0.632017 0.88261306 0.18748836 0.28548416 -0.48723966 0.28241304 -0.42659345 -0.6117215 -0.87200934 -0.20741558 -0.37019026 -0.54656535 -0.6972218 -0.9002033 0.8900674 -0.17170753 0.41878653 -0.06452921 0.6013205 -0.25450832 0.7075898 0.34397483 0.9344863 0.2456367 0.24720438 0.83246195 -0.6614194 0.2454871 0.8902139 0.20474502 -0.7788376 -0.5612378 0.56788987 -0.68060577 0.022547059 -0.9782553 -0.64200354 0.53389406 0.72218466 0.15372872 0.38281077 0.3898857 0.83793974 0.48685935 -0.56062627 0.5755343 -0.45313957 -0.24166356 0.57529825 -0.0031553202 0.38684472 0.5948826 -0.041074254 0.08275728 -0.030799458 0.12755206 0.60366476 -0.5448806 1.0069377 0.57583064 -0.2812793 -0.110617556 -0.20533995 0.051340565 0.6470406 0.8198937 0.8763265 -0.84099966 -0.37824965 0.55122423 0.40320796 -0.60231763 0.7613006 0.37249336 0.45224065 -0.15169954 0.87087905 -0.18164356 0.9852612 0.10314314 0.43080056 0.72550637 0.16510157 0.18372838 0.5574129 -0.7999879 0.10803895 0.59667695 0.86544245 -0.89761674 0.5484186 0.75237244 0.37541515 -0.61598897 0.07385583 0.49108288 -0.7743506 -0.6272361 0.5383226 -0.8858075 -0.33596888 -0.8708916 -0.761555 -0.316638 -0.8377479 -0.04281688 -0.04466033 -0.5907697 0.14621674 -0.65408564 1.0363867 -0.7443679 -0.48910075 0.504962 0.33549085 -0.8545247 -0.43582773 -0.8789649 -0.23728621 -0.8446051 0.48180246 0.92606574 -0.918307 0.7444817 0.86379844 -0.25769058 -0.8395175 -0.07005846 -0.069610834 0.17208357 -0.2675739 -0.59038055 0.12185383 -0.5770087 -0.48210472 -0.13385949 0.49539405 0.82516474 -0.40992022 -0.46930808 0.60525316 -0.12029355 0.85608244 0.6754862 0.8878874 -0.30651605 0.9579786 -0.84504265 0.9147084 -0.45502618 -0.48336902 0.8447662 0.8121135 0.04496067 0.39931023 -0.78248054 -0.53025836 0.18099193 -0.052758675 -0.725476 -0.80723095 0.7020885 0.3009751 -0.9846649 0.104663156 -0.9770802 0.19321935 -0.46358252 -0.9088533 0.0041610147 0.31676146 -0.85885096 0.9927855 -0.017084904 0.27060404 0.0028039983 0.43144327 0.69724244 -0.28619856 0.12326942 0.080160454 0.069420174 -0.11078625 0.51876336 -0.67610836 0.2740972 -0.39767325 -0.49867404 0.17734025 0.076411486 -0.9586617 -0.3171703 -0.022418369 0.927218 0.4974621 -0.1743679 0.46498948 0.9044202 0.6442681 0.93092 -0.8081346 0.8894282 0.036224276 -0.3813302 -0.6012839 0.5893775 -0.543533 -0.55270755 -0.41375875 -0.17174752 0.19611332 0.291351 -0.79821146 0.6385508 0.035555825 0.7701901 -0.34474608 -0.35060686 0.2767974 0.63978463 0.5386398 0.37922797 -0.81396824 -0.57097596 -0.22483495 0.6646876 0.09966035 0.53374964 0.7974491 0.05933058 -0.18880215 -0.41716936 -0.4728998 0.35185665 -0.82649475 -0.50352484 0.057675492 -0.5639938 -0.9255928 -0.914208 0.7551863 -0.8966387 -0.941935 0.37596366 -0.66592914 0.46747544 0.6175947 -0.68720144 0.19055833 0.7875539 -0.49817804 0.5153707 -0.94264436 -0.5422779 0.55700374 -0.014852901 -0.4762709 -0.044795994 0.7743338 -0.90984315 0.7080855 0.9831972 -0.29744175 0.57868314 -0.72162646 0.33868477 0.45121408 0.13091105 0.07407099 0.7269214 0.8900258 0.28464806 0.09988165 -0.8753408 0.20611677 0.51329416 0.58017 0.4349382 -0.22212297 0.39301202 0.38223633 0.4153956 -0.4201985 0.26555598 0.0818891 0.38212717 -0.68249506 0.8032603 0.2629755 0.6995206 0.04344913 0.5700449 -0.68827987 0.78291905 -0.7376262 -0.9013271 -0.0019849895 -0.54494977 -0.52723885 -0.9388154 0.9468852 0.42308834 0.19709247 -0.47347084 0.016753502 0.009465178 0.5487084 -0.66236305 0.9635168 -0.74212 -0.857169 -0.9018054 -0.16916877 -0.6376003 -0.5522695 0.9512014 -0.80261993 -0.8921318 0.5430285 0.6818195 0.7015072 -0.5921711 0.51552135 -0.61338586 0.25956774 -0.8706142 -0.22111586 0.8838394 0.9370164 -0.24997863 0.28490716 0.1577034 -0.44681656 0.8835131 -0.45609462 0.3535058 0.5164392 -0.31239185 -0.42910498 -0.48331013 0.017495446 -0.6721951 -0.97287863 -0.32107705 0.70362824 -0.0164736 0.6366311 -0.89754623 -0.35190886 -0.4448792 0.17949657 0.27148303 -0.8544046 -0.93560183 0.97606736 -0.7444575 -0.69167024 -0.039562695 -0.9562761 0.9422715 0.15480912 0.8257427 -0.46121383 -0.67095035 0.51203966 -0.38616246 -0.2927404 0.12489821 -0.672286 0.00915429 -0.6236948 0.057104092 0.69127184 0.6567546 -0.26006556 -0.7142134 -0.84710443 -0.20527738 -0.5064723 -0.8793987 0.913199 -0.15804346 -0.021311373 -0.6407039 -0.49353653 0.066433005 0.5146222 -0.9625803 -0.4472643 -0.022516139 -0.8247518 0.121478625 -0.8656528 -0.52801543 -0.7814948 -0.8463956 -0.3773536 0.49197924 -0.09952881 0.20480585 0.71692115 0.5377085 0.0050821835 0.82774 0.025856793 -0.03531471 -0.17293686 -0.5634044 0.30972394 0.5332943 -0.4817183 0.06435951 -0.7003487 -0.5508069 -0.9985878 0.6861793 0.14718907 0.37132055 0.5213179 0.6426412 0.9334871 0.7818657 0.42467028 0.113885775 -0.49552155 0.610576 0.41086826 0.51979375 0.7907446 -0.53145355 -0.06840101 -0.36184657 0.050933935 -0.31397456 -0.7930491 -0.6830203 0.12760201 0.3666062 0.6477524 0.85322386 -0.20530188 -0.05027718 -0.18922174 -0.81918955 -0.32947418 -0.72050714 0.35349134 -0.97379994 0.92353433 0.7491749 -0.2079474 -0.92960477 -0.1795736 -0.11175984 -0.2449105 -0.06937413 0.84346277 -0.6208119 -0.65900564 0.07088313 0.2813822 -0.8417989 0.69576854 0.10257122 -0.11264861 -0.36350948 0.544506 0.28886452 -0.38477126 -0.116857104 -0.11312138 -0.05001017 -0.9071083 0.39474314 0.05990529 0.51756305 -0.37272212 -0.8654594 0.41987747 0.6138317 0.48886254 -0.78211313 -0.54588956 -0.15414156 0.32398733 -0.5821025 0.7860774 -0.8859182 0.56692684 -0.69842386 0.76843864 0.47294366 -0.16902614 -0.66532946 -0.87833464 -0.23176754 0.6702485 -0.7974196 0.35366398 -0.50842196 0.17552547 0.42749777 -0.76141596 0.77824014 -0.558022 0.24176168 -0.63588715 -0.39028722 -0.79408574 -0.3791677 0.9735522 -0.21185336 0.52879906 0.47637975 -0.85654825 -0.9590028 -0.1229554 -0.3513187 0.11430646 0.5574409 -0.79495674 0.95112586 -0.42691255 -0.3546589 -0.31512287 0.6573406 -0.39536858 -0.7171662 0.8431034 -0.22820699 -0.25043175 0.16350724 -0.9888025 0.26054442 -0.8074164 -0.99931985 -0.53350383 0.47875103 -0.22589737 -0.54124415 0.08256025 -0.50347143 0.5431128 0.33746767 -0.2724871 0.6036196 0.78332925 0.7045497 -0.9551444 0.18510616 -0.00686573 -0.39263844 -0.36609977 0.5946876 -0.84911895 -0.31702337 0.4346833 0.023399075 -0.75751257 0.16087283 0.6374659 -0.70189714 0.18774885 -0.3255632 0.025051653 0.22795147 -0.15010753 0.7619412 -0.4295146 -0.23684715 -0.48325393 0.7635508 -0.72201824 -0.08280078 0.14994414 -0.57170135 0.6474757 0.87055767 -0.37183428 0.63781065 0.86506057 -0.026457256 0.55379874 -0.90624803 -0.28420955 0.041251957 0.78887033 0.56711453 0.3142265 -0.7284702 0.37445784 -0.7107474 0.7647338 -0.33815715 0.8510874 0.62339824 -0.27791914 -0.34097007 0.93972665 -0.42636997 -0.33143514 0.90735006 0.7669193 -0.9713641 -0.10751954 -0.42213407 0.07899466 0.67352796 0.97084385 0.6672238 -0.83344406 -0.07840819 0.7293125 -0.93243074 0.777116 0.5983715 0.7216427 -0.18650109 -0.3612914 -0.56508285 -0.123989716 -0.006986237 0.3674919 0.24758175 -0.1672034 -0.16027242 0.50460935 0.7066508 -0.57209116 0.3752354 -0.061744533 0.6133858 -0.083316095 -0.42341846 -0.31801894 0.5286248 -0.005825714 -0.99134415 -0.37344962 -0.02080706 0.81918097 -0.49588683 -0.9392996 0.32122067 -0.071640134 -0.8127414 -0.8706488 -0.4101916 -0.74154615 -0.15514468 -0.74218684 0.77347493 -0.2581783 0.81985325 0.6369271 0.05827848 0.47775754 0.7608669 0.6255815 0.8034448 0.2772336 -0.16002959 -0.8768386 0.75470454 -0.9815501 0.41184455 0.55116606 0.6569745 -0.47563866 -0.19786973 -0.58398837 -0.07553243 0.91290367 0.22190125 0.95554537 -0.24620306 -0.5275629 -0.082110055 0.18079369 0.99142474 -0.69582546 -0.51350385 -0.80848116 -0.37737772 -0.15834944 -0.8122795 -0.38282934 -0.57495445 -0.76056516 -0.49523297 -1.0106548 -0.7041066 0.49990365 0.9082896 0.9630947 -0.033746418 -0.9516474 -0.11580135 0.055190206 -0.9805269 0.33842364 0.734931 0.94640446 -0.5966531 0.9245426 -0.6934554 -0.6035938 -0.11017492 -0.013041804 -0.21409598 -0.00269453 0.21762331 -0.6761672 0.65355784 0.8212708 0.58220756 -0.02105609 -0.010226394 0.06650322 0.2472905 -0.035808206 -0.715677 -0.41511968 -0.71246946 -0.81958103 0.4000079 0.4422218 0.3627773 0.13917415 -0.055634048 0.06783295 -0.39119723 0.70045495 -0.6925855 0.6389374 -0.38547367 0.096239634 0.3867621 0.56720084 -0.84716874 -0.66354275 -0.98529583 0.8974283 0.94896823 -0.53012574 -0.9420916 0.57315093 -0.35748386 -0.7447996 0.13421303 0.8260344 0.042450648 -0.18698019 -0.6301637 -0.6120363 -0.12561372 -0.87387735 0.14899163 -0.44358554 0.7121455 -0.31736255 0.5076406 0.2888878 -0.9459102 -0.70793426 -0.28804472 0.7583841 -0.73191863 0.78684366 0.7298659 0.2800218 0.30268 0.51898664 -0.8629199 0.5854957 0.5141593 0.17191008 -0.06581602 -0.683628 0.9773765 -0.5799901 0.33333725 -0.9345816 0.49347544 0.68708134 0.09433207 0.1794307 0.21343376 -0.37241152 -0.4790548 0.9120999 -1.027801 -0.7237678 -0.8917917 -0.40052634 0.16230786 0.73038703 0.24229792 -0.40677476 0.49241924 -0.24925548 -0.9968256 -0.43353686 -0.5719315 -0.21155526 0.22783828 -0.35631022 -0.44476187 0.6805765 -0.25383776 0.57140553 -0.5711928 -0.97916746 0.518207 0.33107862 0.40059933 0.3287718 -0.091351636 -0.08114503 -0.27362537 -0.044757105 -0.2870917 -0.6455876 -0.27619025 0.42825395 -0.9832511 -0.90169984 -0.28831953 -0.41493782 -0.39818096 0.0052588694 -0.67397076 0.33009696 0.14855707 -0.46608245 -0.71521586 0.3071947 0.9814328 0.56580645 -0.38014844 -0.97974735 -0.9021443 -0.30235857 -0.21965885 -0.9884232 0.6048608 -0.10238718 0.7494529 0.32613015 -0.19634803 -0.055867136 0.7599583 -0.42599794 -0.2853389 0.79663426 -0.38153094 -0.3985631 0.7881522 -0.31387448 -0.8774654 -0.5742596 0.10801991 -0.98701483 -0.6520561 -0.9912986 -0.62803733 0.08105208 0.38519946 0.3401508 0.53993535 -0.4586226 0.992393 -0.27586588 0.9676459 -0.32068932 -0.41093668 -0.25854376 -0.63214576 -0.6332518 0.5938665 0.8418643 -0.45701194 0.63855886 0.01645308 0.6741919 0.37970647 -0.84857327 0.23979788 0.25619256 0.022128794 -0.087310605 -0.015759734 0.022764113 0.05075611 0.35174948 0.0870992 0.044274658 -0.79266083 -0.35021597 -0.034269117 -0.88766253 -0.8853507 -0.095890634 0.39140004 -0.9260001 0.46781138 -0.5208648 0.9422575 1.0181056 -0.2090363 0.50033045 0.3684477 0.057616398 -0.41860962 0.3736729 0.20193739 -0.5274904 -0.36242 0.19800586 0.6958539 0.46944723 0.5485108 -0.061393026 -0.03358695 0.5650771 0.9820031 -0.39790896 -0.03519468 0.9402815 -0.21121186 0.8468893 -0.9833491 0.9418064 0.24747689 -0.4371267 -0.89992076 0.44777083 -0.08598927 -0.5669673 -0.7774857 -0.34093615 0.89252895 1.0035709 0.6896191 -0.63800836 0.3252656 0.9073725 -0.09135487 -0.18944868 0.3060523 -0.21617222 -0.41895565 -0.9296771 0.3441137 -0.39245498 -0.5251039 0.013578324 -0.09998143 0.55073786 0.4989348 0.11188775 0.22829123 -0.8258302 -0.55383956 -0.5521639 -0.05070277 -0.7941472 0.56501496 0.74796003 -0.9660649 0.91077936 -0.32231897 0.36947882 0.4419025 0.6426622 0.43244532 0.06584108 -0.82180715 -0.88785845 0.39603058 -0.7730975 0.7266975 0.9619389 0.58941114 -0.35986564 0.24478197 -0.9398886 -0.6110913 -0.09165704 0.85148126 0.04969047 0.8563027 0.8157158 -0.8244669 -0.4208654 0.6425405 -0.5126722 -0.48171377 -0.12991704 0.7338895 0.9146465 -0.7371936 -0.66295844 0.81372744 -0.52081645 -0.42061007 -0.18451607 -0.28445128 0.722888 -0.472578 -0.43942398 0.42430255 0.13774793 -0.123207726 -0.7005353 -0.4157385 1.0254661 -0.50715363 -0.8204633 0.8730023 0.6898582 0.9623093 -0.24995935 -0.378213 0.009711846 0.37635052 0.2571112 0.6199692 -0.6382187 -0.78515756 0.8870858 -2.3881215E-4 -0.17235002 0.53165543 -0.59762913 0.75027424 0.6052858 0.6678776 0.61056167 -0.98897326 -0.13228929 0.81168437 0.1562607 -0.114503235 0.90977865 -0.05050624 -0.71093184 -0.30252257 -0.4025505 0.45392832 0.75929165 0.4810114 -0.47048745 -0.090501375 -0.9053127 -0.73203564 0.9441747 -0.5033786 0.055043537 0.5734892 -0.74795175 -0.44329858 0.18740982 -0.5709706 0.16289744 0.036294755 -0.91616833 -0.7321227 -0.88558257 0.76996106 -0.3325453 0.65876466 0.42939505 0.6387893 -0.6801409 -0.43037426 -0.3306611 0.7158804 0.78954226 -0.6748562 0.26948446 -0.2030084 -0.6479458 -0.4880545 0.6591722 0.2918682 0.68044484 -0.79091114 0.66677606 0.059257627 -0.8596818 -0.2201977 -0.8165097 -0.5409123 0.14691767 0.91593 -0.34226733 0.21096948 0.64516616 0.64374775 0.043818753 0.47666356 0.34070528 0.4970186 -0.95163155 0.2704257 -0.9987138 -0.61244565 0.8295441 -0.451157 0.6677694 0.13743533 0.8531906 -0.8953223 0.66645664 0.24334085 0.7310559 0.89708245 0.6537588 -0.005713225 -0.111265324 0.49628714 -0.47129822 0.24925582 -0.4674627 0.12517253 0.1834267 -0.42360556 0.15831852 0.024898851 0.23518717 0.046339806 -0.5973108 0.8434893 0.111300305 0.30776072 0.117922805 -0.082799755 0.15921195 -0.63601786 -0.066252895 -0.4434022 0.54245394 0.5029214 -0.585786 -0.30371422 0.22667824 -0.9792863 0.3310233 -0.8776472 0.08365007 0.27929413 0.92966914 0.27524957 0.64886904 -0.74425244 -0.80320454 -0.26980698 1.0175738 0.00785293 0.17205411 -0.19566499 0.0539832 0.854473 0.5478316 0.8036148 -0.7678325 -0.30830464 0.54103714 -0.28033984 -0.4836294 0.84819883 -0.73114204 0.8574699 -0.53620714 0.6431326 -0.79642975 0.8756602 -0.8532456 -0.26876804 -0.491069 0.32672197 0.90233094 0.33146727 0.5019622 -0.76610124 0.776475 -0.07087028 0.040418737 -0.2546862 0.91635334 0.98224884 -0.4724697 -0.6354218 -0.43989816 0.9849483 0.047596287 -0.94423264 -0.6760208 -0.5681543 0.23091476 0.07128681 0.770314 -0.04104488 -0.22344923 0.4545773 0.9276792 -0.84290665 0.10584271 0.9105099 0.0152153475 0.02223982 0.4445366 0.0777446 -0.92124677 0.79644275 0.68907636 0.020302268 -0.4231773 -0.018290872 -0.58520097 0.13851127 0.70982486 -0.39271256 -0.8844052 -0.71882933 0.9436357 -0.97498465 0.8720782 0.84309363 0.30493316 0.13286795 0.13864374 -0.27352697 0.13401577 -0.07195299 -0.562248 0.93396384 0.8255163 -0.8029363 -0.048391797 0.8069685 -0.6783378 0.60086364 0.5671346 -0.18392645 0.2902189 -0.1869366 0.18802497 -0.2846779 0.46801403 -0.16706754 0.40754423 0.2553872 0.17302582 0.22656503 0.7147144 0.24767862 -0.040097788 -0.81232065 0.4427675 0.6356851 -0.22537553 -0.23154557 0.8864547 -0.15042128 0.733993 -0.503686 0.7657674 -0.36106357 -0.43476024 0.100686304 0.3430705 0.91955435 -0.28528172 0.6084976 -0.8106445 0.94882435 0.4687034 -0.6549974 0.4814886 0.45348775 0.23567812 -0.6823153 0.36181694 0.5566027 0.78419936 0.9265492 0.20570448 0.9267292 0.95280784 -0.7701679 0.6075583 0.044666544 0.88487655 -0.64623034 0.8181522 -0.85479224 0.053558744 0.10719335 0.19171037 -0.68725467 -0.70473105 -0.94714487 0.22590844 0.7304604 -1.0176723 0.2872436 -0.34984073 0.38389313 -0.39395475 0.21275894 -0.25841773 -0.69064987 0.24913763 -0.19622333 -0.37626174 -0.024515186 0.84180117 0.32675695 0.7406067 -0.21864466 0.6880468 0.0619488 0.4155359 -0.6381925 0.012910518 -0.9777468 -0.27473214 -0.96167636 0.9315129 -0.7645596 0.18612234 0.5231949 -0.8424174 -0.3563908 0.2192964 -0.90784013 0.71308166 -0.10169805 -0.0431176 0.9631944 -0.07147858 -0.28961453 -0.35279608 -0.7029568 0.94279224 0.6552301 -0.1800676 0.12069584 0.123297356 0.29705128 -0.67959887 0.11115686 -0.83426297 0.14630067 0.35055244 0.4507968 -0.26228917 0.2187002 -0.5236015 0.2215219 0.38681442 0.17244665 0.098600745 -0.25106266 -0.2577973 0.44089895 0.28453273 -0.09987304 -0.49444473 -0.48216805 0.4576195 0.7922213 -0.8947671 0.36094436 0.56279665 -0.5151708 0.1565584 -0.55325484 0.67667514 -0.77087736 -0.70570225 0.913764 -0.8449387 0.4113572 -0.9686769 -0.5458464 -0.05492055 -0.25425988 -0.93590796 0.70711416 -0.628779 -0.9874082 0.91049254 0.5817383 -0.68628544 -0.42445686 -0.3565899 0.97701764 0.39330697 -0.021557456 0.4403617 -0.31111014 -0.33297315 -0.27680674 0.43328053 -0.5491011 0.7956592 0.18399902 0.51287794 0.05613921 0.5023762 0.9126303 0.981898 -0.7179041 -0.4715821 0.25737563 -0.44571853 0.3472094 0.46836537 -0.27312934 0.8805741 1.0082238 0.2098533 -0.60198605 1.0335841 -0.72776765 -0.8230063 0.032778326 0.9518842 -0.53404194 0.7714975 0.39010578 0.66700554 0.45761314 0.1091567 0.7699003 -0.40892223 -0.9024743 0.69284976 -0.6539129 0.66331846 0.8192382 0.94558364 0.544291 0.8308172 0.7916524 -0.22949405 -0.5007183 -0.35220864 -0.5320326 -0.89717084 0.8709344 -0.63224024 0.3255248 0.105787136 0.41850525 0.3503223 -0.7943861 -0.7815648 0.53179914 -0.91848207 -0.10977539 0.65991104 0.47887492 -0.89903533 -0.84575593 -0.704123 0.4168067 0.6243627 -0.42179278 0.93196064 0.06544557 -0.35628694 0.8188635 -0.17187971 0.5218304 -0.66756314 -0.15985219 0.31125793 0.5955687 -0.8456534 -0.5655757 0.44685018 0.49255976 -0.2594134 -0.252799 -0.17379045 -0.6605433 0.8712036 -0.59760976 -0.15044118 0.6257697 -0.46840975 0.739231 0.93917954 0.7063448 0.6627978 -0.74477154 -0.84097433 0.34622976 0.43027657 1.007652 -0.92389476 -0.7357376 -0.950172 -0.42797494 -0.29345885 -0.78905135 -0.98062956 -0.70394343 -0.18168527 -0.9666176 -0.5080928 -0.64193195 0.8768121 -0.510726 0.44470692 0.35592017 0.7376218 0.762479 -0.76639336 0.9004697 0.16909806 -0.7533356 0.82040155 -0.7961245 -0.7320405 0.32435837 0.34858996 -0.679791 0.996637 -0.40587512 0.116194725 0.23221506 -0.9414432 -0.62412417 0.4645778 -0.69926053 0.7039824 0.74520266 0.0360849 -0.43193454 -0.27571937 0.24207464 0.4897771 0.32445043 0.83468884 0.31807345 -0.1601786 -0.53618574 0.1688323 0.81821823 -0.0423102 -0.4889083 -0.33914545 -0.5895307 0.5216238 -0.5991621 0.9671554 0.21688552 0.022762759 -0.77904 -0.071476795 0.14693281 -0.38257444 0.42433178 0.39899546 -0.7062969 0.48670825 0.61197686 -0.42989507 0.44618046 0.0685168 -0.04218 0.70806795 0.48706394 0.034328938 0.5653215 -0.084699586 0.59759563 0.68531036 -0.7482204 0.44959947 -0.5910877 0.25742504 0.71015203 0.62784487 0.704391 -0.6700277 -0.50679374 0.6625303 0.2049637 0.89184135 0.622274 -0.14922832 -0.5626495 0.6843021 -0.73835224 0.3333168 0.4332503 -0.9753341 0.52348167 0.2710855 -0.91139174 -0.18476787 -0.06033485 0.58512825 0.9684502 0.69406223 -0.5804791 -0.58760655 0.061824117 -0.07075428 -0.47494096 0.8524692 -0.18176325 0.67776936 0.98597866 -0.6555801 -0.56449366 0.32813174 0.82549644 -0.7340519 -0.21784799 0.5264035 0.3403553 -0.57935745 -0.2636688 0.9029699 0.24512605 0.30497232 -0.09083382 -0.5504547 0.24072377 -0.87872225 0.9158269 -0.7908284 0.67921543 -0.01997785 -0.757373 0.943094 0.8524516 0.24500193 -0.3788727 -0.25531858 -0.7164071 0.25929767 0.13131219 0.19925888 -0.042678498 -0.47524524 0.88938046 0.35548782 0.4726876 -0.044206183 -0.9375846 0.14554702 0.55718935 0.19486111 0.6987775 0.69326127 0.7958436 0.5347401 0.78666973 -0.2153889 0.81185377 -0.421762 0.4489044 -0.69655365 0.41838878 -0.49630347 0.16931869 0.95232147 -0.0998387 -0.041933075 0.90045327 -0.19966632 -0.2779809 0.54307026 0.34074795 0.6181909 0.7091567 0.56113863 0.7299088 0.3127719 -0.47992405 -0.26635185 -0.84689426 0.01621571 -0.58070785 0.78497726 0.8408482 0.8742898 0.88493097 -0.56988645 -0.45882624 -0.23566832 0.8450593 -0.6868289 0.9355036 0.13998763 0.293329 -0.96150434 0.16857031 -0.5784256 0.12220398 -0.788598 0.25223202 -0.5187841 0.71828383 -0.30655664 0.79461366 -0.6175152 0.3624825 0.060203232 -1.0010911 -0.1986463 0.7126177 -0.50270724 -0.74083346 0.96294713 0.38122463 0.148221 -0.08837986 -0.53688085 0.9253614 -0.8113952 0.62352866 1.0021077 0.3600869 -0.64339596 -0.3242414 -0.60894924 -0.37930056 0.1042184 0.6168863 0.67780924 0.8587394 -0.405082 -0.33978477 0.44356713 0.59793854 0.46941447 0.42946666 0.7572052 -0.4570336 0.8524039 0.9392782 0.69796056 -0.24425294 -0.021754283 0.5827928 0.41922104 0.6301425 -0.6677635 0.6826909 0.97123975 0.01168811 -0.33477905 0.20737964 0.97845083 0.037931934 0.9722949 -0.97189015 0.36635432 -0.07727282 0.30844963 -0.669765 -0.8663662 -0.68883735 0.3031925 -0.45298374 -0.3763771 0.80653816 -0.34245053 0.944302 -0.15230244 -0.09809163 -0.8898627 0.2943695 0.9007385 0.072481744 0.19231941 -0.94165564 0.310638 -0.4146443 0.733798 -0.83347386 0.5759773 -0.6231659 -0.8304173 0.93506074 0.28054547 -0.9458795 0.80170506 0.27169195 0.39615783 0.55927634 -0.81364864 0.53983116 -0.06421011 -0.41492885 0.735555 0.81319195 0.7334861 0.70709884 0.74744284 0.0559818 -0.33209333 0.43483925 0.35818574 0.07562956 -0.8218054 -0.40966502 -0.36350754 -0.7433547 -0.33988315 0.6896945 0.8668372 0.27579343 -0.44937003 0.549014 0.9947392 -0.07101474 -0.55639243 0.32121235 0.23625313 -0.9110161 -0.4266567 0.64298135 -0.0055335886 0.8486037 0.423347 -0.57505554 -0.10415907 0.50188017 -0.44072035 0.7818853 0.28286538 0.8041918 -0.23592895 -0.064829 0.22032337 -0.8877921 0.047286853 0.4242579 -0.75609267 0.75258815 0.87418264 -0.54702014 -0.37055728 0.38159 -0.9358982 0.09344217 0.8593252 -0.08383095 -0.9428478 0.07706292 0.31997025 -0.106523864 -0.96284086 0.8815182 0.91358775 0.39234242 0.5652343 -0.26247066 -0.749027 0.8150114 0.5625669 -0.04950922 -0.8839077 0.22382812 0.6641665 -0.09543398 -0.11604214 0.26229247 -0.14709409 0.5742146 -0.32232708 -0.077143885 0.5774186 0.37283912 0.6013501 0.76800156 -0.9858273 -0.50712323 0.7116439 -0.53216183 -0.26950634 -0.7756512 -0.8064181 -0.09246891 0.0073723434 -0.3412081 0.033537775 -0.67624974 -0.0037333756 -0.3262094 0.9698161 0.23688333 0.72930706 -0.2973045 0.38693374 -0.17249316 0.7952099 0.23342541 -0.118965216 0.73414826 0.9490519 -0.96320057 0.6237632 -0.043472376 0.7094318 0.71161425 -0.50537175 0.24026139 -0.16213481 -0.19310093 0.6116885 0.3132474 -0.90527904 0.5479177 -0.79794574 0.034161806 0.48267508 0.98230755 -0.15675312 -0.17798267 -0.37921464 0.6355978 -0.7636828 -0.865187 0.6528425 -0.33902833 0.21706404 -0.22589731 0.6758535 -0.9008408 0.63902986 -0.45161453 0.8160766 0.6475583 -0.33980992 0.29038948 -0.2633102 0.6576039 0.6215884 0.6645844 0.8895913 0.86441684 -0.54681087 -0.13806075 0.674295 -0.005245805 0.27754706 -0.63175225 -0.07829014 0.86367804 -0.17189808 -0.5877337 0.25734273 -0.70916367 -0.9490536 -0.16543536 -0.4327692 0.63157874 0.14800362 0.3792116 -0.43529385 -0.9014843 -0.6705411 -0.3998151 -0.48766455 0.29274383 -0.35748172 0.77577776 -0.02529266 0.23107684 0.49813285 -0.5977267 0.052222043 -0.28210428 -0.12063414 0.83133453 -0.13278094 0.08793292 -0.6024644 0.5849882 0.6971689 -0.8326566 0.14853063 -0.57566625 -0.4506886 0.39335078 0.35842085 -0.41332224 0.7144441 0.9313762 -0.8936006 -0.5893084 0.43846056 0.2786987 -0.8100771 0.5448558 0.06150651 0.77274716 -0.04610274 0.64064497 -0.5479747 -0.7286772 -0.09900117 -0.83810335 -0.15385395 -0.554365 -0.5371485 0.05671351 -0.25434765 0.7388244 -0.22866228 -0.9917788 0.91539574 0.19829956 -0.5971155 -0.46199638 0.23604465 0.42580473 -0.9652002 -0.5634885 -0.83409536 -0.37728968 -0.025352696 -0.6748623 -0.17257196 -0.7791386 -0.045168377 0.15974025 -0.98881245 0.12165388 0.26811367 0.2869958 -0.3942452 -0.50129604 -0.5610508 0.28007576 0.41315496 -0.82900316 0.8154644 0.2995472 0.10821108 0.6428935 0.2969162 0.53530526 -0.38805762 0.89639676 -0.22034499 0.82155323 0.61374205 0.20525026 -0.19995712 0.3258291 0.1306172 -0.12661053 -0.4210583 -0.41427764 0.6963936 0.92115384 0.17819883 -0.8256215 0.09418318 0.95665383 0.058974672 0.25773618 -0.30065757 -0.13144124 0.63331753 0.4433372 -0.24090794 0.7819545 -0.57068175 -0.6785821 0.1335686 0.08467497 -0.75419414 -0.8177062 0.30621067 -0.6857938 0.16382858 0.7506007 -0.19383991 -0.8197023 -0.06969769 0.81991285 -0.9340538 0.7209404 0.3528063 -0.9702481 0.88083357 0.8069719 0.29284415 -0.11741538 -0.08074517 0.72342 0.86780536 0.6666523 0.92134565 0.17710167 -0.50249135 -0.69113445 0.36594063 0.23515926 0.4317143 0.07104218 0.29935145 0.08857043 -0.5218408 -0.52595687 0.09762738 -0.9783196 0.6522096 -0.568239 0.014727546 0.517008 0.4289378 0.18632822 -0.9084283 0.95322555 0.90404093 -0.39649722 -0.651125 -0.7902979 0.38751188 0.41629276 0.8630139 -0.043639347 -0.0902778 0.05880165 -0.96761686 -0.4552103 -0.8530161 0.021519786 0.8376859 -9.406175E-4 -0.29856524 -0.013677669 0.16012037 -0.6791717 0.19933555 0.58468735 -0.48762956 -0.25013116 0.85076064 -0.8507836 -0.6330024 -0.25666144 0.57793844 -0.41906196 -0.34921175 -0.1962491 -0.6938135 -0.09275385 0.9309788 0.6077983 0.3002491 -0.87090945 0.06366579 -0.04736904 0.67907083 0.48348433 -0.72539777 -0.24425673 0.5624458 -0.11545442 0.52305245 0.27566707 -0.93645275 -0.6292373 -0.8381828 0.86943555 0.38001454 -0.7282473 0.014187242 -0.099227004 -0.32281965 -0.56323165 -0.66723174 0.3183058 -0.43646806 -0.28890514 0.40618005 -0.923259 -0.8946262 0.4262712 0.32519192 -0.9124946 0.481911 0.12099717 -0.6494171 0.17680228 -0.8689264 -0.007881455 -0.60397744 0.9814431 -0.62974876 -0.038171392 0.70623237 0.75555944 0.3237778 -1.0218883 -0.67408687 -0.91343784 0.45156974 0.45002428 -0.5020175 -0.5096213 -0.7293651 -0.5401922 -0.8186868 0.20967805 -0.4098862 0.97354025 -0.91471595 0.7606935 -0.9291668 0.10387901 0.5578654 0.037731122 -0.842771 -0.6368149 -0.49124548 -0.96456414 0.37988365 -0.1324372 0.78518057 0.24927366 -0.24173881 -0.42541552 -0.9695133 -0.36539605 -0.5031876 0.70257396 -0.95798707 0.5650202 0.076732725 0.64242035 0.5564346 0.5598583 -0.016989078 -0.4634292 0.7045318 0.27625614 0.3205135 0.48326823 -0.33953872 -0.082344204 0.4725715 0.69934964 -0.22569981 0.7436224 -0.040753026 -0.35393113 -0.52166015 0.3027385 -0.7389755 0.6486867 0.14769495 0.9920648 0.84556854 0.21599354 0.4196406 0.978746 -0.7012216 -0.548778 0.68109995 0.5129649 -0.3513644 -0.8891664 0.11200809 0.32579955 -0.5458442 0.74590397 0.30048546 -0.5265638 0.1755408 -0.9939635 0.98272514 0.480687 0.96464217 -0.91295975 0.8868583 -0.9673911 0.67261416 0.003606373 -0.27417734 -0.9972088 -0.5929134 0.9903109 -0.9857614 0.67264414 0.56621706 -0.10551098 0.87447166 -0.6942701 0.5693773 0.014793972 -0.53989595 -0.28780213 0.06005253 -0.15648426 -0.57487524 -0.06299809 -0.92330426 -0.97172594 -0.75312036 1.0210819 -0.4409261 -0.8775379 -0.09741454 -0.82371914 -0.11444783 0.6366116 0.26819447 0.7178585 -0.13109297 0.60610116 0.7179356 -0.67870975 0.06944993 -0.30747536 -0.029228494 -0.29975748 -0.93777186 0.9181406 0.52787703 0.8671502 -0.57436687 -0.79576945 -0.091768034 0.88565505 0.7008977 -0.8372884 0.46119037 -0.48512077 0.41483766 -0.7328608 0.78421843 0.26345798 0.88284457 1.0176638 0.19319779 -0.14885889 -0.765559 0.6431352 4.9842776E-5 -0.8228692 0.2782521 -0.5653224 -0.5752631 -0.5863278 -0.3015645 0.1932366 0.5699608 0.59888643 0.5756005 0.5778409 -0.93048775 -0.48498043 -0.670786 -0.8999342 -0.40173483 -0.589333 -1.0142596 0.17736524 -0.20062128 -0.8794338 -0.96781117 0.57510126 0.17843442 -0.6827721 0.04995052 -0.377551 0.77679825 -0.08470662 -0.44965494 -0.87556976 -0.052319586 -0.612035 0.87898153 0.61767817 -0.97591144 0.22762395 0.8618681 0.4910011 -0.20951672 0.053290907 0.37080103 0.7269095 0.20399706 -0.29262462 -0.4847469 -0.58293176 0.7370226 -0.21653993 0.42280754 0.98594534 -0.7082208 -0.038860876 0.1016545 0.9029721 -0.61816514 -0.7211917 -0.6812215 -0.13807006 -0.8013487 -0.4000839 0.51638657 -0.57142943 0.3020704 0.7332681 -0.6964043 0.8766537 0.7078802 -0.26028454 0.16333695 -0.71951467 0.7590372 -0.189268 -0.18955165 0.5142152 -0.91364455 0.29257345 -0.50037545 0.9431149 0.7923559 -0.03841033 0.3468238 -0.32677066 0.38673425 -0.5379815 -0.47960714 -0.82567245 0.26172733 -0.6442549 -0.7588884 0.38114142 0.33503535 0.6448519 0.27891347 0.52740777 -0.6023203 0.024527323 -0.985422 -0.8862691 0.42420444 0.92255443 -0.26396003 -0.48707062 -0.4127711 -0.032702178 -0.55177313 0.04900505 0.32511124 0.8267627 0.42584455 0.18635339 0.9897587 -0.23119974 -0.07335899 0.94653463 0.43496805 0.7724703 -0.867774 0.72997755 0.8701599 1.0070531 0.08858046 -0.25452954 -0.9484381 0.4747399 0.51056933 0.65210325 -0.014359264 0.75924414 0.77810985 0.5986845 -0.045957785 -0.91817087 -0.7465495 0.6878353 0.31869292 0.99886656 -0.742782 0.96006477 -0.78159356 -0.8468814 0.6058596 -0.8720806 -0.08248061 -0.5659492 0.24854212 -0.35084128 -0.23136403 -0.26068327 -0.96877176 -0.08828128 -0.02046072 -0.11200478 0.605366 -0.46798924 -0.8045581 -0.3492591 -0.9993969 0.71356833 -0.16305497 -0.72312474 0.61100566 -0.02030445 0.92361337 0.84451604 -0.19567998 -0.059845116 0.41810453 0.87324196 -0.6877959 0.37283227 -0.5119646 -0.670852 -0.67497027 0.15679783 0.9523377 -0.4713124 0.12772754 -0.046302546 0.14588198 0.61959976 -0.05043837 0.73261356 -1.0213059 0.6180436 -0.3796625 -0.6754216 -0.95810235 0.2305355 0.8504555 -0.3359782 -0.7970548 0.967529 0.8364555 0.77004933 0.98786604 0.6035703 0.2807405 -0.03733017 0.09171338 0.23713455 -0.014246747 -0.6847791 -0.11168778 0.7708731 -0.423226 0.00321862 0.93662995 -0.51273316 0.19008526 -0.5880524 -0.42849162 -0.5999669 -0.96525687 0.04046562 -0.041128326 0.51134247 -0.41543332 0.9403053 -0.77258986 0.2531954 -0.9132371 0.9397756 -0.6787733 -0.7221733 -0.968162 0.3033718 -0.88306695 -1.0078331 -0.48748353 0.09787553 0.33012694 0.89501405 -0.34617254 0.5644738 0.07372726 0.097410806 0.52875966 0.93756914 0.4571258 -0.46249574 -0.8178184 0.6250422 -0.5235077 -0.6002707 -0.41901654 0.6617559 0.60936236 0.99905163 0.9086449 0.28178015 0.48546383 0.6285183 0.95001715 0.95383775 0.47683963 0.85228646 -0.28711942 0.47082165 0.9117264 0.25432423 -0.8403542 -0.10711925 0.63204926 0.5401897 0.9003638 -0.6071223 0.8360722 -0.43993625 0.9028406 -0.9176105 -0.6112215 -1.0239149 -0.18877202 -0.24139148 -0.56073874 0.79991215 0.16947052 -0.24979088 0.09260899 -0.1599642 -0.24131061 0.54074574 0.6854253 0.14259651 -0.91366136 0.95571643 -0.11079292 -0.8689944 0.7358107 0.11979106 -0.8791042 -0.37003022 -0.056351632 0.08491447 -0.7237312 0.36300698 -0.24792327 -0.79015505 -0.6247805 0.6103493 0.7162649 -0.16053957 0.2977034 0.19562773 -0.8732191 0.8081614 0.65733033 0.412629 -0.4091445 0.45842102 -0.4822836 0.89046353 -0.7672336 -0.4908057 -0.8809948 -0.7218279 -0.53588146 0.7014484 0.066869214 0.7177511 0.015799763 -0.43751374 0.25957692 0.15395348 0.877946 -0.2007975 -0.14389516 -0.48468423 -0.93321234 0.3575413 -0.45301408 0.24687222 -0.8985058 0.39119145 0.8806946 0.58964086 0.5657027 0.65834796 -0.9167976 -0.6843827 -0.7274735 -0.86509985 0.98153895 0.79787266 -0.3884974 -0.6324958 0.020754833 -0.53536725 0.005749859 -0.1903789 0.43772286 -0.034329332 -0.9847126 0.2257218 0.16398746 -0.8141447 0.07454228 -0.8281107 -0.071259536 -0.04079327 -0.061223805 -0.16175862 0.67875224 -0.10473155 0.96562135 -0.58968294 0.27430335 0.5198642 0.2726795 -0.21831267 0.5429275 0.9203126 -0.1862516 -0.16893432 -0.34908202 0.7039279 0.09701809 0.94736904 0.038867503 -0.18334082 0.96312 0.4593858 -0.5652844 -0.2027785 0.5301998 0.90061706 -0.11923044 0.30939737 0.067046046 0.7043486 -0.22503924 0.06048437 0.23970328 -0.064071074 -0.38189992 -0.4500889 -0.15635213 -0.12499437 0.47249073 -0.5821942 -0.5041868 -0.18548658 0.62768334 0.50807345 0.6015354 -0.05264972 0.11079376 -0.24828173 -0.12183556 0.88563216 0.039919227 -0.8515618 0.8204323 -0.12655134 0.9115072 -0.5773637 0.9493797 0.8157117 0.49167398 0.8832296 0.99816394 -0.5872534 -0.29948044 -0.73669404 -0.38681075 0.25596508 -0.7207189 0.26376268 -0.98409593 -0.93365127 -0.4351928 -0.7155861 0.7106383 0.81278056 -0.049169466 -0.4946244 -0.4888332 -0.033739034 0.07283046 -0.5837857 0.05512787 0.6818272 -0.6321235 0.8961517 0.80231965 0.7420302 -0.58447355 0.11106774 -0.37716386 -0.8137375 0.109652475 -0.95192736 0.3203436 -0.18701407 -0.8306843 0.8396398 -0.016304543 0.19340104 0.06470215 -0.1449214 -0.44466186 -0.43581474 0.22609262 0.7733888 0.014494098 -0.6355159 -0.21893367 -0.6343138 -0.004167267 -0.3219258 0.27379906 0.79724675 -0.5105352 0.9872568 0.5897543 0.1653838 0.7993288 0.72829497 0.50633216 -0.24096917 0.1220245 0.2319536 -0.022198666 0.76348853 0.24252494 0.07508641 0.65851617 -0.06928074 -0.42557892 0.8423175 0.5449603 -0.6855928 0.10606041 -0.49145082 -0.19234113 0.6836513 -0.2511746 0.3222934 0.03447312 -0.26526564 0.13052198 0.38743904 -0.81617665 -0.39566633 -0.5461054 -0.48036304 0.04388672 -0.81707853 -1.0308763 0.023330297 0.62927383 -0.40583897 0.23659305 -0.02342309 0.5973696 -0.2589853 -0.06472177 0.6405693 -0.80497676 -0.1595704 -0.5755398 -0.19595838 0.508569 -0.20383336 -0.4241327 -0.025884751 -0.3063439 -0.20236316 0.6518365 -0.61881876 0.8082567 0.54278284 -0.9351695 0.3243687 0.69391394 -0.0701507 -0.25915205 0.3292999 -0.30872774 0.8648396 0.24055484 0.26842967 0.8150082 -0.66444546 0.6888992 0.7092496 -0.9426548 -0.60831225 -0.92562646 0.27046686 0.43972707 -0.79382044 0.93609387 0.8917389 -0.9548691 0.74933267 0.18989089 -0.54014385 0.5165494 0.47077695 0.5525467 -0.59360564 0.6649173 0.33570194 -0.74219495 -0.62159574 0.40197134 -0.4188256 0.1513526 -0.8272276 0.21463144 -0.80067176 -0.45675963 -0.71217567 0.84666 -0.8757624 0.16509423 -0.44455734 0.4656254 0.18756597 0.38405144 0.30570847 -0.9654326 0.025806995 -0.4243745 -1.0114772 -0.3942024 0.82664394 0.6229956 -0.5471319 0.40908784 0.09892897 0.72838724 -0.44493258 0.5806264 0.472467 0.21802455 -0.64185447 0.4664414 0.33725625 -0.9418617 -0.6365568 -0.6487026 -0.94075155 -0.24870008 -0.49304354 0.7025701 -0.32856962 -0.8841518 0.1893813 0.31613132 0.7540967 -0.2441536 0.35254043 -0.9355979 0.06881499 0.59123915 -0.16263588 -0.3686544 -0.67289233 -0.02839341 -0.79942966 -0.8741012 0.6482276 0.53809184 0.03759004 -0.12369657 -0.2444166 0.3508227 -0.43927523 -0.49901232 -0.78619504 -0.5428726 0.09695385 0.17659342 -0.49678326 -0.62834466 -0.28685552 0.454534 0.64093965 -0.14489803 -0.8538638 -0.8093511 0.33194962 0.8842633 0.69931823 0.6290914 0.03233536 -0.13365604 0.72508514 -0.5867059 0.9002558 -0.08044499 -0.41160938 -0.72632515 0.31914088 0.12989205 -0.24401346 0.92165595 0.52988887 -0.11295851 -0.5195127 0.7351458 -0.4668712 0.34511042 -0.3324366 -0.27899042 0.35234848 -0.24073696 0.6010071 0.49594662 -0.06981581 -0.8679582 0.9572905 0.3960171 0.8903439 -0.23321421 -0.4713995 0.9575962 -0.22171327 -0.7731825 0.5846483 -0.5470403 0.59840983 -0.8320346 0.19965822 -0.6381522 0.6086305 0.8779489 -0.3777702 -0.79518163 -0.4798384 -0.10420048 -0.39558417 -0.46460727 0.81710774 0.95686555 0.58817613 0.04175639 -0.3247439 0.9377215 0.25899655 0.6273338 -0.996231 -0.18826468 -0.23729451 -0.22728486 0.6966823 -0.2830701 0.96458566 -0.64655674 0.6453209 -0.7377827 0.525878 0.69530725 0.14587298 0.7950417 -0.6259954 0.10468689 -0.044058423 0.08926836 0.7331772 -0.22210285 0.2755229 0.68676466 0.70049226 -0.88389415 -0.3573194 0.92771846 -0.05807151 -0.21908206 -0.6020751 0.83726966 0.73720264 0.18724105 -0.9755241 0.44803712 0.390836 0.6063041 -0.08420382 0.12361555 0.28991517 0.8624532 -0.94721746 -0.34370133 -0.19265154 0.021611063 0.9085891 -0.65282696 -0.46878245 0.32513455 0.79761636 -0.061488084 0.16567624 0.061620932 -0.10273149 0.16648361 -0.9133649 -0.939777 0.18908735 -0.7441989 -0.6406992 -0.47381154 -0.68196565 0.20842646 0.6649499 -0.26165262 -0.8804517 -0.40725973 -0.77929795 0.56794924 -0.89428794 -0.031294465 -0.37426132 -0.3783203 0.3565963 0.01656815 0.7071022 0.11155977 -0.5519622 0.8438239 -0.39170122 0.12356636 0.9682422 -0.06688475 -0.38326925 0.19150028 -0.3064367 -0.39629775 -0.89566207 0.8193804 -0.42632806 0.7231357 0.34689173 0.47479892 -0.764453 0.4388579 -0.7643983 0.5795556 -0.8965799 0.8226835 0.705804 -0.1435097 -0.27260274 0.68311137 -0.9579774 0.75618356 -0.41737995 -0.2658388 0.28969893 0.33913872 0.21450572 -0.856155 0.61154616 -0.094161496 0.85245776 -0.08008211 -0.2060946 0.114563435 0.07304216 -0.82324654 0.9152396 -0.18768108 0.74643475 -0.30300942 -0.27658373 0.34494048 -0.10197825 0.09486344 0.0015825253 0.72563326 0.9707958 0.08322876 0.0075747618 -0.5579067 0.06910039 0.0025691693 -0.11943296 0.5385724 -0.98390245 -0.0028513032 -0.6731147 0.645277 -0.9812052 0.39024514 0.24288966 0.4476624 0.41486958 0.75512934 -0.40044987 0.35017657 -0.6952146 -0.97396743 -0.17682241 0.09108679 0.30906385 1.0054911 -0.46708405 0.5213051 -0.62430835 0.17820014 0.3554312 0.16241474 0.60737425 -0.19843218 0.7702905 0.24597055 0.90099245 -0.601055 -0.4971401 0.6633589 0.17533077 -0.17913651 0.14990775 -0.021303002 -0.96280193 0.29456663 0.7346573 0.82880324 0.29244196 -0.7501568 0.9545561 0.7336315 0.71132785 0.41386604 0.90615207 0.04822415 -0.6572211 0.30163136 -0.56735545 -0.8491792 0.9250117 -0.8733882 0.35275728 0.5575454 -0.26527828 -0.7020195 -0.50440174 0.6545341 0.49961248 0.028460875 0.76941055 0.63158274 0.5302049 -0.7861749 -0.60383546 -0.030579558 0.0782834 -0.38473463 -0.21037427 -0.5242965 -0.97899926 -0.8093161 0.4992899 -0.06724099 -0.67017674 -0.03438405 0.7875977 0.38983583 0.040507115 -0.24657895 -0.028063692 0.57249004 0.12794146 -0.65843546 -0.67973006 -0.6988153 0.75383914 -0.32981732 0.7408164 0.9692634 -0.6763451 0.54409885 0.31431812 0.6773808 -0.69820863 0.7974036 0.17383684 -0.89970213 0.19761707 -0.09994761 0.70354205 -0.97532445 -0.34009135 0.088729315 0.9744199 0.3299242 -0.68769413 -0.004942577 -0.50588393 -0.530698 -0.8375384 0.59351957 -0.22527462 -0.7987273 0.9394129 0.32141504 0.40477484 0.40399116 -0.35877922 -0.21332867 0.79309726 0.027671149 0.14609013 -0.57870054 -0.3447903 0.5259608 -0.66316164 0.9395273 0.6551948 -0.24656558 0.5295803 0.15815827 -0.51405406 0.4365008 -0.9996076 0.19891891 -0.5417093 -0.71975327 0.9324657 0.21910635 0.80653715 0.8106124 0.454055 -0.4057106 -0.046382174 -0.101163074 -0.14027442 -0.7881285 0.20348322 0.44051614 -0.35767782 0.17193855 0.81219196 0.9273488 0.21601453 -0.9703153 -0.5274284 0.87382734 0.27420628 0.39777616 0.110957794 0.5152773 0.81926715 -0.7360136 -0.7534113 0.7127563 0.1829869 -0.2325585 -0.77539515 0.72856903 -0.12397375 -0.57332736 0.5912361 -0.55842614 0.75569206 0.34258816 0.14955111 0.14679736 0.5113676 -0.967827 0.44413728 0.0478653 -0.89966965 -0.37176886 -0.24485761 0.77888864 0.3167056 0.46320087 0.35228366 0.55022794 -0.036739092 -0.53862417 -0.15646875 0.85131896 -0.46079502 -0.7254764 -0.30505133 -0.12291983 -0.3391419 -0.19075412 0.44503778 0.36828274 0.45799002 0.55638856 0.3363218 -0.79354787 0.9010816 -0.026722396 -0.0769916 -0.4768939 0.3320821 -0.1956588 -0.9678034 -0.74983567 -0.25851157 0.5751155 0.96244776 -0.3394825 -0.16192888 -0.29130167 0.9584123 0.22640614 0.7597359 0.12359962 -0.9834666 0.814274 -0.85511637 -0.8919243 -0.24521667 -0.18426466 -0.08575434 -0.5727721 0.64216113 -0.44955578 -0.92135024 -0.4433206 0.010692891 0.6768694 0.17420867 -0.71684813 0.25256556 0.4260009 0.082732186 0.40737945 0.90858203 -0.74918884 -0.2693572 0.7053309 0.8541511 -0.32576334 -0.7365602 0.81418157 0.41878003 0.38766035 0.6776564 0.4075465 -0.35748562 -0.27046105 0.10944359 0.30172017 -0.7477277 0.15433735 0.04295562 0.79469657 -0.06383872 0.8572279 -0.45386535 -0.24953127 0.44894156 -0.3692298 -0.30899122 -0.08161014 -0.4894219 0.032038443 0.78475165 -0.8536404 0.59728974 -0.49870563 0.9441574 -0.58869946 0.76721233 0.9379783 0.38658527 0.6326439 0.13479249 -0.57977843 0.9255478 0.70902663 0.4753641 -0.55173653 -0.5107535 -0.39309892 -0.1829371 0.005162266 0.4211372 0.4133921 -0.06889845 -0.34047598 0.83188 0.3080461 -0.9558572 0.5707717 0.78952557 -0.9453326 -0.08643427 0.2043176 0.14646873 0.06586822 0.06956637 -0.7810139 0.47799093 0.50746244 -0.61041045 -0.08758097 -0.10115751 0.0827626 0.3266091 -0.19167697 0.18745625 -0.72512454 -0.13651231 0.83348846 0.75793594 -0.2152775 0.87714744 0.82106185 -0.5136082 0.4465625 -0.5215867 0.43732393 0.29460958 -0.19963686 0.5846153 0.5124959 -0.775248 -0.60867083 0.8635901 -0.26482135 0.266006 0.7890719 0.45852277 -0.74902326 -0.94380623 -0.5714773 0.03587151 0.6631587 0.6272869 -0.72614634 -0.63918984 0.8733108 -0.014993006 0.13527167 -0.06580466 0.74413484 -0.02514458 0.65322065 0.85175496 -0.9275939 -0.06905758 -0.21929422 0.119879335 0.49240518 -0.3585309 -0.16469783 0.17396058 0.1278616 0.18657885 0.02407462 0.19280444 -0.9591987 0.23399523 0.96541655 -0.37881032 0.77400714 -0.52587205 -0.46533188 0.3542199 0.2943164 0.2298394 -0.8565916 -0.06288667 -0.65589166 0.1144761 0.5498084 -0.73042446 -0.10596919 -0.80867845 -0.9208567 -0.66976464 0.1735007 -0.54773587 -0.64354825 0.3882958 0.0017941736 0.50159615 0.08918999 0.6345181 -0.91744864 0.27977234 -0.7748396 0.6423369 -0.65190727 0.88352096 0.13168561 0.866081 -0.9443072 -0.11440511 0.30932206 -0.43889 -0.5150189 -0.08209647 0.84439033 0.41660044 0.65080905 -0.624429 -0.03681699 -0.9997986 -0.032997504 0.534572 0.6898821 0.52264464 0.009819083 0.97331846 -0.269671 -0.2733034 0.45009598 0.27123693 -0.7164832 -0.0774086 0.18127918 -0.7975217 0.035368346 -0.038471986 -0.3232651 -0.08574338 -0.7518222 -0.32186145 0.7644459 -0.8365396 0.29343042 -0.5849273 -0.9449992 0.07857825 -0.11804829 0.6387399 -0.1057711 0.5525839 -0.5404037 -0.19949543 -0.88435364 0.892023 0.5080335 -0.17897344 -0.25935507 -0.8714525 0.1628607 -0.74587995 0.61234146 -0.09689273 -0.4221319 -0.29402962 0.49294966 0.18297388 -0.6999861 0.35777906 -0.8700651 -0.8443425 -0.8430771 -0.16439503 -0.8929257 0.76172644 0.737663 0.86536765 -0.26924786 -0.088989876 -0.40025932 -0.8570623 -0.62349945 0.27249172 0.24774018 -0.21937296 0.45928288 -0.27170244 -0.06505208 -0.52328634 0.43450716 0.5599284 0.25131276 0.28082788 -0.73941404 -0.082323566 0.7412836 -0.70403457 -0.9258765 0.04527596 0.11434685 0.07237446 0.4304608 0.6357866 -0.2835632 -0.6734314 -0.5681211 -0.66744345 -0.43079764 0.81362337 0.016370168 0.47194028 -0.34066153 0.62980205 0.37676486 -0.28046858 0.2990369 -0.42171633 -0.39563587 -0.31417122 -0.17102572 -0.65581185 0.7741611 0.06876558 -0.775628 -0.3825308 -0.438268 0.2913888 -0.1704575 -0.9038902 -0.7372748 0.10339086 -0.7012782 -0.5982079 0.6913765 0.08086333 -0.28708458 0.0024554369 0.12236872 -0.44248563 0.13736203 0.012133328 0.9957784 -0.54275644 0.0955171 0.8217891 -0.94503 -0.26614997 -0.9969758 0.11048524 0.6991498 -0.30418897 0.39953268 0.8792494 0.6149857 0.8330214 -0.48729774 0.5239445 -0.54602623 0.773057 0.97329295 -0.65822005 -0.002845283 0.14532863 0.43383226 -0.78045696 0.13638757 -0.09415957 0.4756453 0.30682516 -0.1231258 -0.7747585 0.23589854 -0.465927 -0.5265635 -0.6475658 -0.10994136 0.1025581 0.46059144 0.65503156 0.9581975 -0.112915866 -0.26579645 -0.581941 -0.6458921 0.12623477 -0.3598605 0.75840926 0.39446014 0.5359082 0.7058208 0.6742696 0.24194065 0.026917867 -0.5588521 0.1792591 0.08808294 0.37806222 -0.8413141 -0.5096551 -0.9792143 0.45298222 -0.51799756 -0.7762817 -0.37472656 0.24524976 0.048595652 -0.7683077 -0.59047484 -0.17740336 -0.9157858 -0.75330347 0.21676901 0.8721083 0.33879015 -0.107638344 0.19077507 0.045364454 -0.13795519 0.2687119 -0.6288631 0.9672072 -0.39736548 -0.62132436 0.5776597 0.8846285 -0.085316114 -0.98366517 -0.9014689 -0.98831826 -0.18864107 0.27823246 -0.17097996 0.60200995 0.22879285 -0.59176034 0.6462566 0.3061911 -0.6384847 0.0204974 -0.650677 -0.3230075 -0.7594611 -0.3040014 0.043210708 -0.5972163 0.45368433 -0.38491565 -0.4351859 -0.28595787 -0.64444035 0.43716916 -0.19674695 -0.72015035 -0.34168705 0.5147378 0.17811218 -0.23777625 -0.94249797 -0.19293748 -0.40289524 -0.9011869 -0.16008657 -0.7741257 0.002529025 0.9658834 -0.46483657 -0.2684015 0.72927916 0.7339387 -0.55761176 -0.23494494 -0.5388399 -0.026910855 0.18227783 -0.09496462 0.18287124 0.31758386 0.23576379 -0.90853786 0.27581218 0.85429895 -0.41711372 -0.86845016 0.80040336 -0.9422283 0.8851097 0.2957464 0.7437804 -0.708495 -0.21686757 -0.6595562 0.957529 0.5971294 0.44368216 0.3518754 0.09110014 -0.5637846 0.05701165 0.89097136 -0.35796213 0.31884506 -0.90826035 -0.1679514 -0.05108881 0.6192298 0.8426372 0.034362454 0.6279521 0.010899931 0.47404617 0.12768327 -0.7433109 -0.54955256 0.08857271 0.7044385 0.60512817 0.8402189 0.6934604 -0.042714763 -0.79208606 0.33839437 -0.7828905 -0.17481352 -0.9468986 0.9217232 -0.6043327 0.63127273 0.010985183 0.8279415 0.64352536 -0.118823916 -0.5446909 0.33394226 0.447625 -0.8801785 0.31460482 -0.7164824 -0.74198943 -0.076551534 0.4159332 0.38536328 -0.30526182 0.20141606 -0.20007323 0.49101028 0.78957194 0.023584392 0.5475407 0.6977773 -0.7245937 0.26535344 -0.7908153 -0.9080958 0.23297274 0.93368715 -0.81389004 0.715693 -0.61262184 0.61323684 -0.7950508 -0.17464674 -0.25775322 0.15872759 0.8191351 -0.6123398 -0.30803967 -0.36814183 -0.8617476 0.03757315 0.07620639 -0.6316538 0.5798475 0.026366487 0.6971585 -0.37408584 0.013068373 -0.22454068 -0.35729066 0.15794773 0.6499543 -0.39575434 0.91627204 -0.0032417525 0.08772214 -0.44324794 -0.44092938 -0.19090699 -0.29664224 -0.21735962 -0.3861153 0.4829323 0.13243474 -0.24828511 0.11984271 0.02825802 0.02563471 -0.62972164 0.6421245 -0.15433864 -0.5642108 -0.7877938 0.3129665 0.7821607 -0.88376474 -0.05777084 -0.6779093 -0.7817764 -0.001076924 -1.0204053 -0.043775596 0.1568805 -0.48975238 0.44800797 -0.87882966 0.8015837 -0.015674274 -0.6474953 0.90656483 0.89393544 -0.5609186 -0.24889247 -0.69697577 -0.38479817 -0.9143627 0.2598036 -0.0673674 -0.71395737 0.3386254 -0.01864687 0.71586275 -0.5805095 0.55300426 0.12493129 -0.83494234 0.6014508 -0.9114778 -0.9273255 0.58184904 -0.6851292 -0.6780798 -0.31036192 0.85121304 0.9602244 0.2597928 -0.07879241 0.50292766 -0.42689168 0.015911942 0.70935357 0.41420507 -0.8598882 0.21394692 -0.4784042 -0.4085124 -0.5838661 0.6529721 -0.28548476 0.34380218 0.78125846 -0.16780366 0.30494124 -0.18434687 -0.44634527 -0.0856244 0.4216377 0.3743093 -0.2267966 -0.8157445 0.089604385 -0.72920716 0.96123356 0.59849447 0.8112494 -0.41151914 0.7644955 0.25232196 0.08373659 0.31513247 -0.4937624 0.5180237 -0.48850852 -0.6159929 0.171256 0.45790517 0.6311547 -0.17939723 0.9651357 0.81876814 0.29297504 -0.27736753 -0.1956009 0.31551197 0.2922607 -0.61261 0.8172339 -0.72217715 0.555983 0.4231991 0.31688672 -0.21388838 0.4348638 -0.54937637 0.58370143 0.1941702 0.8215138 -0.8895703 0.6608092 -0.9903094 0.7978381 -0.06833391 0.8459996 0.75173753 0.70677084 -0.73844147 -0.6210385 0.5285769 -0.11553626 0.39215243 -0.9328232 -0.5725155 -0.75426245 -0.9058106 0.8656678 0.15444846 0.4670058 0.5818978 0.97509736 0.78318673 -0.9181065 -0.53633577 -0.82166386 0.5532101 0.50215966 -0.83949184 -0.9242754 0.51161265 -0.6365745 -0.8258741 0.45315135 0.42941138 -0.2381463 0.9366709 -0.23091173 0.45070204 0.09822984 -0.5986819 0.80193174 0.98360795 -0.456611 -0.6680583 0.3232134 0.31559122 -0.460357 -0.9404449 -0.18002059 -0.16805908 0.8680389 0.44838563 -0.24511221 -0.35580686 0.7383109 -0.14012918 0.335788 0.4991831 0.7533004 -0.32231683 -0.33379552 -0.6949085 -0.0759207 0.88313085 -0.19826387 0.47573656 -0.5922514 0.86877966 -0.5897599 0.8711611 0.79815376 -0.18248706 0.40313306 0.12331159 0.85720026 0.22732556 -0.39222366 0.5880256 0.18346013 0.5652624 -0.9780447 0.2265769 -0.17920826 -0.68916935 -0.37556136 0.32142478 -0.36804414 -0.55215687 -0.21726501 -0.8964495 -0.26761928 -0.62792283 0.8497355 -0.8021852 -0.36024168 0.7417887 -0.13163386 -0.55022055 -0.46091616 -0.62439 0.9125851 -0.4264588 -0.591686 0.53269887 -0.19661662 -0.7150977 -0.063911796 -0.6167012 -0.75496274 0.003109919 0.22665676 0.117653675 -0.9524646 -0.7990175 0.86112994 0.2936766 -0.08293945 -0.38909578 0.9804165 0.83170015 -0.63169384 -0.4257824 -0.7118565 -0.8830362 0.11182624 -0.53088176 0.16891663 0.18169585 0.55622894 -0.094242096 0.76546514 0.36857024 0.47978383 0.73325986 -0.43231145 -0.50403565 -0.28642055 0.7209736 -0.30013287 0.2207415 -0.36670086 -0.14333092 0.5878243 0.31519142 0.6423022 -1.0245051 0.7400066 -0.2810816 0.7708854 -0.6884502 0.011964483 0.96499884 -0.979976 0.12801455 0.4568775 -0.16053034 0.1667396 0.5450584 -0.19654694 0.66466224 -0.14842129 0.84702086 -0.4235843 -0.06422774 0.79578346 -0.4494089 0.8212622 -0.4715661 -0.5882222 -0.6329125 0.62949115 -0.38308427 -0.6395307 -0.9247197 0.87568295 0.75023174 0.92504615 -0.22517397 0.025366768 -0.11288672 0.3954554 -0.5659796 -0.25200987 0.77378213 -0.28718793 0.40660837 0.87170196 -0.5315872 0.5175477 0.7588795 0.59672165 -0.03947663 -0.7049142 -0.0035009545 0.2928118 -0.91258883 -0.038642783 -0.26090336 0.66619813 -0.42952943 -0.51412755 -0.31979954 0.27113697 0.59379905 0.6037591 -8.369684E-4 0.67458785 -0.6011494 0.5027002 -0.025476461 0.6841406 0.77350646 -0.0037168157 -0.7386099 -0.5576252 -0.66679466 -0.48155335 0.34610182 0.7844701 0.3579546 -0.7586556 -0.71570206 0.80396026 0.28450754 0.8961653 -0.20268984 0.69466645 0.028559696 -0.88216466 -0.91294765 0.65886503 -0.75968754 -0.4365854 -0.46577168 0.66524315 -0.5671693 -0.6384362 0.78845257 -0.10823809 0.6727168 0.4785312 -0.66001886 -0.26110163 -0.10087158 0.16187418 0.9189219 0.069650635 -0.124473155 -0.2698859 0.5607702 0.0911667 -0.41528237 0.1787694 0.11852264 0.21371302 -0.3462404 0.40893742 -0.32565618 0.5153332 0.5163384 -0.25665405 0.46069482 0.92479026 -0.378885 0.9723954 -0.121411175 -0.9686038 -0.6706806 0.011648006 -0.79309976 0.9504421 0.66095614 0.6762861 0.16097145 0.92536074 -0.6950219 -0.7399758 0.7234283 0.7313558 0.52822155 0.2787882 0.23654647 0.5881209 0.4800371 0.62197423 -0.30154905 0.79885113 0.83873254 0.5620473 0.54761446 -0.4588307 0.7519736 -0.874754 0.6812038 0.93247795 0.84041107 -0.8412008 -0.6945784 0.03146075 -0.21748716 0.0010912828 0.07559121 0.56150854 -0.13242128 -0.5573394 -0.87592196 -0.25258705 0.55687946 0.7607193 -0.78996575 -0.24236192 0.6857029 -0.59825903 -0.47795603 -0.84801066 0.6593369 -0.27357683 -0.48988938 0.45974326 -0.3255986 -0.08626271 0.8429163 0.5693358 -0.10595118 -0.08701266 0.8769413 -0.910733 0.63318914 0.6170204 -0.057567794 -0.6234784 -0.661427 0.8578653 -0.19972193 -0.9151618 -0.20880875 0.31126663 -0.09656668 0.31168506 0.9391349 0.571177 0.5981019 -0.9951218 0.04831285 0.18806052 0.95197123 -0.1826676 0.7749109 0.007571966 0.94759345 -0.108957626 -1.0071876 -0.011856411 -0.92957824 0.109023996 -0.91800076 -0.24125977 0.5823397 -0.055231325 -0.49702537 0.012724301 0.98826396 -0.29218942 -0.43914846 -0.06503008 -0.81164676 -0.3958788 -0.043314744 -0.70747715 0.06389659 0.30210313 -0.21671748 -0.26224077 -0.80296195 0.6111842 -0.23565508 -0.018807558 -0.97758776 -0.9825191 0.6544726 -0.37491238 0.38476545 0.52313983 -0.099444464 0.08942275 0.054612756 -0.12169433 0.36058307 0.9193251 -0.6408951 0.8057727 0.45030785 -0.63511586 0.9803007 0.6709625 0.23976018 -0.40194973 -0.46541598 0.76191723 0.2443317 0.39057997 0.7398424 -0.9470737 -0.3128089 0.9382499 -0.6093594 0.9906976 -0.19282411 0.164544 -0.21622849 -0.2631976 -0.29470375 -0.7996664 -1.0007496 -0.3368624 0.714024 0.2060585 -0.55743426 -0.05950366 -0.5806271 0.2453269 0.5163255 -0.31731102 -0.25752118 0.9678327 -0.19384138 -0.3033691 0.547286 -0.09861979 0.07156702 0.85360616 -0.34355026 -0.6380194 0.6072497 0.2387672 0.1037435 0.31210664 0.15529382 -0.35825086 0.41421556 0.6927916 -0.4308035 0.5812992 0.667485 -0.104388624 0.8079856 0.7537553 -0.9379544 0.046320558 0.2870453 0.7175371 -0.7878242 0.67113376 -0.08622583 0.37119353 -0.050861448 -0.26227134 -0.060861338 -0.4256654 0.53309125 0.53971887 -0.9298439 -0.23133947 -0.57753927 0.37168685 0.33103082 -0.614759 -0.14956076 0.9489937 -0.5666175 0.73349625 0.075902104 -0.29607406 0.17669506 0.25016734 -0.150338 -0.15856825 -1.0217011 0.8051155 -0.17919898 -0.5222698 -0.64204264 0.6833294 0.8857231 -0.5815577 0.8501693 -0.376316 0.33845505 0.4974231 0.55054796 -0.052015886 -0.9310188 -0.2917886 -0.46083465 0.84797186 0.9591219 0.70163876 0.1207712 -0.14422639 -0.20689984 -0.16658224 1.0215107 -0.47191378 -0.6436688 -0.79375553 -0.4345406 0.44274244 0.23747635 -0.21920833 -0.9385729 0.82870543 0.28908515 -0.452588 -0.27573365 0.9136143 -0.8970927 -0.18255064 0.34037855 0.812402 -0.5370154 0.20591211 -0.45282343 0.042455554 0.2825557 -0.9126648 0.3383901 -0.17325282 0.87652075 0.25678623 -0.8215025 0.30683148 0.63223785 0.8191042 -0.7953914 -0.027477145 -0.5641018 0.057284474 0.061306085 0.2053245 -0.13867885 -0.5863459 -0.041442133 -0.46363655 0.967139 0.9120828 -0.43620995 -0.7438518 -0.27764413 -0.59024256 -0.653253 -0.4265934 0.555377 -0.119479604 0.408617 1.0157286 -0.20704824 -0.7678276 0.96726745 -0.17298552 -0.46080878 -0.79370415 -0.117100716 -0.075050905 0.7186428 0.49942207 0.14881271 0.7536149 0.33525494 -0.8052884 -0.9386945 -0.8230449 0.5334009 0.32601395 -0.19912592 0.15221357 -0.3995856 0.61381096 0.5033643 -0.6541889 -0.98032445 -0.022097034 0.41932112 0.6552006 -0.09650415 -0.69226366 0.48326623 -0.33738032 0.24971318 -0.9219764 -0.74336016 -0.28261468 -0.5469299 0.08138928 0.69140714 -0.6743518 -0.9295811 0.09259057 0.6322978 0.7834141 -0.31290936 -0.25528738 0.7685937 -0.26858357 -0.3814619 0.05807991 0.19072571 0.3398032 -0.9174045 0.60702133 0.50037277 -0.62991905 -0.34092 -0.18577974 -0.88155156 0.09030018 -0.17613673 -0.6872168 0.66475487 0.22582845 0.11926657 0.26071683 -0.21459505 0.28329265 0.120306686 0.6433212 -0.6412782 -0.43814412 0.49167323 0.74070096 -0.22383396 0.89713687 -0.22936203 -0.013635394 0.08070162 0.2729188 0.78201747 0.95101714 0.5214976 -0.7965572 0.395042 0.16341127 0.38786435 -0.37185192 0.3293283 -0.14441678 0.94203925 0.8922563 0.20278512 0.95360947 0.14255302 0.68410295 -0.29459557 0.86667657 -0.98778254 0.082795784 0.16934653 0.9691625 0.92506635 0.27383074 -0.37287453 0.53944296 0.35074684 0.9760976 0.66110015 0.70038444 0.49489138 -0.5365641 -0.6947666 -0.47308278 -0.86305964 -0.50209826 -0.5841028 0.3393402 0.69493 -0.27021822 -0.6377877 0.2514913 0.36054218 0.062735066 -0.9213936 -0.2762762 0.64090234 -0.48483473 -0.87990934 0.6714907 0.15108414 0.64467126 -0.059257478 0.77165264 0.0024224059 0.4387525 -0.6485498 0.9375431 0.59877694 -0.19805364 -0.51080036 -0.7373564 -0.85093224 -0.655694 0.63430583 -0.8694793 0.68450373 0.9435918 0.83777237 0.57733464 0.54241484 0.67120546 -0.87577766 0.40032652 0.93302387 0.73754555 -0.51020586 -0.44054824 -0.01592699 -0.6504594 0.588242 -0.3458297 -0.4259857 -0.5485853 0.40287253 -0.38222227 -0.46597734 -0.056157347 0.0939591 0.78757834 -0.0770993 -0.29367787 0.24278998 0.81871754 0.31645063 -0.12409405 -0.5734157 0.9191057 -0.2671971 0.7239918 -0.09407811 0.7057639 0.2668285 0.5909366 -0.22645238 -0.27562478 -0.4924345 0.41972214 -0.31645408 -0.3295926 0.5209267 0.5281019 -0.79336655 -0.58035725 -0.18073124 0.86323065 0.9248126 -0.8002135 0.66247255 -0.36422667 -0.6652678 -0.14690782 -0.9137701 0.055742186 -0.6001823 -0.46655446 0.4142796 -0.09405008 -0.5279499 0.069044195 -0.6812619 0.9814478 -0.5921659 -0.47784606 0.31475705 -0.6178361 -0.60674846 0.051921967 -0.18905076 -0.294745 -0.48577487 0.33251375 -0.52500445 -0.1088483 0.18964773 0.7461144 0.016833782 0.1233612 0.09485512 0.4037423 0.49016592 0.8382834 0.20342487 0.34542236 0.15921704 -0.09400243 0.2835551 -0.8677037 0.52190083 -0.42116046 0.873445 0.6830354 -0.7737135 -0.42131904 0.26457694 0.78567266 0.3652309 0.9254234 0.48329118 0.2824173 -0.0074720574 -1.0103643 -0.3484279 0.37269416 0.09424095 -0.8069586 -0.08248095 -0.463079 -0.0105219595 -0.5868486 0.094062224 0.51322556 0.5759179 0.65182626 0.107502036 -0.6432395 -0.7753508 -0.8804599 -0.90098006 -0.30515307 -0.602245 -0.3561101 -0.40406436 -0.71852535 -0.82122326 -0.026782516 -0.6129299 -0.4446109 -0.01772772 0.16621941 -0.005694932 0.978681 -0.4229359 0.37887737 -0.23176415 -0.55776983 0.25963247 0.86843145 0.28769052 0.8885909 -0.7427751 -0.72562057 0.8958803 0.8696726 0.14961764 0.9148563 0.56162995 -0.6923585 0.42144328 0.91348433 -0.48272002 -0.6744402 -0.47316915 -0.3401071 0.05036611 -0.566761 0.39273408 0.2070238 -0.6084412 0.27977672 -0.19094446 -0.05706512 0.11176999 -0.80189466 0.19955659 0.9236938 -0.67418134 -0.1512278 0.4740109 -0.094194055 0.31383032 -0.026334096 0.766233 -0.15822643 0.93327415 -0.69714314 -0.35691583 -0.72513425 -0.88109845 -0.19138987 -1.0124388 0.61999947 -0.47753718 0.68076074 -0.6786228 -0.64672536 0.6535678 -0.8351196 -0.78984916 0.9703603 -0.64837563 0.7641561 0.4253739 0.6085763 0.7043255 -0.8099277 -0.15476221 -0.6209988 0.9284554 -0.6870431 0.92519444 0.19817369 0.958789 0.3532845 -0.6667617 -0.2384367 1.0413986 0.77916235 -1.0089074 -0.59925675 0.2380411 -0.7475235 -0.12082351 -0.12825347 0.37364507 -0.120166324 -0.6611932 0.90790606 -0.043408614 0.903121 -0.42961156 0.87394917 -0.580234 0.20052254 -0.51935047 -0.7079946 -0.2450936 -0.4735856 -0.803017 0.2734141 0.71754676 0.7335448 0.037491273 -0.631563 -0.08210376 -0.22179607 -0.16648693 0.45192796 0.8559681 0.28394526 0.22991052 -0.20514113 0.4850717 -0.22381906 0.9061873 -0.48138428 -0.32303345 0.16120076 -0.36495396 0.14926514 0.005762028 0.6791152 -0.32402396 0.8266832 0.5575478 -0.66838944 0.9020824 0.036391173 0.5647715 -0.29980108 -0.93608874 -0.8821091 -0.9675877 -0.24263082 0.34932995 0.48581097 0.7361923 -0.7343564 0.9160664 0.14855401 -0.4587845 0.60260236 0.56929755 -0.5712413 0.6706694 -0.12587284 -0.2677618 -0.6601142 0.99965 0.619476 -0.4282193 -0.85344535 0.20170218 -0.31930476 0.9225385 -0.40446368 0.08632906 0.013048622 -0.1689271 -0.38249195 0.32313225 -0.53670627 -0.10580695 -0.29877847 0.43132696 -0.8277902 -0.7495568 -0.31422055 0.38000703 -0.91582125 -0.6756133 -0.108922854 -0.6243544 0.15413031 0.5732091 -0.14503796 0.15863661 0.46776685 -0.6122072 0.59161353 -0.68445003 -0.9825841 -0.8623681 -0.75648135 0.033229828 -0.9783327 -0.24144664 0.36389208 0.4893278 -0.6408302 -0.1698747 0.2186762 -0.9472697 -0.22910652 0.6773326 -0.121682175 -0.0975105 0.2623005 -0.3556371 -0.9782805 -0.7049864 0.8636892 -0.3656237 0.5909419 0.38274828 -0.37791348 0.23267604 0.7871884 0.2774326 -0.9949939 -0.4704881 -0.27653125 -0.8271636 -0.11012721 -0.22127889 -0.46969366 -0.92999274 -0.7887825 -0.7235734 0.55549014 -0.18453269 -0.7020085 0.31774554 -0.2741692 0.91439736 0.009227162 -0.1994994 -0.6607758 -0.11525679 -0.14440386 -0.5892571 0.9420299 -0.7329408 0.1096493 -0.33199623 0.14903095 0.51722306 0.7208748 -0.22506543 -0.5375836 -0.23937258 0.4556432 0.45775145 0.5587789 0.54294986 0.8996785 -0.27180538 0.21418393 -0.6753181 0.20813535 -0.28250563 0.7714356 -0.6518472 0.47200167 -0.46655452 0.8677596 -0.94664353 -0.849675 -0.68614465 0.5826664 0.26757485 0.15956044 0.32636523 0.11885138 0.58608997 0.8337279 0.81014276 -0.059699386 -0.3229819 -0.58144504 -0.80947036 -0.3352851 -0.61100155 0.321541 0.47273833 -0.09515355 -0.7826528 0.07103779 0.36611253 0.8866029 0.64859396 0.61385095 -0.6618001 0.842257 -0.8667529 -0.10987539 0.044408195 0.10647506 -0.8041881 -0.85446155 0.9778852 -0.78729534 0.9896853 0.15569988 0.36656818 -0.61588895 0.45747226 0.9990851 -0.94990975 -0.89091414 0.1829092 -0.07018258 0.07685392 0.858812 0.7341866 -0.93938255 0.2302732 -0.62404984 -0.5329042 -0.121104114 0.7327457 -0.056155004 -0.895265 -0.35578763 -0.6450554 0.9543109 0.543574 0.45770553 -0.0844816 -0.67862225 0.90987486 0.18564919 -0.18401104 -0.23925363 -0.794931 -0.08131798 -0.9191771 0.14274006 0.64765584 -0.6045407 0.73840517 0.5498533 0.5338353 0.9267866 0.25137985 0.46484265 -0.16160077 0.24168411 0.6730766 0.64125645 0.8171779 -0.2772995 0.05891012 0.9393718 -0.091697164 -0.36548674 -0.27152336 -0.015561104 0.71300584 0.5687821 0.15479933 -0.866894 0.8491174 0.39372694 -0.22579809 0.8175172 -0.509767 -0.055967517 0.4567434 -0.73950857 -0.92015547 0.0027397445 0.087415494 0.2303908 -0.3824032 -0.016177772 0.66296214 0.7330623 -0.77141464 0.06878487 -0.5209912 -0.5959453 0.9311391 -0.8551265 -0.5680994 -0.16957858 -0.39963278 -0.19386435 -0.8578345 0.94018656 0.07913178 -0.16729236 0.23405376 -0.8955788 0.7691538 0.98643315 0.46243843 -0.695666 0.31735897 0.28040773 -0.8897488 0.84290326 -0.23614295 -0.3698084 0.1989069 0.29967648 -0.7484996 0.92115796 0.7761675 0.44198388 0.86628896 0.5570396 -0.6265296 0.1764054 -0.9623462 0.13043466 -0.08487797 -0.35731247 0.7193422 0.38147086 -0.755504 -0.41783527 -0.25363275 0.1987785 -0.6621163 -0.378963 0.9097011 0.17415205 -0.020224832 0.83083844 -0.11216245 0.48517597 -0.6648084 -0.082259424 -0.8200375 0.4639978 0.6973696 0.13697086 -0.41963047 -0.7990876 -0.9353873 -0.92734647 -0.73136437 0.16475306 0.95510113 -0.11094764 -0.81150174 -0.5185162 0.18184938 -0.43638495 -0.6525526 -0.08444182 -0.17878845 0.04493479 0.100769915 -0.33547083 -0.11698422 0.62901425 -0.24729761 0.6678792 -0.8707798 0.5460503 0.15573837 0.54231983 0.078395784 -0.65089875 -0.8502744 0.7395916 0.7804284 0.48209658 -0.4800168 0.120561495 -0.6037697 0.45135403 -0.2677091 0.45526525 -0.7324962 0.67077005 0.23878434 0.4836414 -0.34175858 -0.5232615 -0.08422934 -0.67187226 -0.30099505 -0.27654794 -0.97387266 -0.6067445 -0.7343421 -0.007590346 0.13943739 -0.5304541 -0.4134639 -0.030300695 -0.3389722 -0.5277799 0.7144722 0.37709096 -0.49084347 -0.18150257 -0.055010855 -0.38443094 0.75567824 -0.8582555 0.15494554 0.17430323 0.58656317 -0.34500894 -0.87064564 -0.90915096 -0.4916363 0.82443136 0.16544129 -0.6050614 0.37892872 0.52015394 0.56294346 -0.7274984 -0.614652 -0.8227506 -0.8608787 0.6959094 0.9291982 -0.41082087 -0.521941 -0.9715996 -0.6579236 0.7299232 0.2793144 0.5089817 0.085137255 -0.61857635 -0.38338876 0.90576476 -0.43307906 0.6755466 0.08031678 0.6938648 0.64784056 0.22589852 -0.19685677 0.8319472 0.9911718 -0.61082083 0.5918836 -0.21002522 0.4234074 0.12955062 -0.864793 -0.2786279 0.36095273 0.65231323 -0.7671153 -0.20220897 -0.5915083 0.0011577108 0.7405792 -0.58529186 0.9466983 -0.8377816 0.08402708 -0.48217458 -0.080626845 -0.5639364 -0.49651176 0.16667837 -0.8806211 -0.36201355 0.42342854 0.5145792 0.77584594 -0.14773388 0.66310227 -0.42437118 -0.1728002 -0.08713352 -0.28087297 -0.9243223 0.6527709 0.065386675 -0.5676255 0.6626667 -0.16794944 0.39017418 0.8351903 0.17654252 -0.6355899 -0.53351545 -0.013619653 -0.52832144 0.010786233 0.88918006 -0.59696096 -0.081902005 -0.27360937 -0.24531542 0.66576177 0.7012614 1.0327725 -0.7766835 -0.1271237 0.5305654 0.3658007 0.15774345 0.43936667 -0.68731 0.88938725 -0.98358756 -0.9352892 0.022693917 0.34094974 0.57538044 -0.13764192 -0.35049802 0.62088245 -0.9466263 0.5509344 -0.0827762 -0.85930026 0.7884099 -0.5245354 0.38735285 -0.12199039 0.19446397 0.6505348 -0.08392229 0.30184576 0.80013734 0.32861322 -0.3130105 -0.59590626 0.9113311 -0.22168553 0.9625717 0.17511034 0.792442 0.9784905 -0.61499864 -0.5192692 0.98765063 0.8604876 -0.932276 0.4182817 0.5751461 0.51516753 0.69821185 -0.15189686 0.68427265 0.13486212 0.57484764 0.4668425 0.53607404 -0.8306443 -0.47157466 -0.014609096 0.22004606 -0.116805166 -0.7487205 -0.7352467 -0.07226184 0.22239566 0.34636348 -0.8393851 -0.62651694 -0.15252246 -0.8812602 0.08570386 -0.82891345 0.8684677 0.32256395 0.57336366 -0.35659662 0.48493704 -0.9594014 0.9555153 0.32546383 0.717891 -0.026776858 0.10828765 -0.60777265 0.05301408 -0.8822848 0.652606 -0.49273792 0.8687979 -0.13931264 -0.4904906 0.48426366 0.16228175 0.9413971 0.25400078 0.49511263 -0.47162965 0.05838184 -0.7293816 -0.5685666 0.9518326 -0.36872813 -0.96241117 -0.33224943 -0.42315495 0.5159743 -0.120995216 0.26653272 0.40923753 0.32010695 -0.47722518 -0.67343885 -0.48064697 0.4704349 -0.10273298 0.6244065 -0.6854281 0.72729564 -0.84130514 0.79770434 -0.2589309 -0.13765228 -0.7976636 -0.6377649 0.8412073 0.25893438 0.6114873 -0.9028182 -0.7583333 -0.44860741 0.9991646 -0.1870117 -0.1754664 0.1617782 0.06517193 0.84012437 -0.66501087 0.05821916 -0.3582136 0.83480763 -0.34709343 -0.56915575 0.80710846 0.91252184 -0.09370456 -0.033860102 -0.35924146 -0.15424259 -0.4681919 -0.78159785 0.52630424 0.1539073 -0.19869295 -0.58196473 0.036953926 0.258175 -0.3472077 -0.6666854 0.86791015 -0.7945742 0.20992206 0.14572313 -0.28071347 -0.95658505 0.49447736 0.88828206 -0.6370056 -0.4499496 -0.21927851 -0.9502785 0.11198202 -0.49811652 -0.26167116 0.5389526 0.5997114 -0.56948906 -0.06666796 0.07900214 0.98822814 -0.43519348 0.51007676 0.30430895 0.84838265 0.25293335 0.802833 0.9173584 0.8326818 0.5661096 0.25534582 -0.8953574 -0.46830165 0.92349523 0.07514037 0.36330798 0.5489357 -0.20676394 0.4384952 -0.34592572 0.5526126 -0.90133774 -0.06061408 -0.66630805 -0.43198848 0.9555759 -0.3243969 -0.15583816 0.8165985 0.55880594 0.21410659 0.44720265 -0.034135174 0.11061316 0.3794473 0.6121757 0.9912463 -0.77908146 0.909494 -0.32345447 0.47848332 0.18950489 -0.84097695 -0.61528635 -0.8746575 -0.44247806 0.94019145 0.34799254 0.45579126 -0.0037949623 -0.9502906 -0.77374566 -0.948646 0.7753433 -0.795375 0.4441021 0.6008349 -0.3676548 -0.89913696 -0.87452024 -0.5034318 0.4035859 -0.5087981 -0.020263895 -0.8339342 0.28776196 -0.61020243 -0.5077357 -0.5194922 -0.98191 0.8732325 -0.11455396 0.7241741 0.98533213 -0.273534 -0.6047769 -0.54398394 -0.38380525 -0.24936359 -0.028671412 -0.36265868 0.18510218 0.876058 -0.30450323 -0.623017 -0.862349 -0.105309375 0.9785633 0.51338685 -0.68402725 -0.5683754 0.21843843 -0.6332459 -0.87106645 -0.95454323 -0.6837969 -0.193442 0.09363043 -0.018813107 0.46670273 -0.6303859 0.2567358 0.318861 -0.13542852 0.012577773 -0.78328764 -0.3382729 0.7806464 0.8363289 0.29928672 0.42020708 0.2806601 -0.6432669 -0.93841857 -0.84369916 -0.5242389 0.78690517 0.66055244 0.325647 0.70265585 -0.16985452 -0.5189009 0.15765212 0.38682413 -0.35868797 -0.1514473 -0.7007007 0.39182833 0.89798427 -0.4299865 0.92954415 -0.44458866 -0.11855245 0.4874598 -0.88979024 0.4611796 -0.42234468 -0.18963288 -0.17446567 -0.48789564 -0.3608947 0.26199606 -0.5163417 0.7321353 0.10834657 -0.035285152 -0.17043509 -0.8725689 -0.14703198 0.03734663 -0.25115964 -0.5505137 -0.6512675 0.7177724 -0.4143159 -0.8877265 0.31785208 -0.1344472 0.6842092 -0.8149708 0.23220587 -0.9472495 -0.7793648 -0.7180682 -0.58464277 -0.77574307 0.8005134 -0.46767074 0.9031597 -0.56300837 -0.09016121 -0.30511212 0.30626357 -0.7126419 0.3547953 0.3646856 0.64092475 -0.60791475 0.65353364 -0.34344038 -0.7924447 -0.063287504 -0.19851564 0.8546475 -0.9771217 0.23102042 -0.9018514 -0.6874278 -0.65107477 -0.8707691 -0.5621389 -0.5368165 0.6218088 0.0050239787 0.19446024 -0.46418867 0.9303341 0.5765488 -0.52789754 0.92060864 -0.62899894 0.5542502 0.0379012 0.6075447 -0.15535206 0.08364768 -0.9979671 0.055346057 0.025839172 0.3182603 0.21482278 0.28268433 -0.607614 0.789673 -0.2964802 -0.7394912 -0.43234485 0.6321552 0.9211995 0.0010364538 -0.9279073 -0.6080166 -0.86713177 -0.20590082 -0.2585257 -0.7401284 -0.082449496 0.055253703 -0.31295642 0.16434729 0.5302916 -0.5893432 0.71944034 -0.8584029 -0.8359194 -0.6334856 0.12418373 0.4862233 -0.7004624 0.82435584 -0.71924394 -0.3514539 -0.32441202 -0.011671066 0.7367533 -0.52760243 0.21264786 -0.9161793 -0.25410846 0.98236436 0.39170626 -0.15527034 -0.9903866 -0.04898168 -0.8808949 -0.32952297 -0.7657437 -0.39156586 -0.91438794 -0.2452144 0.53159195 -0.039416123 0.9060915 0.8902739 0.48073345 -0.7765222 0.9323406 0.9423479 -0.52071965 -0.22441837 -0.718506 -0.4925535 0.81931895 0.12929384 -0.76181644 0.73040164 0.43691665 0.004002679 0.9179602 -0.3865617 0.20250206 0.713409 -0.74525136 -0.38099375 -0.2983586 0.5289023 -0.6724685 0.7495328 -0.3229543 0.13946341 -0.5324101 -0.19687614 -0.070349425 -0.6278763 -0.9587353 -0.16549689 0.017056959 -1.0485545 0.91517806 0.28326553 -0.44216257 -0.18978903 0.1212559 0.23839727 0.36810222 -0.9715875 0.9261239 0.7611276 -0.26265895 -0.341951 0.5331799 0.020918563 -0.43855575 0.40457928 -0.8856979 -0.18431886 -0.48334402 0.93283784 -0.8475461 -0.8331531 0.58258903 0.45674518 0.01326406 -0.50506055 -0.33511233 0.18729976 0.37818807 0.3151467 -0.87584454 -0.38935214 0.9267283 0.9158291 -0.5957972 -0.41088447 -0.17444085 -0.38246107 0.1594538 -0.96639115 0.13489082 -0.9095205 0.04783934 0.8047183 0.7654922 -0.2041551 0.63767266 0.943948 0.90114754 -0.817132 0.029588832 -0.7528435 -0.82654583 -0.9414437 0.27106562 0.9589633 -0.76386184 -0.23791079 0.5199703 -0.043649003 0.95719314 0.320316 -0.32394305 -0.3647487 0.82421166 0.020353965 -0.5075508 -0.69711083 0.6725575 -0.77774197 0.5797219 -0.615226 -0.51931244 0.5482219 -0.6046295 0.12285558 0.7012589 -0.08733453 0.75917816 -0.5656363 -0.52379143 0.15908012 0.6328918 -0.7124263 -0.9288463 -0.810965 0.85022616 -0.74626327 -0.32836467 -0.43794096 0.7307145 0.840204 0.09529594 -0.78694314 -0.4643098 0.42802066 -0.36434126 0.39724514 0.093711905 -0.3394625 0.17708623 -0.0974936 0.1473994 -0.094955735 -0.87770426 -0.33032566 -0.18876381 -0.53680027 -0.9440714 0.7927546 0.63110375 0.180509 0.6878493 -0.2745948 -0.35438186 0.40343612 -0.19278947 0.76082593 -0.98385364 -0.030221356 0.06354413 -0.05371617 -0.1944057 -0.80191725 -0.85106075 -0.72322047 -0.17398897 -0.9965531 -0.45299602 0.33704078 0.09753287 0.124388464 0.6613189 0.01727258 0.34870774 -0.9156653 0.19190077 -0.94259155 0.8897202 0.16800295 0.9372312 -0.8981496 -0.9687959 -0.24903633 -0.057038058 0.6863 0.29725206 0.49700934 0.73391855 0.22292566 0.105270185 -0.8472884 -0.17913607 0.9850459 0.72141457 0.7819108 -0.3336917 -0.24636954 0.39087188 -0.40682846 -0.18535493 0.7219903 0.3201877 -0.72999406 0.24273503 0.75242996 -0.4816546 0.9603507 0.117838964 -0.7885201 0.44938293 -0.5795783 0.35440657 -0.28311566 0.2275807 -0.6679542 0.28757635 0.39144623 -0.029592926 -0.2570827 0.43553394 -0.655169 -0.25173447 0.07004468 -0.29724184 0.31261265 0.47783092 0.21413255 -0.5063487 0.8634449 0.065796256 0.94324714 -0.5222659 -0.24680297 0.6153414 -0.44948676 -0.5022185 -0.51164997 0.27578613 0.13487361 0.68383163 0.14164883 -0.77619 -0.51006615 -0.5142033 0.1560209 -0.9224041 -0.6661654 0.9864379 0.35647774 -0.18710451 0.8923207 0.48300445 0.40341938 0.7887865 -0.63803273 0.033524003 0.51738155 0.19364128 0.3924553 0.2905051 -0.97266614 -0.07202405 0.3999691 -0.47080433 -0.9706831 0.28803062 0.17716864 -0.97132826 0.5346412 0.7871894 -0.75353414 0.8060445 0.64103186 0.7534761 0.99256897 -0.71487695 0.43898994 0.6746811 0.8734346 -0.86718935 0.7800349 -0.616391 0.71596026 -0.4496505 0.48510173 0.061475765 0.9433069 -0.54069525 0.28233707 -0.046574842 0.13339262 0.82729167 -0.5856875 -0.85517395 -0.44566497 0.4671491 -0.26734465 -0.24401909 0.81471103 -0.24502096 -0.32478106 0.49518296 -0.7864024 -0.37338912 -0.3303086 -0.6204849 -0.4351635 -0.91312826 -0.8399469 0.25786874 0.114397295 -0.5881857 0.21442549 0.27521628 0.22597623 -0.39056605 0.8621808 0.20644677 -0.2165216 -0.6319709 0.31916773 -0.6815993 -0.31772703 -0.21240693 0.0133220805 -0.6099331 0.81124365 0.9204872 -0.707699 -0.5547427 0.70636415 -0.079594895 0.39934766 -0.87604296 -0.30467984 0.37689912 0.8795117 -0.82662016 0.268603 -0.21201132 0.9859582 -0.7638688 0.99048895 -0.119240314 0.16795807 0.30494794 -0.5691248 0.9643022 -0.42246288 -0.64664835 -0.25113845 0.58494 0.9421332 -0.17997356 0.6562186 0.67806923 1.0151961 0.30096087 0.9670924 -0.23710792 0.5220565 0.63595825 -0.7125214 -0.15672739 -0.52540237 0.14013335 -0.21382003 0.5388034 -0.26123652 -0.79895353 -0.634566 -0.4541278 0.8851444 -0.676986 0.67416763 0.885072 0.60154605 0.93812454 -0.64773047 -0.52041 -0.86518127 -0.0858708 -0.42069486 0.14322132 0.5189411 0.22655177 -0.5446465 -0.18033156 -0.6660368 -0.79857624 0.59223735 -0.44702744 -0.3507271 0.642044 0.074750036 0.19433618 0.30488032 0.54335374 -0.3902335 0.47906157 -0.5197031 -0.27717718 -0.25759166 -0.6590899 -0.8475948 -0.78678846 0.12615767 0.4279348 0.843394 -0.79027265 0.38965327 0.07289704 -0.62916464 -0.80397886 0.26281452 -0.21704236 -0.39841986 -0.8248807 -0.5869704 0.42286015 -0.78548837 0.18565258 0.2363005 0.8339337 0.24739076 0.4452318 -0.53629607 0.8798839 0.22940765 -0.48572534 -0.035277598 -0.8073829 -0.47413716 0.56440914 -0.20575358 -0.9479176 -0.7312002 -0.9094658 0.7199917 -0.9459809 0.93227 0.52074945 -0.097834386 -0.8630611 -0.6736026 -0.73356885 0.9938521 0.7204798 -0.08627249 0.17985752 0.5526167 0.0524415 -0.66628385 -0.60849565 -0.4036526 0.3585864 0.40001792 0.8157417 -0.34889925 -0.65775394 0.9030647 0.10805183 0.7683304 -0.062153164 -0.62120175 0.59076387 0.3351631 -0.7212675 0.93095326 -0.1418572 0.15841937 0.2425725 0.40188515 0.69334644 0.49057734 0.69336826 0.38280365 0.41900924 0.54081 0.6458156 0.95833087 0.9989871 -0.3721081 0.046353955 -0.118267745 -0.9162781 0.37644592 0.114163324 -0.5094393 0.2355457 -0.03826023 0.5359457 0.72647727 0.5028518 -0.36479497 0.6082799 0.29863098 -0.79072446 0.40689245 -0.07929736 -0.45633918 0.049959835 0.6417975 -0.7005954 -0.035897907 0.3954969 0.8638821 -0.53999126 0.5112753 -0.094949394 0.95931596 0.25017428 -0.5296236 0.5435166 0.090214595 0.34353787 0.84817827 0.71653676 -0.0639039 -0.19417645 0.3434727 0.12473739 0.29155117 -0.19303513 0.6432951 -0.9254342 0.912574 0.8221964 0.63739705 -0.92581624 -0.8988013 0.096899144 -0.8573909 -0.7100077 -0.08601544 -0.7207034 0.08849966 0.5992512 -0.15507503 0.2797207 -0.36240664 0.5239962 -0.9433075 0.29510733 0.61971605 0.5364259 0.29467034 0.093756765 -0.36880586 0.5945883 0.49721685 0.7205807 -0.5272316 -0.68449056 -0.6345795 0.49693805 -0.25225955 -0.06121329 -0.5141481 -0.67138153 -0.7143556 0.8928198 0.7965195 -0.9364294 -0.47001714 0.014334975 -0.8357897 -0.93821615 0.7355487 -0.9839364 -0.84530985 -0.37232143 0.08092218 0.25033185 -0.2656059 0.3450476 0.0077516353 0.83605236 -0.42749923 -0.22741395 0.17198528 0.10162406 -0.72425187 0.6654057 -0.19225438 -0.23986524 0.4247233 0.26227245 0.578151 -0.23136823 0.8018516 0.18309811 0.2598152 -0.8322229 0.12527764 0.7081131 0.8347771 -0.69196045 -0.68667537 -0.55598134 0.021376893 -0.90002495 0.7297436 -0.041784234 0.20108265 -0.26975033 -0.6071075 -0.22476198 -0.6962111 0.742151 0.736594 -0.5961584 -0.60067886 0.97017187 -0.3781415 0.39367417 -0.10668316 0.18927729 0.403417 -0.8627435 -0.24754412 -0.9320122 -0.8738342 -0.7785184 -0.11065285 0.27361432 0.31066492 0.5597986 0.8046393 0.852229 0.044811685 0.36912623 -0.22301438 0.28373495 -0.6984792 0.2457464 -0.84890336 0.8868127 -0.5293181 0.85488576 0.75841194 -0.92502385 0.05523167 -0.13683775 0.81326884 0.81717527 -0.035208777 -0.6421037 -0.018539108 0.10423248 0.37983587 -0.87566924 0.38865572 -0.22537044 0.69922686 1.0067601 0.82731336 -0.53082937 -0.8449842 0.66468024 0.89292663 -0.5868192 -0.08315765 0.60845196 0.5253349 0.7127425 -0.67641944 0.789549 0.8122243 -0.6543699 -0.618545 -0.44133845 -0.6031783 -0.38016382 -0.0352937 0.2658223 0.15544812 0.040078714 -0.41917562 0.32180047 0.026172275 0.22342372 0.93661755 0.38969585 0.46636158 -0.27917284 0.9448839 0.88490766 0.53728783 0.081072524 0.4844347 0.9737879 -0.8188338 -0.8372078 0.54932034 0.95774114 0.8871693 0.8540523 -0.8841848 0.94861364 0.72723424 0.111945786 0.034917016 0.64851934 0.06872915 0.9477526 -0.611179 0.74402004 -0.42743412 0.9027856 -0.6762716 -0.102098525 0.91006273 -0.58442384 -0.35439527 0.8763051 0.26962784 0.13909528 0.47633243 0.9326214 -0.7515433 -0.20974606 -0.37691274 0.47735664 0.4708546 0.72130823 0.10279393 0.94270545 0.427881 0.36391366 -0.29097533 0.6077309 0.29940185 0.84948874 0.7667694 0.983626 0.11846304 0.59497654 0.3415476 -0.821773 -0.23969202 -0.5686923 0.047081053 -0.115207106 -0.7034705 -0.5645454 0.9571884 -0.4074748 -0.12049375 0.72341925 -0.7625601 0.6415251 -0.30712494 0.94740134 -0.23617181 -0.9025812 0.8385159 -0.11873464 1.0093389 0.023503646 -0.5967791 -0.67504585 0.27400258 0.5573844 0.10444403 0.424217 0.6144728 0.36037445 0.9002124 0.7842993 0.45683762 -0.662599 -0.6881 0.2889077 -0.18504536 0.06315214 -0.1665618 0.9628291 0.20586005 0.8039577 0.033772357 0.5163576 -0.8994784 0.32031563 0.50412107 0.090059206 0.3531298 0.9190816 -0.37898177 0.87924856 0.5809795 -0.1702685 -0.5986328 0.51693803 0.6895771 -0.7649391 0.31765744 -0.69263667 -0.6557499 0.8940365 -0.9566331 0.89664155 -0.24276002 0.80154485 -0.6102222 0.24953175 0.6716024 0.37217948 -0.53580153 0.8887968 0.43057358 0.94996554 0.7972011 -0.736446 -0.7656624 0.81312186 -0.2741169 -0.43870842 0.8902614 0.42091286 -0.38642436 -0.069537215 0.47399986 0.5486104 -0.86142236 0.66464484 0.8894743 -0.4549777 0.21524401 -0.9851428 0.35600296 0.0637902 0.5116979 -0.39301825 -0.7112 0.3890695 -0.07741299 0.23894922 0.33540112 0.16016908 0.21594708 0.83640337 0.6247473 0.27552804 -0.08269067 0.044082895 -0.3101419 -0.011985492 -0.53816473 0.06433527 0.45706943 0.281633 0.69263077 0.87806547 0.537762 -0.6695954 -0.81349444 0.25346646 0.7422439 0.5176811 0.8840778 -0.58353215 -0.34929848 0.03317272 0.30221263 -0.9971005 0.18908885 -0.3083613 -0.88783723 0.41700265 0.90172267 0.92350775 0.4623981 -0.3685924 -0.52510554 0.2066528 0.522535 0.35610038 -0.77985007 -0.47694108 -0.8748136 -0.448104 0.6172877 -0.29688466 0.17016216 0.95278955 -0.5918237 -0.17074122 -0.40613925 0.57805896 -0.8069619 -0.83702785 -0.9632557 -0.8465724 0.93188894 -0.9542833 -0.97897214 -0.5238267 0.22345228 -0.30962625 0.07978701 -0.47434556 -0.64987624 0.37186587 -0.9222114 0.10700279 0.37485185 0.25325787 0.60516346 -0.4673696 -0.0010967683 0.16581045 -0.48805088 -0.9491393 -0.032569725 0.5979121 -0.056741145 -0.9254731 0.18226472 0.19793196 0.9260314 -0.7111451 -0.24664211 0.58773327 0.009104674 -0.12333326 0.1053585 0.5489335 -0.8607884 -0.020170778 -0.93993133 -0.54385936 -0.40103585 -0.4023184 0.87484425 -0.647208 -0.50567126 0.36281276 -0.6517214 -0.48277643 0.4453557 -0.985545 0.39150307 0.10149732 -0.64986587 0.65836537 0.14384769 0.28986645 0.47906533 -0.014726057 0.16773018 0.59652615 -0.26660755 0.8134358 -0.7921663 -0.957101 -0.24394861 -0.26362395 0.36246333 0.58871156 0.105171904 0.6612885 -0.8479936 0.23933056 -0.67860115 0.8550331 -0.8221325 0.70178825 0.9912922 -0.48940003 -0.9039813 -0.3820833 -0.88354874 -0.33143863 0.5235395 -0.7865495 -0.68251824 0.6407357 -0.14035928 -0.039122526 -0.03088011 -0.89554715 -0.075734496 0.21047916 -0.5393359 0.03668835 -0.9788376 0.70223325 0.112992786 0.47335353 0.672609 -0.5683929 -0.92273283 -0.14559859 0.902396 -0.48632818 -1.0165901 -0.58296525 0.4536225 0.89206505 -0.3902813 -0.7775235 -0.55204684 -0.7066508 -0.95993185 0.6617878 -0.01544612 0.07967958 -0.15881711 0.5615794 -0.16236112 -0.14395338 -0.05317676 -0.93482715 0.5571404 0.76764166 0.25514877 0.3504159 -0.67019874 -0.6453484 -0.82972217 -0.22472245 0.6215072 0.71749556 0.5015495 0.61324185 -0.24335164 0.42904288 0.81704557 -0.011988774 0.16221964 -0.8568746 0.41854677 0.5823754 -0.06894928 -0.095569015 -0.09159701 0.16038136 -0.011709262 -0.31246933 0.55903137 -0.38874882 -0.24207948 -0.17277816 0.33537823 0.7986608 -0.1121007 -0.91435224 -0.32872465 0.736685 0.072511904 0.45804277 0.76288843 -0.50778896 1.0006883 -0.84636873 -0.5604017 -0.0037902822 -0.4662968 -0.95359975 -0.7158216 -0.85676444 -0.6383948 -0.09038681 -0.11176252 0.18487239 -0.84776384 -0.33582217 0.4167694 0.49704042 0.3032891 -0.53539544 -0.10949109 -0.96193963 0.6195214 0.8762989 0.70818144 0.88126284 -0.51867163 -0.22729117 0.5287599 -0.17195098 0.89966345 -0.728456 -0.96577036 0.88853824 0.2748939 -0.12775695 -0.30978513 0.014463912 -0.37667578 -0.9222901 0.33604243 -0.8174508 -0.035964504 0.44446868 0.74140996 -0.5316868 -0.38911673 0.5817937 -0.317881 0.6138202 0.40110245 0.079706684 -0.25082847 -0.48450568 0.83259493 0.27401945 0.97430074 -1.0037284 0.05669573 -0.054540653 -0.2975796 0.53583366 -0.38429987 -0.17255946 0.20833844 -0.23537041 -0.8879876 0.063432 -0.4492372 0.5629333 0.6166691 0.733333 -0.017274328 -0.9749059 1.0014586 -0.14966087 -0.72173196 -0.0019254704 -6.619752E-5 -0.84910655 0.0035454906 0.960276 0.8386466 0.5414341 0.8547029 0.8438537 -0.3196598 -0.80433464 0.7951805 -0.4939469 -0.356282 -0.9176229 -0.19365647 -0.088862374 -0.11663698 0.09697741 -0.53240937 0.68692124 -0.9529625 0.6833351 0.45554912 -0.8755427 -0.59500575 0.65064925 0.0018055907 -0.6300384 0.69515 -0.54266727 -0.40706578 -0.9162554 0.7826711 0.5645715 -0.5922797 0.7215808 -0.46071097 -0.22987832 0.8686413 0.58763045 0.43234426 0.22105436 -0.20320025 -0.43384433 0.8197041 -0.669073 0.29598793 -0.49609473 -0.7239371 -0.5797448 -0.98742646 -0.96129245 0.54426783 -0.109383024 -0.70583755 -0.16069987 -0.9826277 -0.09310186 -0.26611167 -0.78277296 -0.6512397 0.060111772 -0.3065102 -0.14925635 0.6776621 -0.46379462 0.13555394 -0.095853105 0.12637433 -0.7213767 -0.9938773 0.8839872 0.9141665 -0.6523975 0.6170963 -0.9292606 0.021540117 -0.6712029 0.99902093 0.5968162 0.5469834 0.8660176 -0.87956154 0.32215798 -0.3568845 0.7533005 -0.41364285 0.9508225 0.06497111 -0.57857615 0.3708113 0.5789446 -0.7961404 -0.91956383 0.8535574 -0.20163435 -0.73132885 0.5373508 0.20981431 0.46643952 -0.9457312 -0.25485757 0.11610778 0.35421613 0.10662671 -0.25030586 -0.87725616 -0.67967594 0.1495086 -0.46552393 -0.9128389 0.6979131 -0.4013058 -0.67724425 0.46888205 -0.9378238 0.013088942 -0.81630766 0.27720404 0.6099998 0.46900558 -0.68795973 -0.77527297 -2.2482872E-4 -0.012857054 0.529438 0.5894372 -0.8393985 0.018965736 -0.2885777 -0.9471171 -0.9948382 0.87458 0.32234582 0.54356277 0.04433845 -0.35845956 0.29620296 -0.91072106 -0.6292687 -0.5765645 0.056752127 0.94690144 0.40274805 0.037235126 0.5035989 -0.42691767 0.9751733 -0.6454335 -0.59660053 -0.62275517 0.22172174 -0.88470715 -0.33976597 -0.79838574 -0.9428489 -0.75386065 0.4287027 0.9888257 0.5700861 -0.5980814 -0.30949473 0.4714494 -0.7327216 -0.04106384 0.6645281 -0.3468528 0.5670611 -0.6885122 -0.5933531 0.31131297 0.9298304 -0.88417655 -0.4853949 0.94658506 -0.70985156 0.8651699 0.31262198 -0.6621642 -1.0029545 -0.44923303 -0.05004526 -0.6470779 0.5414199 -0.25200477 -0.94122976 -0.40204808 -0.5403309 0.24391362 -0.38837603 -0.853129 -0.030596923 0.84629303 -0.8630703 -0.5483882 -0.8703526 -1.0079492 -0.72893256 -0.5371622 -0.65450865 -0.005891945 -0.09310282 0.925621 -0.48286882 0.14133906 0.0505123 -0.64295954 0.79504466 0.9534173 0.28963143 0.68389726 0.34776062 0.697732 -0.6530919 -0.68928504 -0.56408006 0.72953904 0.6639528 0.42270735 0.7133017 0.77806747 -0.40097946 0.07936897 0.7567276 0.11135627 -0.9999613 0.6398444 0.85428977 -0.31759164 0.5997436 -0.5813142 0.79283684 0.3068258 -0.5394645 -0.8409784 -0.26191473 0.030570837 0.36077663 -0.7960918 -0.35084262 0.0462199 -0.10548719 -0.61732364 -0.53478414 -0.80337334 0.049205385 0.821002 -0.3729269 -0.7664278 0.35560083 0.029368341 0.82854 1.0084102 -0.036872517 0.11059759 -0.11842252 0.15036914 0.51665723 0.16607358 -0.20088139 -0.29275793 0.47794065 -0.23049468 0.82659066 0.6312166 -0.48294294 -0.1923949 0.66876733 0.64847255 -0.13853754 0.014304697 0.55458987 -0.9721463 0.98563045 -0.0035719085 0.048179943 -0.019686574 0.46386582 0.61893755 -0.7917194 0.906201 -0.021868404 -0.11296275 -0.7064122 -0.9105737 -0.982236 -0.8477187 0.27451286 -0.75001776 0.738991 -0.7484369 -0.54139024 0.5559709 -0.012853305 -0.23498987 0.31834295 0.78881955 0.124291226 -0.48860198 -0.21763599 0.9940191 -0.6920079 0.981417 -0.6446442 0.5374982 0.5621946 -0.9993668 0.91923136 0.13800798 0.6989788 0.98528785 -0.47340372 0.2662147 0.6659379 -0.561496 -0.5921139 -0.37443984 -0.63202083 0.8860198 -0.2687981 0.07756854 0.6676425 -0.24194159 -0.63823897 -0.57364935 0.45605627 0.3301442 0.7148421 -0.8266975 -0.7459543 0.86426616 0.7072289 0.074686415 0.9289931 0.5578614 -0.91625 0.8008384 0.43646884 0.90489316 -0.86037225 -0.87641674 0.5830459 0.98381233 -0.559155 0.7118914 -0.44188377 -0.5490675 0.8056089 -0.9106104 -0.6149259 0.17742027 0.28305638 0.85371935 0.80214334 0.8179587 0.015594867 -0.08211318 0.34602484 0.2077577 0.76185995 -0.08782581 -0.12606521 -0.30677095 -0.29292864 -0.92722464 0.06925029 -0.50999135 -0.7345045 0.16219227 0.6374447 -0.36066 0.7253891 0.37306005 -0.08766967 -0.6810621 -0.061338544 0.81135064 0.46730155 -0.6525893 0.7887912 0.93124765 -0.5186155 0.1157213 -0.6295248 0.9289991 0.3671002 -0.48544663 -0.5963636 0.8606595 0.8726844 -0.11678727 -0.7426358 0.92506766 -0.22257644 0.80101967 -0.15761924 -0.2359421 -0.6682284 0.7512051 -0.40559584 0.20108627 -0.27171624 -0.94588387 0.6286915 -0.7321237 0.22846855 0.038382255 0.29527968 0.5197279 -0.04253409 -0.25693992 0.63999295 -0.52245075 -0.15614118 0.40501282 0.31931186 0.47705537 -0.5584725 0.92914194 -0.6893206 -0.39940396 0.34557298 -0.8292651 -0.9940606 -0.00402927 0.7524391 -0.8611053 -0.32024443 -0.18661177 -0.2498272 0.3713586 0.64062506 -0.012198552 -0.5149893 0.53400254 0.57834953 0.84938586 -0.8624094 -0.0139477905 0.98267883 -0.36462045 -0.7961164 0.30409935 0.5331924 -0.61214226 -0.4520854 -0.13719042 0.064695 1.0024701 -0.18712947 -0.0012041847 0.11378715 0.055013575 0.8241374 0.90927196 0.87502736 0.2603683 0.7496393 -0.8078583 0.26386234 0.926749 0.11511322 -0.5798572 -0.46402746 -0.884906 -0.34612745 -0.31275347 -0.04320328 -0.58873403 0.2928027 -0.95118666 0.24000032 0.12225599 -0.64202523 -0.8673598 -0.9865538 0.03641124 0.7473839 -0.6043039 0.10915032 -0.7217815 0.5463555 -0.9402976 0.85439473 -1.0142987 -0.45682025 -0.19949386 0.78709763 -0.5789342 -0.37376598 -0.20958322 0.20436813 -0.61257225 0.313907 0.9230479 0.2271348 -0.7212206 -0.45178685 0.2428085 0.546634 0.15442431 -0.34892026 0.042697087 0.6442599 0.8654025 -0.98015964 -0.54010445 -0.48820344 0.9024973 0.34185356 -0.5502407 -0.56912667 0.7718851 -0.7021296 0.7327214 -0.2457236 0.50660676 0.6354414 -0.15556274 -0.9536495 0.3376111 -0.5933353 -0.3501916 0.8730706 -0.6629461 -0.18457712 -0.33669427 0.9617305 -0.91872936 -0.16246556 -0.9470356 0.38589647 0.9759886 -0.18803467 -0.5238617 0.4102281 -0.10555296 0.7916181 -0.5173324 -0.8595855 0.76471835 0.99764264 0.351917 -0.2741091 0.3473133 -0.8454988 0.59378195 -0.9268097 -0.5067601 -0.6621619 0.601904 0.60122305 -0.7377684 0.40760374 -0.29396683 0.14283895 -0.8623547 0.59572756 -0.5757738 0.27234253 -0.7676486 0.613311 0.2782756 -0.55640036 -0.3460635 0.06790825 -0.0055928477 0.11420857 -0.65246314 -0.08412647 0.2789218 0.82922727 -0.28105536 0.99162865 0.5549605 -0.89518666 -0.12536305 0.07981181 -0.2140534 0.8220729 -0.97663754 -0.7229497 -0.06966368 -0.5230409 -0.46444303 -0.12398618 0.3054299 -0.04102684 -0.1913212 -0.41241983 0.62941104 -0.16456544 0.93580085 0.3449826 0.5709019 0.5470119 -0.36935937 0.7472337 -0.32266828 -0.25015038 0.040896177 0.30198982 0.23118126 -0.33350444 0.16473791 0.007243403 0.11415137 0.27551043 -0.03485196 -0.22290432 0.711069 -0.48827896 0.6688296 -0.31207466 0.1890765 0.31395426 -0.68954283 0.37352702 -0.49354234 0.63321596 0.75589645 0.63539463 -0.5527553 0.5919406 0.98103976 0.6367142 -0.4764178 -0.08931615 -0.8342888 -0.23151328 0.96133614 0.16140467 0.31080303 0.5083731 -0.59594154 0.0437361 -0.5380261 -0.27660784 -0.21106069 0.5293838 0.11062658 0.22796175 0.77488476 0.46970448 0.85099256 -0.6626506 0.22655505 -0.065227516 0.1740892 0.91601074 -0.0682776 0.793905 -0.24762632 0.94966316 -0.2135166 -0.78049505 -0.57503694 -0.17497876 -0.768409 0.9285372 0.89574015 0.7316391 0.40419298 0.013569436 0.8182588 -0.8679578 -0.8417164 -0.21938463 -0.59005934 -0.14641537 -0.5014559 -0.96995616 0.9389309 -0.865924 -0.5103491 -0.022913162 -0.29351273 -0.8211112 -0.9708023 0.0953711 -0.2200322 -0.5305478 0.972666 -0.01918956 -0.20317328 0.5919337 0.1858338 -0.31747666 0.40950093 0.98368174 0.9698196 -0.16961703 -0.91855395 -0.4503766 0.19990888 -0.48345622 -0.45483074 -0.015929887 -0.93486524 0.8485564 -0.7444387 -0.42084095 0.87944055 -0.65036327 -0.7157095 0.08389249 -0.5926059 -0.13714495 0.7018432 -0.68082315 -0.52075756 0.38728333 -0.0985081 0.40122473 -0.75154716 -0.6773625 0.827857 0.11691848 -0.13936108 -0.29713076 -0.2573889 -0.00882957 0.94426495 0.3678077 0.78231734 0.74346006 0.4883287 -0.21635336 0.67759883 0.7546948 -0.64415234 0.66750157 -0.3593215 0.057816908 0.3270383 -0.76033896 0.687407 -0.5656587 0.71286625 -0.5848268 0.46790937 0.75864863 -0.74170494 0.008142402 0.20297188 -0.43411756 0.4764386 0.52137136 -0.17708836 0.20844305 -0.30917975 -0.16488484 -0.8928089 0.4402055 -0.7485465 0.37516275 -0.93463683 0.0058986936 -0.69618416 0.30760786 -0.050925642 -0.17773838 0.67149436 0.40969965 -0.44377932 0.35754225 0.5068309 0.35161775 -0.61601704 0.9356804 -0.82196754 -0.3296229 0.87248033 -0.5839267 0.3377096 -0.081482224 -0.59642607 -0.13637185 0.07861303 0.8264922 -0.35834634 0.5092248 0.044644423 -0.23248674 -0.70170003 0.73017466 -0.056061085 -0.56325567 0.35841644 0.8807896 -0.6001474 0.9069873 -0.6021398 0.094541125 0.9752936 -0.3452859 -0.9053367 0.88246715 0.7586303 0.29101396 -0.43096837 -0.1136471 -0.10679109 0.106545016 0.007606724 0.69666874 -0.6866496 -0.08604198 0.06428743 0.68071234 0.55750567 0.59265864 0.95059675 0.8267858 0.16203144 -0.884392 0.10410762 -0.49953955 0.2774829 0.3750644 -0.8155612 -0.93029654 0.76156914 -0.5812315 0.913578 0.97407997 0.507441 0.29124746 -0.9685715 -0.5626893 -0.5959352 -0.8711554 -0.43067324 -0.11168229 0.94423014 0.18273379 -0.89557344 0.9884135 0.19801159 -0.1345058 0.8515933 -0.15991564 -0.15735199 0.6671363 0.22261515 -0.08896126 -0.22113094 -0.90529215 -0.78289914 -0.2454096 0.95690686 -0.009576941 -0.42883664 -0.8563113 -0.044948883 -0.5097631 -0.63303345 -0.30960748 -0.6796767 0.6935037 -0.5972734 -0.62184215 -0.7142562 0.39319718 0.14077078 -0.97572505 0.16128731 -0.13647482 0.56669897 -0.7038234 0.68991125 0.07994458 0.82129085 -0.701863 0.4528062 0.50270236 -0.9717195 -0.2805267 0.33200797 -0.53262204 -0.12657864 -0.8667504 -0.35222045 -0.595622 -0.3690933 -0.6183578 -0.8785311 0.84339523 -0.03956187 0.5989127 0.63672423 0.6746534 -0.35250342 0.52195966 0.92948824 -0.12873131 -0.82972234 -0.29107228 -0.061609816 -0.22230357 -0.29113615 -0.573454 0.22319919 -0.3135172 0.6108217 -0.4176405 -0.35431406 -0.19769025 -0.42071474 0.18339957 -0.9831344 -0.24624301 -0.88869923 0.6623937 -0.39932823 -0.34470487 0.85254025 0.18027443 -0.19782525 -0.9495931 -0.27950278 -0.12005871 -0.39634958 -0.5764871 -0.2604359 -0.53611386 -0.9284376 -0.29108596 0.49378854 -0.55802196 -0.63688964 -0.8340979 -0.72509784 0.96754235 -0.32082477 0.12177709 -0.38166374 -0.3277004 0.5316346 -0.70924443 -0.850058 -0.99450904 -0.27304485 -0.2591922 -0.8518183 0.13937691 -0.6093772 -0.8146004 0.76195204 0.9976686 0.5136123 0.08773106 0.9434615 0.04101039 -0.76686245 0.040902257 0.7024418 -0.6431209 -0.73912156 -0.24036476 -0.47085053 0.2891652 0.27838045 0.26061207 0.5968337 0.55418277 -0.7938604 -0.9880484 0.63504314 -0.38188338 -0.35027415 0.6700267 -0.6474618 -0.3828353 -0.8337776 0.62939274 -0.4862193 -0.49934614 -0.26819485 0.3208695 -0.24221054 0.9609288 -0.87871754 0.44129068 0.6330317 -0.16606922 -0.08016812 0.65279263 0.13496284 0.7248926 0.98069376 0.16916122 0.3386388 -0.9254659 0.87244064 0.053652357 -1.0088316 -0.051774856 -0.81218016 0.5849698 0.16643555 -0.9159556 -0.11000754 -0.15934403 -0.19980143 -0.8859976 -0.07886477 0.97008353 -0.12591898 -0.95589864 -0.5017604 -0.3450311 -0.16052067 -0.2619727 0.85053086 -0.44566622 0.5328655 0.49379206 0.25127167 0.5074877 0.7346487 -0.32782468 -0.7864081 -0.09397511 0.1799936 -0.68130803 0.7284873 0.35438928 -0.60431355 0.34216008 -0.20977329 0.7276163 0.16945548 0.14685273 0.16529734 -0.48804843 0.5120419 -0.5761218 0.29527855 -0.21154806 -0.27198157 -0.17348723 0.85293496 -0.47470993 -0.46800163 0.55201393 -0.8272339 0.36951616 0.30810535 0.7757049 0.99104047 0.48114944 0.59830177 -0.30124867 0.9099144 -0.36985698 -0.66667855 0.70706236 -0.3885147 0.31731448 0.93194264 -0.7083553 -0.63340586 0.851936 -0.60700625 0.063155495 -0.16638777 0.60229135 -0.5995341 0.7996761 -0.17184828 0.17756636 0.9451469 0.45344812 -0.44292542 -0.6852228 0.17223535 0.7552717 0.3849535 0.0010321811 -0.27207986 0.29270267 -0.9211517 0.75419575 0.37309915 0.002291402 -0.6422117 -0.982797 -0.16407835 -0.8441237 0.20992063 -0.19571711 -0.6883653 0.44045153 -0.6923045 -0.055216383 0.20828651 0.532603 0.18145575 -0.55778944 -0.16684586 0.92181396 0.9171476 -0.21395183 -0.7912034 0.4005747 0.27825847 0.003871321 0.9320887 0.8986614 -0.9873012 0.26955223 0.34461716 0.14543775 0.26721027 0.8188644 -0.5812163 -0.024507869 -0.21517666 0.56022877 0.34222865 0.30301368 -0.057286933 -0.30751532 0.5760012 -0.45031416 0.3732972 -0.2515981 -0.5466566 0.7072112 0.48709556 -0.29516175 -0.5130857 -0.52585715 0.11554225 0.58967936 0.20639698 -0.23801672 -0.8349515 0.3277792 0.8522873 -0.1402091 0.8746098 0.7939408 -0.63656706 -0.46297905 -0.52308977 0.24197769 -0.5498254 0.43461356 0.5812281 -0.81334686 -0.61181146 0.67202485 0.8509164 -0.13108045 0.25263137 0.95390004 0.80596626 -0.034998357 0.1937742 0.92968136 -0.5789975 -0.23144521 -0.5465213 -0.77803063 0.25218394 0.8546071 0.4613674 -0.81873846 -0.46652365 0.17744714 -0.16726887 -0.42963278 0.9679793 -0.42627904 -0.20257352 -0.2179752 0.6749654 0.41350886 -0.69545704 0.22178541 -0.10308645 -0.8308052 0.7717525 -0.2635183 0.76160437 -1.0107032 -0.4907904 0.8633105 0.10453474 0.4915092 -0.5477443 -0.014625428 -0.90081173 -0.40721345 0.2241075 0.1224622 -0.57655454 0.5763694 -0.7294136 0.60511965 0.6688973 -0.0865674 0.73603296 0.27184764 -0.89551413 0.36906594 0.38587213 0.13265519 -0.15077928 0.8957621 -1.0260918 0.32425177 0.29192978 0.28721198 -0.25175494 0.7151156 0.46472746 0.6509044 -0.14047316 0.9309977 0.9062713 0.24798119 -0.58433187 0.91654456 -0.23444167 0.057992294 0.52624595 -0.4049476 -0.8295167 -0.6691661 -0.6026708 -0.04621906 -0.29624274 0.64392257 -0.13534313 -0.5642265 0.34789932 -0.4272491 -0.41265732 0.9601779 -0.4077181 0.3498742 0.7060088 0.989733 -0.06529834 -0.7749143 