0.36699855 -0.25835744 -0.17396614 0.049131736 -0.4099673 0.7179534 0.57837045 -0.102729596 0.09418827 0.07519362 0.11818752 0.77755713 0.6745655 0.31232598 -0.46868014 0.47915345 -0.24356146 0.36505544 -0.5821563 0.56040925 -0.6221585 0.23087038 0.9150754 0.6413352 -0.6140893 0.19495027 0.34115988 0.6866363 -0.13918412 0.7746839 -0.8715351 -0.90999717 0.60709494 -0.6150819 -0.49310005 0.93191504 0.95159453 0.8760172 0.973197 -0.25087124 0.47329336 0.46323022 -0.61172247 -0.014173828 0.2294362 0.94281656 -0.78315943 -0.02893703 0.16623132 0.79153764 0.84029186 0.3228324 0.64242756 0.80344373 0.5004241 -0.09693893 -0.95252585 -0.6214327 0.3440727 -0.63290244 0.9434838 0.22839078 -0.90929466 0.305392 0.06829301 0.14407615 0.030609002 0.86168873 -0.7625516 -0.80690116 0.12738061 0.5485998 -0.70963055 -0.5066166 0.94622445 0.3402475 -0.14293444 0.89636326 -0.28929555 -0.8369599 -0.79293483 -0.24115855 0.80422753 0.6225957 0.34183133 -0.7939475 -0.18049242 0.0705512 -0.2550735 0.09037132 -0.04958708 0.13888347 -0.7304349 0.61092424 -0.19918367 0.023289861 0.78837067 0.551214 -0.23831506 -0.56374145 0.4588145 0.28350884 -0.26357993 0.014481973 0.91389287 0.9612276 0.6360809 0.76853055 -0.60212666 -0.06829953 -0.037697576 0.056921184 -0.0143175125 -0.2731848 0.9109289 0.31859705 -0.037894905 0.69574356 0.47238457 -0.6383666 0.12988319 -0.088937804 0.7999109 -0.6860667 0.043499958 -0.9014538 -0.76839185 0.020599876 -0.86568815 0.034185234 0.23469219 -0.08519275 -0.7548661 -0.4931802 -0.37548983 -0.52045596 -0.87732965 -0.040506214 -0.49379918 -0.7653454 0.88783014 0.86404514 0.5220601 0.23063868 -0.9899142 -0.18758342 -0.17771861 -0.10532173 -0.60170966 0.00173247 -0.29033893 0.9411136 -0.31730336 -0.13851407 0.86393344 -0.83690417 0.61578435 -0.16107681 -0.814425 -0.97608757 0.79537785 -0.7298489 0.988396 0.4985022 0.3085174 0.89153826 -0.21805486 -0.24133949 -0.44101256 0.53483737 0.8449302 -0.3498692 0.17061704 -0.7776388 -0.22134665 0.7426181 0.08446511 0.14947571 -0.8997493 0.11805478 0.019115822 -0.55768716 0.94898653 -0.72609675 0.16707812 -0.2771936 -0.057684243 -0.7426963 0.5051194 0.8222195 -0.6739665 0.68302137 0.7305821 0.4626867 0.0581021 -0.49356258 0.3198534 -0.5985086 0.5151865 0.032308564 0.9431622 -0.17190132 0.80282694 -0.33634502 0.67904043 -0.35541853 0.20686965 0.53637105 0.277641 -0.5999967 -0.11792076 -0.17768395 0.2824465 -0.46242556 0.8300801 -0.27636212 -0.28926456 -0.9930504 0.4965805 0.2121156 0.89049566 -0.3560459 0.6347199 -0.64080405 0.26050305 -0.2525851 0.7709996 -0.40504372 0.5425186 0.805626 -0.35089096 0.95786923 0.15570748 -0.45860985 0.12893105 0.7615818 -0.09085391 -0.25378433 0.37857562 -0.11362321 0.57286394 -0.91496515 0.34667617 0.983038 0.595109 -0.124940984 -0.112250194 -0.7037622 -0.5810726 -0.94356704 -0.86909395 -0.74320924 -0.6403332 -0.27354616 -0.5821647 -0.9152026 0.88516855 0.5921866 -0.21230158 -0.23073718 -0.7027011 -0.8062143 -0.12689926 0.40755534 -0.79107416 -0.28834453 -0.87983966 -0.72223544 -0.76520544 0.24964231 0.8550881 0.8729121 0.62080854 -0.88514835 -0.76567626 -0.042707395 -0.8726723 0.35015258 -0.23072934 0.23265056 -0.6946042 -0.7503784 0.7935676 0.3199702 -0.056214973 1.0181865 0.028768498 -0.3200568 0.89245576 -0.80847156 0.35985267 0.5406475 0.09389291 0.2766639 -0.7040701 -0.12598662 0.8913891 0.2623771 -0.18714985 0.42749435 0.099380486 0.96839935 -0.01545827 -0.2501337 0.545502 0.9756969 -0.108422354 0.58849 0.76187325 0.13190214 0.2102528 0.7672411 -0.09298143 -0.5928497 -0.28691578 0.20617767 0.42429617 0.9711956 -0.498431 0.45666632 -0.5474596 -0.18598454 0.14264672 0.89370954 0.9313881 0.64710575 -0.26548487 -0.4467137 0.30305585 0.42655525 -0.70950043 0.09288785 0.8195042 0.9665487 -0.55157423 -0.34686375 0.051559795 -0.9696773 -0.80797833 -0.50195795 0.8220473 -0.29564744 0.34590626 -0.914888 -0.61023235 0.9832954 -0.78845376 0.8729017 0.7532275 0.6986582 0.5303416 -0.91429245 0.6897237 0.4880884 0.20146053 0.1769021 -0.3997091 0.38750595 0.5987221 -0.3961445 0.53918076 -0.27811468 0.38772258 0.46417025 0.99296826 0.5266944 -0.3213479 0.6942751 -0.8051261 0.12764469 0.13042663 0.6668188 0.4240015 0.4081274 -0.047192812 0.094067186 0.78367025 0.18145196 -0.5366645 0.0861689 -0.8426689 0.6490155 -0.49092105 -0.35078403 -0.38919014 0.18919829 -0.889913 0.033347256 0.28907382 0.07210196 0.5545384 0.43927062 0.7367678 -0.47003675 -0.3151109 -0.45831305 -0.47891974 -0.49987078 -0.7112438 -0.40732872 0.6420188 -0.64360446 0.006782399 -0.8848073 0.028897777 0.8338174 0.9917414 -0.4288123 0.23515585 -0.2567117 -0.5776602 0.1261809 -0.72644454 -0.21444407 -0.35161957 0.4920642 0.41059083 0.2559045 -0.40257066 -0.75603765 -0.63883287 0.7531438 0.3739689 -0.8412005 -0.15988101 -0.18417047 0.35639253 -0.39018852 0.53325135 -0.9734012 0.12357789 0.14242317 0.87774754 -0.53291214 0.07828913 -0.87604284 0.82006806 -0.99855685 0.93674123 -0.92150223 -0.22597612 -0.6685613 0.13110393 0.69086766 0.48371965 0.5200174 -0.1810502 0.757788 -0.2682055 -0.27058014 0.8522706 0.46588802 -0.45642415 0.28979027 -0.10236165 -1.0065806 -0.872079 0.33052856 0.60532707 0.58900845 -0.5191165 -0.007970883 0.31961775 0.1795258 -0.5140727 -0.5540556 0.04708221 -0.4201398 0.6311501 -0.9643373 0.64261013 0.12416276 0.7067386 -0.43756568 -0.6333696 0.20292754 -0.28089452 0.5379637 0.82170385 0.73939073 -0.9305354 0.82179767 -0.8688845 0.014311019 0.87306976 -0.7196025 0.049548905 0.97966963 0.607903 -0.85916626 -0.78772926 -0.30119798 -0.07589338 0.9596219 -0.8714108 -0.40992397 -0.8882215 -0.091740705 -0.660952 0.61364025 -0.88185656 0.09390641 -0.16958259 -0.53154004 -0.45762053 -0.8309164 0.9338251 0.9414654 0.52135706 -0.9173287 0.20638107 -0.59854126 -0.0987283 -0.6214388 -0.3875924 -0.5634022 -0.5263846 0.64080197 -1.0043525 0.25996685 -0.6990684 -0.53482604 0.29721484 0.030152291 -0.341278 0.36165848 -0.3778745 -0.6522351 -0.47250667 -0.30894363 0.43609262 0.40210456 -0.113453835 -0.33072522 -0.8825909 -0.7209317 -0.76388556 0.26814517 0.67945737 0.69013655 -0.6102334 -0.28285635 -0.19329245 -0.94067985 -0.391451 -0.6642877 -0.5336114 0.23197699 3.7762328E-4 0.9667711 -0.48884705 -0.9491816 0.1980058 0.2879587 -0.6765027 0.14195836 -0.7795115 0.5462913 -0.6981955 0.44413382 0.7505309 0.10236096 0.7335354 -0.16452336 -0.24705623 0.6188676 -0.19466563 0.4519401 0.11634363 -0.17070076 -0.7592185 0.47615558 -0.5994638 -0.6363597 -0.8136042 -0.35428622 0.8830601 -0.87044334 -0.5197373 0.3812983 -0.7473057 -0.14219075 0.08196229 0.28823113 -0.8922079 0.8450395 0.21821529 -0.5912519 -0.99870944 -5.9998035E-4 0.45811307 -0.84054214 -0.5365588 -0.7157563 -0.7266502 -0.6285203 0.7854101 -0.7323782 0.004253072 -0.8688338 0.30315447 -0.07096597 -0.3286137 0.40986717 0.9396057 0.52437735 -0.5690352 0.14005685 -0.88852364 0.44500938 0.87728226 -0.19993253 -0.21139301 0.5870421 -0.398208 -0.5507336 -0.3467816 0.6612424 -0.11146889 -0.7754051 -0.030407192 -0.62488747 0.40003723 -0.28108573 -0.90299666 0.88491946 -0.8491902 -0.82061774 -0.03147739 -0.98763573 0.6867629 0.043337308 0.25581902 -0.07143408 1.0124081 -0.097124204 0.11929803 -0.9824497 2.469894E-4 -0.81628984 -0.38383466 0.4653143 -0.7724698 -0.16824454 0.8439125 -0.8339611 -0.15205137 -0.5928465 0.6301972 0.19233286 0.028869648 0.06775155 0.005347252 -0.09152722 -0.30126834 0.48725283 -0.59783125 0.8749859 -0.48894897 0.38249695 -0.93219 0.77775973 0.04338493 -0.7932788 0.33752853 -0.67442334 0.03221775 -0.0639366 0.22629277 -0.7802556 0.65742123 -0.5063392 -0.7267821 0.350555 0.90702146 -0.34656015 0.4216482 0.39344966 -0.85631174 -0.57552564 -0.91414005 0.6068102 -0.21830048 -0.46321934 0.1369093 -0.8023927 0.049745593 0.9981817 0.97003067 0.031788036 1.0135685 0.84160423 0.3195932 -0.74181306 -0.3759312 -0.59058356 0.89507806 -0.80071574 0.348154 -0.47423884 0.36884052 -0.93814445 -0.8748944 0.96113354 -0.91513944 -0.36024478 -0.7849002 0.5767083 -0.20679355 0.24640822 0.1333604 -0.83837897 0.15802959 0.05112966 -0.01533444 -0.7346699 0.9476533 -0.27585724 0.14584069 -0.5160218 -0.17474069 -0.424052 0.13234144 0.062996864 0.6714127 -0.34447274 -0.9817795 0.932973 0.9643372 -0.6939617 0.8846913 0.5932737 -0.40625036 -0.08281001 0.16797602 -0.4352343 -0.10361551 0.78154415 0.79464155 -0.6079842 0.75703573 -0.12464642 0.6095899 0.9131573 0.78242123 -0.75816584 0.53197455 0.14751777 -0.32500538 0.8466239 -0.68696815 -0.5536236 0.7008976 -0.3728593 0.24732652 -0.6009961 -0.73318565 0.6697545 0.15271033 -0.5790489 -0.49092355 0.30404508 0.9795161 0.6588664 0.25989366 0.9476932 -0.7762123 -0.5447266 0.8389474 0.6592893 -0.7011096 -0.4947534 0.7285651 -0.7552505 0.48440194 0.47064853 -0.71072936 -0.6359656 0.94863224 0.4728324 0.6499898 -0.94511133 -0.97212875 -0.74366325 0.4163631 0.85931975 0.78909016 0.41257542 -0.11517009 -0.13565944 0.1342746 0.5966669 -0.02335317 0.08362853 0.20989788 0.052694343 0.69794345 -0.07156682 0.7511458 0.19709946 0.5630254 0.11059394 0.27372193 -0.7799829 -0.50330466 0.558113 -0.030932194 0.65335685 -0.32724613 -0.251784 0.20711079 -0.9149078 0.114040725 0.0793209 0.33991015 -0.35302347 0.30834815 -0.1875473 0.90872514 -0.89287186 0.51410234 0.7571011 -0.14965542 0.14656278 0.53774834 0.29868957 0.9539135 -0.7839599 -0.8578594 0.3497084 0.48792845 -0.4023967 -0.042192917 -0.600309 0.5954054 -0.17017186 -0.85067123 -0.35574642 -0.5120902 -0.4838413 -0.24889345 -0.58180904 -0.33994964 0.29271996 -0.35242277 -0.82464564 -0.9568484 -0.4531473 -0.0368595 0.31803015 0.023621604 0.34314242 -0.29411757 0.9865157 0.90535456 0.8026248 -0.1826233 -0.31695634 -0.17137948 0.10351724 0.7756239 -0.2997211 0.05570637 -0.3012114 0.8481174 0.0281093 -0.8978988 0.6336374 2.8911282E-4 0.6896963 -0.8119314 0.73359865 -0.5244123 0.19114934 -0.63076895 0.63510555 -0.7969335 -0.7837701 0.71817356 -0.7013336 0.61217 -0.7661833 0.036613654 -0.45535627 0.55131614 -0.021710778 0.48746336 0.23913926 0.75478226 -0.70906156 -0.9260236 -0.036295634 0.45957655 -0.73418695 0.62458265 -0.044919174 0.5476503 0.047024164 0.31719005 -0.008315224 -0.17899694 -0.634017 0.2277189 -0.9824976 -0.39809182 0.3821243 -0.27482805 -0.4903111 -0.24772322 -0.83161926 -0.21171142 -0.58356905 0.016543789 0.32233462 -0.8550199 -0.49566936 0.858663 -0.53622824 0.5364535 0.344485 -0.5191942 0.4111577 0.1048564 -0.83041465 0.49369556 -0.5661841 -0.3451217 0.20957687 0.78954816 -0.4017809 0.7208621 -0.7064099 0.24236754 0.9408214 -0.74912435 -0.3273394 0.08072623 -0.35174423 -0.07957506 0.77069855 -0.16409701 -0.06390788 0.19428167 0.17734337 0.29947987 -0.20201729 -0.88246334 -0.27063328 -0.844565 -0.21560034 0.69771576 -0.7383132 0.70987225 -0.9252482 0.44540256 -0.75271475 -0.4240871 0.7520721 -0.6343421 0.3550489 -0.38862547 0.3786783 0.68001556 0.82181036 -0.43153575 0.73199475 0.97513765 -0.8322095 -0.7901559 0.31654984 0.009249486 -0.79364085 0.28249475 0.9442156 0.07971494 -0.2860241 -0.1477542 -0.97409856 -0.59278774 0.9119866 -0.75854516 0.69191486 -0.18520454 0.67463815 -0.24181554 0.212963 -3.7343963E-4 -0.6919063 -0.7681397 -0.12076899 0.62986094 -0.19034278 0.3844201 -0.7662367 0.6809601 0.6584599 0.3476962 0.16465695 -0.16871923 -0.06560013 0.653744 0.038473677 0.08146182 -0.6732131 -0.37991008 0.19434711 0.2394427 -0.852505 -0.07854273 0.04033055 0.054992266 0.6925244 -0.013975819 0.40149635 -0.96011084 0.23906401 -0.90510875 0.94458044 -0.029981188 0.30495256 -0.49903953 -0.006465809 -0.5821621 0.1641813 -0.4308995 0.7448434 0.80875176 -0.61561954 0.7752465 0.4745796 -0.25303602 -0.20792326 0.35276952 0.75100815 0.6491574 -0.938588 0.82824785 0.58153623 0.449476 0.7500884 -0.70044166 0.26229024 0.6471467 -0.41352326 0.08002892 -0.98034066 -0.51120853 0.86284477 0.2103364 -0.031346492 0.496384 -0.19422492 -0.09149885 -0.32019353 -0.04242292 -1.013928 -0.7391551 -0.18870291 -0.55804265 -0.07604122 -0.23795761 0.19566143 -0.86099494 0.04176944 0.10509163 -0.5841755 0.2759421 0.4803607 0.46730193 0.066081755 -0.29818034 3.3350842E-4 0.06827725 0.8738394 -0.20241176 0.77686036 -0.07752794 -0.3024325 -0.34589896 -0.84816813 -0.831705 -0.8415511 -0.9703892 0.8574142 -0.28995284 0.09409085 -0.1943234 -0.7887597 -0.77795136 0.18537934 0.50291616 -0.80024993 -0.8272309 0.60869426 -0.3602745 0.2361268 -0.96077126 0.6299039 0.32207045 0.26737142 0.41952306 0.020551682 0.18856323 -0.02101877 0.64337415 -0.69388914 -0.4938512 0.09331736 0.28593302 0.85989136 -0.84582835 -0.9452795 -0.3505479 -0.059707377 -0.41767722 0.95016277 -0.7507781 -0.690727 -0.7357607 -0.30186394 0.8914016 -0.65454173 -0.09825094 0.7105781 0.0653862 0.53624237 0.41922167 -0.87392217 -0.76433 0.7879254 -0.9140591 0.04855351 -0.7653766 -0.61497545 -0.8435882 -0.8498307 0.48273885 0.03644294 -0.80977005 -0.71895844 0.60655904 -0.06611092 0.4122604 0.32249886 0.12385113 -0.40343478 -0.07472302 -0.63912016 -1.0006294 0.17617786 -0.14179425 0.96821874 -0.7502231 0.8707819 -0.92786974 -0.8501571 0.23518597 -0.46751454 0.28599465 0.6409552 -0.2893999 0.8493306 -0.76378626 0.58191866 -0.91046953 -0.79502237 0.7753665 0.68107903 0.28341758 -0.47044513 -0.6936568 0.3685143 -0.5264507 -0.06974559 0.63693655 0.34251782 0.040686537 0.24236424 -1.0480917 0.54615974 -0.3635552 -0.3091525 -0.110430926 0.7445321 -0.9368423 -0.95503646 -0.94450873 -0.063856505 0.92923826 0.056859598 0.9744386 0.00666427 0.119053826 0.24509098 0.0975281 0.9188105 0.6505206 0.53844285 -0.3740416 0.5963367 -0.87347364 0.8470181 0.43960866 0.5756918 0.94391483 -0.18986008 -0.41143042 0.7416644 0.5328791 0.39568514 -0.57482046 -0.2667007 -0.68861836 0.11570843 -0.28162777 0.17533411 0.08018666 -0.616868 0.24327905 0.6391845 -0.02741513 -0.009597604 0.54488343 0.8791496 -0.7804543 -0.7321108 -0.47717494 0.44340414 0.10459008 -0.8987556 0.19708697 0.43260825 -0.30428547 -0.59135437 -0.7710595 0.34716833 -0.5919874 -0.6522085 -0.11562456 -0.7649454 -0.2523036 0.19786598 0.060692288 0.9149807 0.3919345 0.9923412 0.47035703 -0.12776971 -0.62603027 -0.7124886 0.42233944 -0.5508431 -0.34813988 0.7556842 -0.16418487 0.70575315 -0.7938818 0.7893156 0.8795203 -0.77676046 0.8836833 -0.61436653 0.14700556 0.9345009 0.17694883 -0.42660362 -0.916597 0.6776752 -0.30078727 0.2462505 0.9214106 0.61950684 0.7104624 -0.23659408 0.25775242 0.6681737 -0.5387429 -0.38708073 -0.70703 -0.88004816 0.4099015 -0.30235437 0.06649325 -0.5617323 0.4302739 -0.9175578 -0.9399518 0.7130414 -0.06998061 0.28329727 -0.75111175 -0.7309327 0.72916657 -0.96047527 -0.5543399 0.77930874 0.26149246 0.4195298 0.951983 0.6016646 0.15850946 -0.37227896 -0.65597546 0.6163308 0.50528246 -0.36475518 -0.4492553 0.49009347 0.60262287 -0.030253474 -0.6718573 0.24288595 0.9042037 0.73485553 0.84409034 -0.03192818 0.32906246 0.5576049 -0.3905461 0.5625209 -0.20581746 -0.37203637 0.8676506 0.81877065 -0.8664288 -0.8991708 -0.57788116 -0.8050279 0.20186798 -0.8186585 0.618449 0.54816604 0.83351517 -0.7506029 -0.7304488 0.8797115 -0.8601848 -0.5588476 -0.20459853 -0.77556425 -0.043798536 -0.017826293 -0.40428656 0.55933356 0.16821438 -0.7004411 0.68052715 -0.09340668 -0.5219919 -0.86341673 -0.4060865 -0.31648612 0.5382276 0.77850485 -0.31427243 0.3727913 -0.6056966 0.40683568 -0.4389763 0.91834277 -0.83089286 0.7997384 0.87211555 -0.11762868 0.45656097 -0.2051784 0.8498058 -0.79598606 -0.098799095 -0.66486555 0.23191127 -0.41141164 -0.61064494 -0.0950388 -0.7771504 -0.50181454 0.4303558 1.0070827 0.014921064 -0.23107155 0.6674578 6.6270324E-4 0.975971 0.7822539 0.1725978 0.9923133 -0.6798387 0.5853142 0.27157885 -0.18782222 0.1697499 0.5389001 -0.72665966 -0.21815199 -0.6480152 -0.2629166 -0.9530697 0.6653739 0.76264703 0.5457641 -0.15896808 -0.6371183 0.49390608 -0.9207893 -0.149151 0.25169143 0.73386574 0.90177923 0.014353764 -0.37501922 -0.85169476 -0.10195822 -0.7951666 0.8092997 0.48407173 0.38447797 0.27475402 0.65839046 0.299758 0.016447993 -0.73921454 0.789013 -0.94047076 0.38090003 -0.92667544 0.20469907 -0.0191893 0.942944 0.7130919 0.62384063 -0.99502885 -0.5797875 -0.7223212 -0.49905232 -0.2146098 0.92779386 -0.24374445 -0.7753015 0.41695467 -0.87294936 0.8948833 0.7388126 0.1403602 -0.44209757 -0.058294132 -0.06368974 -0.28757042 -0.48388517 1.0049443 0.26666516 0.16336034 -0.14406444 -0.23297244 -0.6032193 -0.1548225 -0.7797121 0.033867702 -0.61281466 -0.13293885 0.49912155 0.27984512 0.22366944 -0.52834225 -0.9329668 -0.18671359 0.28940815 -0.5597953 -0.7457371 0.57270974 -0.10149006 0.41766608 -0.16837214 -0.79258466 -0.65800524 0.36412114 -0.07810116 0.71232224 -0.9513129 -0.66632694 -0.6007536 0.88304186 -0.13930318 -0.8554556 -0.4746353 0.44909462 -1.0100926 0.25544238 -0.49821144 -0.9432171 0.7139741 -0.9573325 -0.8310411 0.46633792 0.7343169 -0.9268711 -0.13855278 0.97705877 -0.8851401 0.8175296 0.6240805 -0.12661411 0.29543155 0.25907084 0.57447755 0.9026517 -0.44620723 0.36395168 0.10467141 0.52984285 -0.7109695 0.36353555 -0.62403864 0.4335569 -0.18269636 0.97036934 0.5910915 -0.7439171 0.39900157 0.20653069 -0.40272647 -0.30687398 -0.72111344 0.99180603 0.36802942 0.30831558 -0.6806629 0.4708263 0.8702749 -0.5988056 -0.37730932 -0.15446414 -0.5703119 -0.35150123 -0.08073375 0.9102593 0.5881802 0.12678671 -0.6679147 -1.0404055 0.98624325 -0.38622308 -0.89630264 -0.43052587 -0.541311 -0.2806122 -0.06741036 0.87332237 -0.41341594 0.804431 0.37246886 -0.24314278 -0.90688556 -0.54117304 0.72757035 -0.7667891 -0.78391975 0.5351484 0.58927125 -0.6428205 0.2571794 -0.68562585 -0.76513624 0.28522533 -0.21106192 -0.09745002 0.767302 -0.42837757 -0.29203343 0.39257872 -0.8197504 -0.43399322 0.18170369 -0.9160479 -0.14468741 0.08803346 -0.45159024 0.5489791 0.28620157 0.8452883 -0.141047 0.13217184 -0.12653871 -1.0329717 -0.029511858 0.2029504 -0.2432646 0.42754102 -0.54538345 0.08139831 -0.12001247 -0.5061888 0.85357237 0.7189045 0.8688347 -0.27080858 -0.4661557 -0.4764273 0.6200491 0.3707772 0.8884448 -0.76389384 0.8070735 -0.9311394 0.8209654 -0.17644626 -0.60342175 -0.22388649 -0.66995925 0.5738916 -0.023267377 0.007867252 -0.83332723 -0.93490094 0.55175257 -0.49116993 0.12626263 -0.22242261 0.72720456 0.36060438 0.5507489 -0.6227291 -0.39346606 0.085497044 0.9283941 -0.94083035 -0.55857664 0.47725457 0.30027986 0.26599467 -0.48835537 -0.5955179 -0.11716945 0.85124534 0.12502834 -0.10676284 -0.7482023 -0.65644026 0.99012864 -0.8417436 0.3440014 -0.46475232 -0.5904706 0.37879023 -0.866561 0.18724097 -0.97592604 0.14482586 0.27915835 -0.6291293 0.58604485 -0.39993346 0.09135998 -0.7363709 -0.88282764 -0.9157437 -0.22737974 -0.9808958 0.29679033 0.35789484 -0.0039202343 0.41727346 -0.2838545 0.84096193 0.10827224 0.58047265 -0.250017 -0.83544 0.783148 -0.04814855 0.6233852 -0.84763664 -0.90863526 -0.12739258 -0.81180376 -0.070962764 0.5628317 0.42573464 -0.46303383 0.22199355 0.4144262 0.3290758 -0.06723283 0.7419245 -0.72440225 0.10644179 -0.6006765 0.7948332 0.6583073 -0.6629668 0.30809435 -0.28223416 -0.680933 -0.5041467 -0.7602238 0.09913507 -0.69049966 -0.21717714 -0.27025884 0.41777843 0.34076104 0.09271776 -0.69283724 -0.017964223 0.27697432 -0.94787985 0.1468295 0.493665 -0.27553493 0.53779536 -0.0010836449 0.78396565 -0.9367757 -0.073534645 -0.24626277 -0.8749292 0.94825506 0.7365294 -0.4285458 -0.73385096 0.5668049 0.135123 -0.427329 -0.20641282 0.473192 0.14837463 -0.9330752 0.75459504 0.9073902 -0.34354827 0.1961121 -1.0353827 -0.9819001 0.09793444 -0.28289258 0.20170762 -0.9320429 0.65601504 -0.13501677 -0.73107284 -0.48129427 0.76723063 0.7506406 -0.3060739 -0.91776234 -0.7912021 -0.6913661 0.3814187 0.7578534 -0.059801698 -0.12913965 0.22135386 -0.83763087 0.8752203 0.75751466 0.42016906 0.28809255 -0.4832896 -0.7017787 0.87226313 -0.83777976 0.20539019 0.14558677 -0.43615353 -0.3293085 0.6954659 0.43847874 0.773897 -0.4199408 -0.6601615 0.5099137 -0.576408 0.95213425 -0.8063878 0.8086976 0.52047867 0.47454685 -0.48196006 0.83629274 0.77733815 -0.39282554 -0.80620277 0.89425766 0.6058226 0.91071904 0.84725755 -0.4259429 0.3865804 -0.83685434 -0.13858366 -0.2533033 -0.11257978 -0.4917091 -0.067542195 -0.78551644 -0.6617971 0.30272827 -0.65059865 -0.14309423 -0.7097204 -0.009521067 -0.3210108 0.98500633 -0.0766352 -0.47763553 -0.5782581 0.3697045 -0.6949358 0.2394561 -0.87949365 -0.54009145 -0.3916676 0.26773793 0.35334525 -0.78679997 0.6796026 0.0467851 0.97524697 -0.6415502 0.51247233 0.5281787 0.47150233 1.0123738 0.20343725 0.04558179 0.3226905 -0.551559 -0.09351659 0.59928024 0.2664532 -0.16662109 -0.59850204 0.31856102 -0.31176037 0.85658914 0.59728897 0.6270741 0.6484147 -0.83028144 -0.7655898 0.1153046 0.88762957 0.74875534 0.118969664 -0.14013863 0.47863188 0.71488184 -0.13188107 0.70809007 -0.69307554 -0.14702019 -0.5407105 0.39495248 0.8461455 -0.16546229 0.7002614 0.6189555 -0.18730313 1.0247376 0.07142864 0.2685517 -0.42856702 -0.65946037 -0.018907312 0.88373953 0.23179786 0.15190744 0.3207259 0.72424823 0.3411147 -0.98144805 -0.93806696 0.66288954 -0.72170395 0.39371136 -0.7013934 0.5190307 -0.5639023 -0.9814692 0.9486286 0.2670675 -0.005295681 0.77244884 0.4185595 -0.9907496 0.9901273 -0.3756517 0.5887182 -0.9401667 -0.26235116 0.31316164 -0.29881412 0.30738753 0.48428333 -0.554958 -0.114872366 0.9395372 0.58228874 0.709238 0.5941015 0.34850302 0.52097404 0.14280033 -0.60008305 0.73408324 0.98449147 0.19202143 -0.64943844 -0.6474485 -0.87363005 -0.6081054 0.16686213 -0.5219296 0.40564626 -0.70536655 -0.25435692 0.8814381 -0.607131 0.51400703 0.32552966 0.6140645 0.13443899 -0.5618988 0.7026301 0.30711952 -0.19837095 0.68490267 0.4904443 0.34123802 0.34217927 0.13209689 0.41262963 0.9882389 -0.33991385 -0.08898938 -0.9743665 0.47901595 -0.93426573 0.17573503 0.75114703 -0.5054719 0.91121584 -0.4802754 -0.34506363 -0.0011461724 -0.75122386 0.22445996 -0.23814279 0.86713696 0.038962536 0.91129464 -0.395148 -0.8319267 -0.077646285 0.06967395 0.5429695 0.67168206 -0.45125788 -0.5693728 -0.5804123 -0.64846885 -0.91571337 0.8838371 -0.010431898 0.93437505 0.4811123 0.9283477 0.8060532 -0.81201625 0.031548128 0.40888962 0.7766775 -0.29820806 0.8658357 0.058159467 -0.36464745 0.6813197 -0.78286684 0.75169486 0.9388303 0.44569984 0.617865 0.8081026 -0.92314696 -0.84005994 0.037942585 -0.8617072 -0.5703683 0.73101234 -0.9567863 0.58912563 0.3783548 -0.53851396 0.75391376 -0.13479373 0.06589818 0.0074734776 -0.07380412 -0.13048512 -0.36670494 -0.36646783 0.9974075 -0.06367493 0.866127 -0.9255749 -0.41812313 -0.31501898 -0.83647865 -0.8922988 0.25589582 0.8588472 -0.58095556 0.40236813 0.20340203 -0.018986687 -0.50715595 -0.69489264 -0.28561586 0.67779225 -0.20704263 -0.10207727 -0.2839241 -0.08899275 0.04553837 0.43941203 -0.061492812 -0.6809906 0.33417585 0.59573734 -0.18138702 -0.21534982 0.12294137 -0.54613405 -0.47802526 0.55205667 0.7750379 -0.93118197 -0.7853867 0.40273327 0.48826674 0.27150297 -0.6364127 0.8585807 -0.81552285 -0.6652044 0.18975627 0.65004265 -0.6011868 -0.50646234 -0.5131178 0.66312903 -0.9843902 0.6172013 -0.23569512 -0.056173522 -0.89343405 0.006181322 0.026712628 0.041082855 -0.92475486 -0.39766887 0.8648152 0.66625875 0.19400054 -0.4349019 -0.45226625 -0.2330249 0.7827405 -0.32527393 -0.5149863 -0.7833647 -0.043219447 0.10785062 -0.2896902 -0.9636172 0.9454755 0.6762619 0.5137131 0.61556154 -0.4543485 0.84386593 -1.0114706 -0.15767653 -0.6228126 0.4603052 0.46975863 -0.23041105 0.49575767 0.17842706 0.040423606 0.36965844 0.03748466 -0.5830884 -0.96634454 -0.12911238 0.55378217 0.46667343 0.39423677 -0.5669211 0.42474198 -0.5423727 0.81632674 -0.46212682 0.6778305 0.1892465 -0.5599978 -0.505469 -0.23560022 -0.19034247 -0.85107183 0.67311835 -0.7898541 -0.6549245 0.23230451 0.5213642 0.5546375 0.030115947 -0.31281695 0.70353097 -0.6272296 0.28897846 -0.6427575 -0.95430243 0.43192992 0.638367 0.5475823 0.71618664 -0.068081975 0.88720614 -0.9469753 0.4814786 0.10096681 -0.21217853 0.24958652 -0.33752865 -0.4792844 -0.37939996 -0.03610591 0.78095645 -0.44354647 -0.71793544 0.7137555 -0.79121494 0.86177933 0.6607324 0.8703564 -0.31259534 -0.6838219 -0.21102376 -0.66624534 -0.66101813 0.69472766 0.18338591 0.58215654 -0.37444198 0.3237855 0.6536321 0.47808743 0.88614786 0.18493931 -0.1843756 0.14563024 -0.030322028 0.35744667 0.35939 0.9833833 0.75036097 0.044379354 -0.25154465 0.38294953 0.44221982 -0.46405536 0.39784697 0.7628925 0.31046197 -0.10975455 0.11928545 -0.69012016 -0.36641517 0.3071419 0.9269976 0.18308555 0.9872165 0.56700486 0.45004785 0.78122467 -0.50211746 -0.6854847 0.07740027 0.95556426 -0.7810123 -0.5850695 0.07085539 -0.62935936 0.27250394 0.75781155 -0.19213437 0.113633566 -0.34372878 -0.27215677 0.24520202 0.9276969 0.25016925 0.8308903 0.86173964 -0.8896329 -0.6148551 -0.5905137 0.50278974 0.20610179 0.81248945 -0.6159343 -0.85729283 -0.1702343 0.10109338 0.7805626 0.7884002 0.43477565 0.0404444 0.07760072 0.16322587 -0.71863335 -0.13568787 0.70674664 0.7062317 -0.10139052 -0.05820699 0.2228309 0.8684889 0.1981241 -0.4533398 0.9867178 -0.037753627 0.9127767 0.022114316 0.47982305 0.61996937 0.3516937 0.5298983 0.7887782 0.5203893 0.9098027 0.6132747 0.6070889 0.31893885 -0.9345492 -0.95859325 -0.5379079 -0.6076345 -0.848048 -0.7397203 -0.51916045 -0.9066987 0.2092163 -0.8216761 0.87596565 -0.085924275 0.84051377 -0.2822994 0.20558804 0.65932524 -0.62782776 -0.9875447 0.7282086 -0.97134733 -0.6824336 -0.9086706 0.7649624 0.10476158 -0.14402904 0.7949447 -0.38964465 -0.90338385 -0.9409006 0.26727837 -0.46484768 -0.7577938 1.0125175 0.44680646 0.7762082 0.56171817 -0.74712765 -0.23906536 0.8224691 0.5788485 0.9194329 0.092512615 -1.0203373 -1.0284388 0.39749056 -0.6404245 0.6578251 0.25681013 0.70826054 -0.5653037 -0.47587356 0.09463967 -0.10011084 0.90679026 -0.8067749 0.30348748 -0.9857193 0.9048257 0.17542754 0.8310003 0.8972931 0.74825984 -0.23215684 0.114254065 0.08916945 -0.75057703 0.7716191 0.9399102 -0.75977385 -0.98410344 -0.7193173 -0.62997675 -0.6666171 0.7428493 0.7089429 -0.7843644 -0.8860304 -0.32382715 0.04971862 0.43521768 0.53057826 0.72489923 -0.671659 0.42441228 -0.37327033 -0.26149967 -0.80233616 -0.6557877 -0.225519 0.45803273 0.72696453 0.61473304 0.3814137 0.66678524 0.70267653 0.2093606 0.6406092 0.4749378 0.43585142 0.4197852 -0.056227405 -0.57967 0.60508204 -0.21019256 0.8052488 0.9541157 0.68628913 0.9106739 0.18343322 0.21234134 -0.08524723 -0.72827923 -0.13583739 0.79089993 0.9524893 -0.84555864 0.7890303 -0.41612604 -0.42640173 -0.8275754 0.44793692 -0.5959872 0.5831062 -0.16516551 -0.22353297 0.117633216 -0.15222271 -0.6585002 0.7398601 1.0038128 0.4842102 -0.27353954 0.55535764 0.21414304 0.9245033 0.019424155 -0.57427424 0.8993124 0.51202023 0.45702183 -0.9441994 -0.95036435 0.27045712 -0.06221302 0.6627671 0.07824119 -0.122563966 -0.24913937 0.60760343 -0.14085421 0.79195267 0.3278917 0.6298969 0.7013686 -0.383477 -0.25907555 0.22747523 0.86559725 0.32848555 0.25490063 -0.010439748 0.6787425 -0.2555606 0.17641193 0.813038 0.9570561 -0.049103595 0.23961149 0.92996114 -0.43238997 0.6814541 0.9845728 0.70798004 0.91589016 0.7125891 -0.21929485 -0.3385801 -0.38839713 -0.0051370854 -0.71856654 0.9680982 1.0148112 -0.7420256 -0.89962035 -0.19638601 0.49138388 0.794425 -0.002042405 0.1876353 0.032657687 -0.5143872 -0.9451168 0.6286504 -0.1931042 -0.6800992 0.4700731 -0.4526979 -0.3921851 -0.5259662 0.6326092 -0.7800915 -0.3854623 0.5160288 0.48496306 0.4033965 -0.56104547 -0.9008533 0.5038236 0.4283372 -0.11161977 -0.34975094 -0.93792903 -0.82664984 0.8247819 -0.26156655 0.7351887 -1.0242178 -0.22210255 -0.2049363 -0.9625019 0.22396947 0.014028265 0.022071613 0.550958 -0.19071814 -0.35388112 -0.060426746 -0.37747395 0.9467395 -0.2562011 0.7096759 0.35614043 0.7889007 -0.41828945 -0.28696337 0.7784623 -0.6005912 -0.9314318 -0.29761007 0.8871975 -0.7577571 -0.44197223 -0.52816474 0.07257975 -0.7896459 -0.7309043 -0.8291524 0.83675635 -0.4886183 -0.13913098 0.35134697 -0.90630955 0.7772192 0.31775865 0.8077103 -0.50474 0.2854583 -0.766181 -0.5794522 0.9094562 -0.41488615 0.263565 -0.76559645 -0.60461974 -0.6844566 0.85459846 -0.09402378 0.981072 0.7282843 0.1503669 0.19651228 0.6332834 -0.47960114 0.59726065 0.73815376 -0.38223988 -0.3565222 -0.9331135 -0.1908673 -0.82423943 -0.56207335 0.6617295 1.020963 -0.9459479 -0.9337848 -0.46712142 -0.012885175 0.86440086 -0.14075522 -0.18072335 -0.81719404 0.041021544 -0.6839905 0.41649982 -0.965744 0.7259935 0.9504496 0.09362463 -0.011981721 0.012905057 -0.34058636 0.8191998 -0.5634875 -0.49504876 -0.5092561 -0.26174188 -0.6364729 -0.86653113 0.040622458 -0.6613326 1.0171754 -0.6794385 -0.9932327 -0.49272174 0.5049133 0.48158747 0.718189 0.29206356 -0.66609806 -0.06647616 0.65818906 0.9418712 0.90785444 -0.037865825 0.056933574 -0.8611138 -0.23326507 -0.6134995 0.9431924 -0.074095234 -0.68311834 0.13552003 0.26495835 0.09182216 -0.7095592 0.6274596 0.8189832 0.2715089 0.42805183 0.8418562 0.7164442 -0.6259161 -0.2171756 0.7856331 -0.4599363 0.39171493 -0.31728154 0.7939517 0.18982626 0.22859551 -0.17960048 -0.5038934 0.07929412 0.29361224 0.4059628 0.32074732 -0.75370556 0.16805324 -0.7352979 0.5746689 0.6465691 -0.50788593 0.82472044 0.38221496 -0.9618961 0.6161368 -1.0032325 -0.34397465 0.37020066 -0.42582247 0.46575668 -0.42774484 0.15966687 0.60086066 -0.033634033 -0.7296873 -0.4498063 -0.48387352 -0.4415782 0.030115828 0.6740109 0.88625836 -0.25696418 0.8936231 0.9020359 -0.45712712 -0.78237545 -0.38679302 -0.8090063 -0.9720242 -0.8431591 -0.504533 -0.8671997 -0.83171177 -0.12290028 0.32896912 -0.18707837 -0.46579894 0.39771172 0.12968959 0.7492383 -0.28612345 0.088578604 -0.21896112 -0.04853038 -0.66133493 0.4264409 -1.0014547 -0.027414776 0.009230409 -0.44753793 0.77963746 -0.015661387 0.96754515 0.04128883 -0.03138958 -0.5971216 -0.4956779 -0.18930417 -0.4941976 0.56289124 -0.43323874 -0.116103314 -0.93530196 0.41396725 -0.9036163 -0.99733955 -0.7494578 0.34749925 -0.34550288 0.84574705 0.11540401 0.4657319 -0.44716874 0.5405086 -0.61399806 -0.18703102 -0.5229189 -0.90867376 -0.5632289 -0.917686 0.16336596 0.8540288 -0.7020958 0.29584998 -0.9165118 0.7084481 -0.9420306 0.77428794 -0.29629353 0.55611473 0.18992019 0.25769922 -0.90140516 -0.9940453 -0.5262316 0.27687395 0.09692383 0.63670784 0.81517994 0.39586473 0.767896 -0.299727 -0.049314365 0.29855213 -0.29630995 0.5529947 0.97550285 -0.32995468 -0.17272902 -0.80145705 0.062370755 0.4420867 -0.8230786 0.8502412 0.41987428 0.26311934 0.73207134 -0.24914324 -0.10136447 -0.2856949 0.92652905 -0.10963166 -0.12481653 0.9730595 0.6855738 0.36309317 0.7258295 -0.9798953 -0.048823647 -0.5165333 0.61399734 0.7279718 0.6322702 0.29207155 0.5268382 -0.5143909 -0.7284603 0.9864359 -0.21335287 0.23288126 0.067159705 0.9165773 -0.6705973 0.04946884 0.6502745 -0.717819 -0.8413773 0.092639856 -0.79958105 -0.19490154 0.42843497 -0.5724261 0.10943377 0.590496 -0.70205337 -0.4518644 -0.097115606 0.82271403 0.050492544 0.3604277 0.42154577 0.88900703 0.1905827 0.22314094 -0.8911166 0.7234919 0.69710696 0.46438658 -0.9084274 0.010226132 0.92889106 0.20164225 0.33689415 0.3031456 0.038320538 0.9538435 0.9738596 -0.17248023 0.11854851 -0.24028152 0.59536785 -0.94149417 0.63048875 -0.61592543 0.8350038 -0.89863044 0.45763996 -0.8292402 0.9309709 0.14068651 -0.37072584 -0.9679533 -0.25496402 -1.0229666 0.11187378 -0.35516483 -0.8817669 -0.54019666 -0.022775304 0.85657907 -0.78023946 -0.09923266 -0.24738786 0.0050224927 -0.036352992 0.9111703 0.53006697 -0.86999047 0.17434546 0.2315347 0.08003734 -0.048665762 -0.13130881 -0.58439785 0.16974095 0.9090643 -0.5274598 -0.9931716 -0.020403886 -0.52596235 0.95399725 0.03582771 -0.76954174 -0.27399445 -0.6124063 0.6664059 0.06799209 -0.48130813 0.7952438 0.9739717 -0.5902167 0.4076862 0.7982188 0.38382173 -0.9331313 0.85616153 0.29188427 0.11518003 0.39670593 0.637745 -0.76074296 -0.84510094 -0.25888592 -0.20042394 0.8365588 -0.11930454 -0.8247186 0.4395542 -0.89698684 -0.2905846 -0.8542499 -0.6941903 0.33665726 0.5063406 -0.13198793 0.4070103 0.65337664 -0.4064988 0.86503154 -0.9366092 -0.69899833 -0.083478644 0.29450256 -0.93890226 -0.3539445 -0.26458296 -0.47727665 -0.5076575 -0.28521803 0.17257406 0.28294843 0.053752095 -0.2809328 0.9320865 -0.9533911 0.100979485 0.15184377 0.49548933 0.832484 -0.050203096 -0.5946329 0.8443396 0.6025738 -0.611221 0.6721362 -0.73725224 -0.7879812 0.24206564 -0.5308237 -0.21632731 0.75851244 0.4229616 0.74829674 0.16128221 -0.89561826 -0.18891118 0.9256967 0.21809314 -0.80432594 0.4058708 -0.50937575 0.16171989 -0.21178734 0.016869687 0.51017314 0.6757399 -0.32009223 0.5135582 -0.38499984 -0.52938473 0.89858973 -0.62167513 -0.111086555 0.28911152 -0.75491184 -0.87055993 0.3821466 0.5566295 0.854832 -0.8664941 0.97736895 -0.8066067 -0.82802397 0.5624124 0.43627152 -0.4754305 -0.30752948 -0.81990314 -0.690524 -0.5523468 -0.017518561 0.2041545 -0.5167708 -0.1340335 -0.25270554 0.45730025 0.15368414 0.441655 0.7407575 0.6099399 -0.013811896 -0.59105176 -0.7414766 0.35945857 -0.47937348 -0.04821091 0.13452399 -0.21051313 0.9213826 -0.6995755 -0.5616618 0.8662318 0.511097 -0.7336126 -0.045824394 0.65217805 -0.7708922 0.0742042 0.5968223 -0.10400493 -0.001984369 0.06105222 -0.62714744 -1.0130869 0.57617664 -0.17444909 0.56077266 0.85702604 0.6401457 0.4703286 0.22142032 -0.6920109 -0.97363776 0.077220745 0.39301094 -0.8746297 -0.66368103 0.7458423 0.5539713 -0.62359315 0.1218513 0.04054787 0.7525848 0.1573636 -0.0609688 0.10837746 -0.52901304 0.40058854 -0.39708105 -0.09350247 0.8864119 -0.60587984 -0.47532102 -0.8296087 0.990095 0.23821925 -0.319629 0.7720751 0.72382605 -0.2904889 0.968079 0.15554331 -0.8322055 -0.7442279 -0.5381534 0.8358574 -0.25799918 -0.18036878 -0.6054745 -0.32215476 -0.92064625 0.29553267 0.020509876 -0.4827488 0.7130139 -0.12483869 0.74806577 -0.32760262 -0.802514 0.4598052 0.84476256 -0.24099785 -0.8683183 0.87048125 -0.94422776 0.35544664 0.37723643 -0.6551635 0.39218867 0.39899725 -0.24186091 -0.5507381 -0.4055025 0.43946323 -0.3449328 0.36086947 -0.92253655 -0.6282056 -0.8884834 0.568434 -0.6661977 -0.012921656 0.8782856 0.8697295 0.014005779 0.33829477 0.6483791 0.95062613 0.5994991 0.7073607 -0.6486488 -0.4868875 -0.92906797 0.41428822 -0.33240837 -0.42120355 -0.056280456 -0.72581464 -0.071925156 0.6470842 0.7806171 0.78029865 0.968544 0.6378162 -0.6563332 0.75622493 -0.06508578 0.045758843 -0.19576217 -0.3223091 -0.12728366 -0.61697805 0.5760054 -0.5707624 -0.36459768 0.7484795 0.31960365 -0.13419092 -0.5018684 -0.37039664 0.14571442 -0.41223526 -0.444858 -0.53456455 0.4446845 0.15726686 -0.9794082 0.08266547 -0.3450741 -0.18229985 0.667478 -0.19264631 -0.71991324 0.50932854 0.71618783 -0.56413794 0.79406327 0.6921287 0.73963386 0.2937261 0.80136096 -0.753206 -0.6932986 -0.27131283 0.31374276 -0.23132248 0.14555617 0.9898469 -0.7855342 0.34539127 -0.96610403 -0.8980338 -0.29793686 -0.9512847 -0.60831136 -0.3132849 0.05043009 0.757519 0.20119274 0.64205706 -0.5768843 0.023423623 -0.8028374 -0.13777131 0.7843967 -0.42752385 -0.2174633 0.34767047 -0.0568428 -0.44339424 -0.8261752 0.18076283 -0.5089958 0.82310313 0.7591585 -0.73725444 -0.54082376 0.0048458683 -0.41576755 0.03312137 0.14612257 0.15140921 0.83223695 -0.25717837 0.093741655 0.66989183 -0.70005137 0.5567444 0.88184726 0.32758042 -0.8171864 0.37889755 0.9781714 0.3240564 -0.15938878 0.76599157 -0.47443146 -0.90000564 0.8339503 0.07881522 -0.94725335 0.29912612 -0.23138547 0.38503158 0.9316567 -0.65454686 0.7184421 0.57407844 -0.06108045 -0.80556977 0.95410496 -0.179818 0.39514315 0.4283428 -0.8965314 0.957982 -0.6888312 -0.7698613 0.85614544 0.6732093 -0.8610533 -0.14540328 0.67095715 0.06682092 0.77518547 -0.27322662 -0.39748245 -0.93696433 -0.12314151 -0.9377792 0.26477364 -0.9221164 -0.9896733 0.48654196 0.72200614 -0.44747692 0.69284415 -0.016693432 -0.06610686 -0.77286184 0.38383147 -0.9478577 -0.43485272 0.27951214 0.34178984 -0.9770201 -0.6186381 0.6437684 -0.45219377 -0.92387193 0.59345555 -0.4512602 -0.3306884 -0.67817616 0.9706747 -0.87912613 -0.92459124 0.2935465 0.50280976 0.5777386 -0.17065728 0.1342786 0.09042048 0.109404385 -0.8037022 0.35726717 -0.0625243 -0.95973706 -0.041405138 0.7208236 -0.5535528 0.97652155 0.8026881 -0.2619639 -0.3471818 -0.47079366 -0.12684374 -0.7298666 0.18427251 0.5491299 -0.3926958 0.10958819 0.6564094 -0.7441844 -0.9225054 -0.7018076 -0.60500216 0.41220582 0.8131261 -0.59228635 0.6799103 -0.38109115 -0.93780166 0.942795 0.038522504 0.026078548 -0.89505136 0.60231125 -0.2523498 0.6136012 0.55461 0.59931517 0.5145726 -0.6069993 -0.4014281 -0.2423502 0.0115314135 0.8415773 -0.7268329 0.36492652 -0.44513816 -0.19298679 0.04879635 -0.21486087 -0.044511933 0.145231 -0.013529813 -0.6365739 0.7979715 -0.36645627 0.95844346 0.57897407 0.7393204 0.81060433 0.6630545 0.64906424 0.04337537 -0.9892471 0.8575645 -0.42709222 -0.5476023 -0.7118022 0.10385402 0.26238787 -0.41639864 0.24724768 0.18867512 0.9142522 -0.14403203 -0.524709 -0.5601901 0.84900737 -0.089442484 -0.8413948 -0.19453946 0.87130433 0.3629902 -0.7541281 0.11851313 -0.67553747 -0.59981126 -0.09103657 0.13288286 -0.13359152 -0.752815 -0.5444203 -0.022081017 0.18013965 0.56513274 -0.92498803 0.17357072 -0.96346754 -0.9713882 0.89775825 0.1767535 -0.25218052 -0.9526694 -0.27519882 -0.7299549 -0.5950806 -0.6910175 -0.6030196 0.40856573 -0.690096 -0.1966129 0.5177805 -0.9361531 -0.90718746 -0.06211874 0.76772517 0.5753326 0.48517215 0.77836853 -0.6415931 0.5997998 0.84587705 -0.92696244 -0.7837612 -0.43365136 0.18018234 -0.5745815 -0.15626246 -0.17980374 0.64967257 -0.0032437353 0.4526111 0.43567443 -0.50518453 -0.84473896 0.3074969 0.8696027 0.12534535 0.5572595 0.6757198 -0.34572604 0.32262862 0.70398855 0.9128701 -0.0019149652 0.67806 0.04357827 -0.34221116 -0.22512338 -0.5587565 -0.2797863 -0.20323904 -0.019832987 -0.66415864 0.89819324 -0.52070105 0.35790154 -0.3032757 0.7338566 -0.38796827 -0.6606029 0.34125453 -0.124887586 -0.016052658 0.73225677 -0.09326911 -0.27019906 -0.1760009 0.35537955 0.70875525 -0.31579864 0.7681373 0.26397035 -0.49258915 -0.46316063 -0.95964175 -0.32054734 -0.34445906 0.8063964 0.45737004 -0.49820516 0.7509429 0.26598373 0.21180822 0.04400088 0.45870566 -0.0769532 0.21173772 -0.40647286 -0.25620228 -0.0848717 -0.4844979 -0.04381898 -0.95793486 -0.2035315 0.36588526 -0.4568132 0.10764484 0.8068261 0.5018215 -0.20605464 -0.839437 0.67903095 -0.04764321 0.66213304 -0.016345626 -0.92834264 -0.5771777 0.79408956 -0.97898406 -0.040851284 -0.1773547 -0.7327897 -0.7207454 -0.95999736 -0.13330103 -0.9982121 -0.36751294 -0.6109135 0.9457715 0.6910314 0.8108666 -0.88536197 -0.6155994 -0.9979958 0.47457013 -0.6890425 -1.0064218 -0.09253017 -0.20940927 -0.6835037 -0.6761708 -0.2972987 -0.72836894 0.4793812 -0.8756415 0.9398795 0.11453163 0.17546584 0.18128598 0.7434052 -0.081376635 -0.77665746 0.5342065 0.8122044 0.13194624 -0.31923258 -0.39802602 0.6480877 -0.13626055 -0.5246079 0.7811833 -0.2157985 0.5398967 0.65396297 0.629098 -0.15523925 0.019643953 0.987201 -0.16109644 -0.40758818 -0.38573474 0.676374 -0.44467992 -0.21394795 -0.7818833 0.15198286 -0.6863275 0.32449454 0.105315685 -0.9636718 0.7097935 0.11372955 0.44065222 -0.47394836 0.45447472 0.27991018 0.057532728 -0.18824214 0.9627791 -0.7092297 0.82655585 0.96439934 0.9023107 0.85555786 0.78458136 0.68456364 0.32475716 -0.42774606 -0.6899519 -0.30156267 0.4603713 -0.8167753 -0.74219835 0.2798437 0.6825509 0.014253552 0.274112 -0.91137415 -0.039669674 -0.86796945 0.18799855 -0.73442924 -0.4807028 -0.1159618 0.43780363 0.7171188 -0.4413529 -0.46057534 -0.31498384 -0.8629818 -0.1230489 -0.82362634 0.48008662 0.15299082 -0.27874565 0.51922446 0.0061078956 -0.7551665 0.7659098 -0.43241268 0.25059727 -0.27684188 0.15743479 0.30116373 -0.22142726 0.027956888 -0.8910302 -0.69419163 0.5763516 -0.5699865 -0.940418 0.046948034 -0.07982728 0.3106611 0.7744169 0.10709015 0.09280405 0.32733303 -0.35301024 0.32912153 0.55269074 0.82921535 -0.4228657 0.16818383 0.304058 0.9085543 0.55403405 -0.06665325 0.3166291 0.14156553 0.2774372 0.5431211 -0.41333893 -0.9826491 0.8508936 0.8162461 -0.783488 0.65355027 0.6826571 -0.14435689 -0.96714807 -0.8839042 -0.8039757 -0.2918364 0.6967616 0.7776488 0.1703392 0.85120994 0.3751061 -0.64405257 0.16035394 -0.40063238 0.19042408 -0.9183251 0.47791716 -0.20085429 -0.921317 -0.4257731 0.61383325 0.8177612 -0.7568217 -0.6516874 -0.68830824 0.05235433 0.1894341 0.6435744 0.75381535 0.05413011 -0.58622897 -0.80906713 0.89029187 -0.7523986 0.4401681 -0.3957196 0.2505225 0.07327977 -0.49577093 0.7775183 -0.8128453 -1.0029439 -0.5991084 -0.049079414 -0.95143324 0.5117394 -0.27295744 0.52576184 -0.8126669 -0.94982344 0.42292836 -0.96019983 -0.31173152 -0.3270401 0.22635837 -0.5057201 -0.18207182 0.27952954 0.25187498 -0.21233472 -0.47156385 -0.04390634 -0.60987586 0.2556435 0.22019297 0.52826065 0.33483666 0.26481438 -0.0021904216 -0.34597877 -0.209274 0.024150338 -0.044023972 -0.7905191 0.542055 -0.57019514 0.94020134 -0.44792208 0.37355778 -0.16504651 0.2974354 -0.79597074 0.6684062 0.011495016 0.30780482 0.7839628 -0.003893388 0.4538865 -0.2749734 1.0103774 0.83060765 -0.06200239 -0.57947 0.57718754 -0.0880992 0.24748625 -0.47325468 -0.3731981 -0.5594709 0.95236963 0.8529818 0.30395615 -0.2674115 -0.2119589 -0.27053392 0.7181406 0.4057843 -0.3140862 0.97574174 -0.047292765 -0.4201318 0.61882406 -0.20093967 0.19932887 0.6635525 -0.9035033 0.04327149 -0.8517259 -0.10695635 0.314935 -0.8918021 0.11811501 0.4482598 0.25073734 0.2502552 -0.91393983 -0.8472267 -0.4061627 0.6995423 -0.83018136 -0.10619873 -0.3888551 0.9804068 0.61017114 -0.20856562 0.7108349 0.9666022 0.48001966 0.8282382 0.13299292 0.12951298 -0.7415965 0.7812345 -0.5843027 0.6965268 -0.1635085 -0.120972835 0.26195428 0.8206189 0.07756173 -0.64206016 0.39658922 -0.6130733 -0.44430962 0.7726797 0.713578 0.7801509 0.9934129 0.9029601 -0.09469447 0.50284976 -0.72001183 0.65640634 0.018049875 -0.87825066 0.42532498 -0.87502825 -0.40821582 -0.68018776 -0.28825977 0.48674667 -0.51539373 -0.5203465 0.5610552 0.61284447 0.22591776 0.4473256 0.76970065 0.29921144 -0.9368006 0.75048757 -0.6071573 0.8036694 0.46560064 -0.27785045 -0.8979342 0.022937343 -0.0057347077 -0.9624115 -0.69584095 0.4364875 -0.97341454 0.8266758 0.71745455 -0.9594441 0.54116493 0.18557456 -0.11726889 -0.4158576 -0.9477781 -0.20865446 -0.84018594 0.5226827 0.033749085 0.55156213 0.88599825 0.9599422 0.1699419 0.95259583 -0.005441169 0.85224134 0.11742672 0.5838609 -0.7301082 -0.17670512 0.35578197 0.8833314 -1.0000498 -0.19808018 -0.89620566 -0.21834031 -0.20199795 0.6815606 -0.86911964 -0.30446243 -0.3753632 -0.7140226 -0.8739005 0.70450616 -0.26148835 0.8244773 -0.4889027 -0.41748998 -0.15575966 -0.07255555 -1.0263033 0.34263235 0.3978886 -0.2007617 0.43892628 -0.2081054 0.58876824 -0.5420031 -0.27784443 0.7007424 -0.7858522 0.046100773 -0.58790386 0.37194765 -0.94794714 0.47745213 0.23118098 0.6959919 -0.6953359 -0.3628411 0.60641456 0.10835653 -0.08301984 -0.71884596 0.9088216 0.181855 0.020139234 0.6303811 0.06982854 0.28312013 0.062750794 0.8097724 0.7479237 0.45038947 0.8058774 0.093649864 -0.59084946 0.41271946 -0.17247318 -0.37941074 -0.67693704 -0.5841027 -0.85911417 0.7140232 0.45136458 0.8311043 0.19601248 -0.7200354 0.7349712 -0.6277868 -0.02668946 -0.9944378 -0.91123223 0.5449287 -0.54205143 0.49303612 0.49637002 -0.8889447 0.4531606 0.48175013 0.42130226 0.43827674 0.25014687 -0.4318024 -0.70723575 -0.7467539 -0.5746298 -0.78785396 -0.37788814 -0.545444 -0.9756529 0.77901095 0.14726195 0.9686202 0.6566823 -1.0072031 -0.18625276 -0.2725291 0.3559681 0.3109674 0.7224908 -0.22066683 -0.50501895 -0.62008196 0.302997 0.64147633 0.19530469 -0.36899966 0.92474 0.88576967 0.7591678 0.23670882 0.510073 0.7270306 0.012700915 -0.18749702 0.62095076 -0.6071332 -0.64645517 -0.7744525 0.9508688 0.85193974 0.44739336 0.9936541 -0.96419895 -0.9963379 -0.87422055 -0.8396898 -0.48518288 0.14650035 -0.5239656 0.89746475 -0.20844054 0.7106555 -0.33676276 0.6258457 -0.17076118 0.8675846 -0.35650414 -0.093485214 0.7929519 -0.14112875 0.50589633 0.21055184 0.04879479 0.74537426 0.9710343 -0.84414655 0.79020137 0.9197854 -0.04598218 0.8756469 -0.9432847 -0.4382554 -0.26396075 -0.4371314 -0.9096203 0.18120982 -0.33943966 -0.25974804 -0.22379866 -0.7283608 0.06874007 -0.9932281 0.95833784 0.08704065 0.4365345 -0.6452767 0.90850455 -0.4921924 0.7609706 0.0713139 0.43068552 -0.23621477 -0.4383639 0.54538864 -0.104732834 -0.5964495 -0.014557267 0.020922655 -0.58960545 -0.072147705 -0.514499 -0.8657267 0.9441468 -0.50966865 -0.83071405 -0.05904601 -0.30484703 0.8041944 -0.21429765 0.80437326 -0.39391536 -0.10524362 -0.73009473 -0.2617533 0.38342723 -0.36252064 0.22915632 0.9452855 -0.839174 0.81368095 0.81133914 0.6423593 0.2039314 -0.1448356 -0.31045622 -0.5666481 0.40123338 -0.77435344 -0.24952267 0.06468402 -0.014541976 0.13670534 -0.6012484 0.23027827 -0.94320905 -0.75421864 0.7202102 0.4421143 -0.6927247 -0.039701026 0.69589 0.6566848 -0.42213163 -0.8741278 0.6471621 -0.4582324 -0.21696495 0.53403306 0.12583095 -0.7764784 -0.8013524 -0.43272045 0.5672617 0.239448 -0.1640254 -0.18910596 0.6253596 0.9264187 0.6394919 0.8184829 0.12787226 0.6136423 0.755562 0.5477136 -0.2144841 -0.48776782 0.4979409 0.4408859 -0.39382288 -0.5170006 -0.5068666 -0.7097362 0.16370238 -0.14583112 -0.9877512 0.572639 0.9004721 -0.13710093 0.6545805 0.17117152 0.22489123 0.44537497 0.28369093 0.40243697 -0.88225025 0.9748716 -0.04376964 0.50173235 -0.5179719 -0.13994765 -0.058138307 0.03335043 0.95248413 0.8624497 0.5803072 -0.21877487 -0.35312086 0.10227073 -0.45638782 -0.7596508 0.091963656 0.44320014 0.109298475 -0.7112345 0.5770228 -0.124718636 0.98364174 -0.22358537 -0.97917783 -0.66361314 -0.3260196 -0.32885468 0.9759217 0.52609915 -0.22227262 0.9571889 0.32144323 -0.012879056 0.27557957 0.6458439 0.46069792 -0.009816304 0.34657243 0.46795186 -0.9008464 -0.046331443 -0.14870222 0.51714915 0.36094767 -0.39663255 0.3195154 0.85733086 -0.32948503 -0.9297925 -0.6671224 0.9229433 -0.918273 0.5088809 -0.15583341 0.93434566 -0.07273203 0.6964453 -0.75031525 0.18646067 0.5117837 -0.5150187 -0.27110553 0.6939152 -0.955941 0.1835349 0.4296047 0.17195098 0.33916438 -0.6280868 0.07077087 0.34569615 -0.5955288 -1.0373772 -0.70301384 0.9883252 0.80707824 -0.6610875 -0.65638447 -0.7823724 0.94760513 0.6408106 0.85727525 0.93460166 -0.074372575 -0.022105169 0.829627 0.8937791 0.38149938 -0.402326 -0.3356035 0.6490875 -0.06682369 0.44573453 -0.70675015 0.8814612 -0.64280254 0.7124321 -0.49802637 -0.6444909 -0.1622554 0.8573094 0.7284396 0.0068401718 -0.23630965 0.6316073 -0.8705613 -0.22474171 0.6039543 0.42496914 0.25501743 -0.68000823 0.67137223 -0.5309028 0.28582436 0.6335175 -0.4127548 -0.059909254 -0.19485827 0.26005054 0.0844464 -0.21801715 0.37934956 -0.404796 0.9327087 -0.1699847 0.0459851 0.5965433 0.08267765 -0.9501812 -0.29408705 0.31651106 0.5166001 -0.021654358 0.41770896 1.0040036 0.03618622 0.9758409 -0.42545033 0.26432836 -0.34331146 -0.37630725 -0.16695577 -0.6688981 0.13836655 0.31747496 0.34769803 0.820021 -0.16927671 0.43442887 -0.69836503 0.18810567 0.28468534 -0.69409096 0.52399886 0.71564555 0.9228925 0.6465834 -0.6418542 0.005668997 0.73514605 0.8259986 -0.8554214 0.6467913 0.31768984 0.14345157 0.6540976 0.81198 -0.6668642 0.89433503 0.9423559 0.5946844 -0.15305741 0.64641196 -0.88512856 0.79767567 0.583361 0.14520246 -0.5310098 -0.27515012 -0.57562137 -1.0048025 0.71279323 0.20465164 -0.10115745 -0.15514927 -0.81260514 0.88683015 0.36914045 0.31209487 0.6760336 0.83567977 0.44011196 0.8845728 0.6488708 0.92542887 0.19566773 0.66010654 0.28285605 -0.55788296 0.6747551 -0.57710207 0.5309262 0.5532483 0.3977836 1.014324 -0.946207 0.7166543 0.27079597 -0.38416058 -0.86108947 -0.536528 0.47598118 -0.84935015 0.61026186 -0.76544005 -0.61897874 -0.27596307 0.38411692 -0.9142548 0.10861922 0.16957377 -0.30504215 -0.7502066 -0.79403484 0.42409247 -0.3238017 0.8895928 -0.7255531 0.3633051 0.2696329 0.21206489 0.38904434 0.96622354 0.032778054 0.54036266 0.37425566 -0.24616343 -0.6977086 0.15074515 0.11264165 -0.8459169 0.5019456 -0.8829319 0.38879195 0.25266844 -0.50703776 0.0831295 -0.51404965 0.37620258 -0.14038122 0.53357494 0.71433085 -0.7429952 -0.4169244 -0.5204919 0.79097986 -0.8043061 0.41869488 -0.4473045 -0.69057035 0.35044128 0.80053306 -0.75658786 0.96347845 0.31691515 -0.025883006 -0.76647097 0.02437735 -0.16208921 0.28770524 0.08809027 -0.46666583 0.6187547 0.102607496 0.34273472 0.9681252 -0.03871807 0.35571095 -0.8002745 0.48953217 -0.6535133 -0.97654486 -0.538288 0.91588205 -0.6375022 0.0044653704 -0.7120969 -0.78037363 -0.14250503 0.5411241 -0.8888556 -0.5395083 -0.06907016 -0.70799166 0.25269508 0.20673206 -0.45465365 -0.79708135 -0.6877634 -0.6924274 0.7159852 -0.54844147 0.20166364 0.7389236 -0.47970974 0.47834158 0.3201401 -0.37425247 -0.55571085 -0.21797101 -0.30515027 -0.107675046 0.020705147 0.09026901 0.81160986 -0.009800707 -0.7202889 -0.8034799 -0.8797032 -0.91744167 -0.46627364 0.5863909 -0.09472377 0.8356369 -0.18456027 -0.5647179 -0.2450988 0.20263247 0.7983884 0.24029213 0.29255307 0.07512163 -0.5691003 -0.64529586 -0.92574143 0.49629316 0.9783055 -0.08229741 0.33517224 0.7858184 -0.6861421 -0.9589584 -0.33899105 0.3875581 -0.75220376 0.77206016 -1.0026702 0.10626362 -0.37932858 0.102868795 0.336972 -0.20216563 -0.9477019 0.08892762 0.09018459 0.96934474 0.44700408 -0.066787206 0.8648114 0.48273003 0.84571207 -0.9963021 0.61954397 0.37805936 0.17834686 -0.031301793 0.3747729 -0.31853443 0.12348982 -0.59491974 -0.08363329 0.075492166 0.43964416 -0.32531056 -0.41317964 -0.962337 -0.66978776 0.14736846 -0.36963034 1.018144 0.81772095 -0.9033068 -0.36066404 -0.78719616 -0.018831233 -0.31739968 -0.41803187 -0.35744756 -0.3778829 -0.77387077 0.7046365 0.99271524 -0.4884873 -0.1098658 -0.55881107 -0.92677146 0.6189981 0.25727257 -0.23798336 -0.9090427 0.15855181 0.45673782 -0.94507045 0.45950288 0.7078712 0.587048 -0.53801334 -0.082521856 -0.9418868 -0.29131886 -0.20506212 0.28567168 0.25577128 0.99550086 0.5536759 -0.3654621 -0.9511464 0.69572747 0.03991735 -0.28383952 -0.3718611 -0.069718555 -0.5722449 -0.55763435 0.027702354 0.41451788 -0.13227215 0.5665918 0.3782372 0.8567062 -0.83862966 -0.57575506 -0.9184054 0.13882048 -0.5394416 0.9487422 -0.055233274 0.2895371 0.9046553 0.3247988 -0.17235593 0.23994938 -0.26766467 -0.5151736 -0.21519227 0.8916478 0.2686033 0.75951433 0.21078756 0.2784351 0.2537754 0.5875681 0.9602747 0.32240874 -0.83586675 0.025008118 -0.7583904 0.6717172 -0.8208326 -0.71010315 -0.09047677 -0.7035099 -0.80306745 0.20815471 -0.074899 -0.88834155 0.32629415 0.13387446 0.24301319 0.5447715 0.5378608 0.69782543 -0.51614666 -0.7236414 0.7760323 -1.0351628 -0.7128615 -0.13047814 0.8231473 -0.9409418 0.5269443 0.0013394764 -0.765378 0.5589859 -0.18084534 0.7025267 -1.0005534 0.91045475 -0.48240775 -0.67841274 -0.9216379 -0.834551 0.18457395 0.34434795 0.11961293 -0.47646177 -0.3586548 0.7270254 0.7256397 -0.92694455 -0.42686775 0.72122526 0.6968988 -0.5565216 -0.40886077 0.62683976 -0.7261666 -0.09923099 0.016273594 -0.1679144 -0.96478367 0.6833449 -0.86909294 0.49817684 -0.03140415 0.31711128 0.6449655 0.052248206 0.9951968 -0.9930027 0.6430737 0.531227 0.79323566 0.101148374 0.72068197 -0.3543052 -0.020709163 -0.07338098 -0.41206613 -0.6539558 0.5028808 -0.47693813 0.111610085 -0.079375856 -0.35821712 0.21271846 -0.7591922 0.63113797 0.20031571 -0.037641514 -0.411547 0.042919453 0.26290712 0.04532699 0.46714965 0.766479 0.4596938 0.76460904 -0.11717737 -0.39219263 -0.9187766 -0.522418 -0.49537596 0.13656153 -0.14049612 -0.43425608 0.01580212 -0.47583693 -0.3185593 0.7914678 0.55773056 -0.5045551 0.67780966 0.19785266 -0.7628235 -0.34826833 0.7269195 -0.28993607 -0.3587887 0.083121695 0.4213404 0.73061955 0.030325288 0.7819296 -0.064184576 0.18324184 0.67297935 0.13546021 0.12372414 0.6303038 0.9833687 -0.530647 0.67738634 0.48308772 -0.27852085 -0.5517885 0.5269642 -0.22527999 0.4961327 0.64988613 -0.3992074 0.099845886 -0.45594066 0.18791088 -0.9457694 -0.7672791 -0.71674836 0.44891867 -0.8357028 -0.36644372 0.45370007 -0.622016 0.63104016 -0.8958472 0.39866778 -0.9366013 0.009432371 -0.9156929 -0.46759278 0.95033395 0.53287387 0.024357934 0.55035555 0.88711816 0.7862648 0.53580415 0.98281467 -0.40899774 -0.96986 -0.8723631 -0.22182813 -0.10673216 -0.08202128 0.19138514 0.9798285 0.42571622 -0.044038635 -0.5607781 0.16345188 -0.88420284 -0.3110317 0.008446358 0.6946726 0.9654838 0.56962556 -0.943103 0.59540534 0.8854305 -0.22470234 -0.6524435 0.42966837 -0.79887193 -0.9781456 -0.7219075 -0.24647488 0.57304573 -0.286845 -0.4845568 0.30663106 -0.8623091 0.7044507 -0.15690774 0.9944461 -0.53108054 -0.012136096 -0.56332576 -0.43858016 -0.38288206 -0.38408524 -0.49284235 -0.056689527 -0.77938396 -0.0113022905 -0.16069424 0.53246725 0.9583106 0.4313936 0.9302327 0.32166418 -0.17161506 -0.38408202 0.28454086 -0.5000243 0.7633641 -0.31015605 0.9094794 -0.68263465 0.6843097 0.4027562 0.07803335 -0.81803423 -0.68864906 0.5569898 -0.23156798 0.9168045 -0.821436 0.8527413 0.4442265 -0.16590844 -0.87872684 0.773203 -0.24657598 -0.4249458 -0.94792646 -0.85842264 -0.59930354 0.22840275 0.5794041 -0.034247186 0.6496287 0.3659253 0.44443607 0.17137633 0.89597946 0.56787366 -0.9954752 0.27125064 0.07033162 -0.9857141 -0.12677397 -0.2972268 0.4377262 0.6323767 0.008496108 0.78661263 -0.06623068 0.6904305 -0.80577624 0.002152157 0.9771913 -0.78124225 0.89060676 -0.25000033 0.7597758 -0.9585113 0.7541235 -0.6835608 0.21246025 0.7919254 0.16323702 -0.3645315 -0.34120688 0.05586077 -0.46857643 -0.16020441 -0.66476285 -0.18594459 -0.012804077 0.41919944 0.022418179 -1.0077522 -0.78451544 -0.37594733 -0.067872904 -0.113406986 0.35166752 0.34183353 -0.95071983 -0.60783446 -0.03445697 0.6134441 -0.24331859 -0.2852053 -0.8871367 0.16212636 -0.71718746 0.7702808 0.2562434 0.766006 -0.068335585 0.06365622 -0.71199834 -0.006238607 -0.079395875 0.33596483 0.53417766 1.013394 -0.13293788 -0.4556431 -0.33435425 0.8703991 0.6660473 0.1170288 0.42975137 -0.26278636 -0.19998859 -0.88042325 0.17579927 -0.62590617 -0.90929365 -0.19877838 -0.5778732 0.036544655 0.44377998 -0.80189383 -0.90513384 -0.8879167 -0.43310738 -0.21584238 0.96231896 0.3935051 -0.31213763 -0.6675589 -0.47760886 0.46684563 0.70512897 0.6089703 -0.37197462 0.14803417 -0.48446688 0.26075542 -0.25096253 -0.23203067 -0.5673832 -0.44857076 -0.9866522 0.31342137 0.8494379 -0.06677865 0.78606474 -0.74492115 -0.06764001 0.6750083 0.3362742 -0.81636596 0.03479241 -0.7364378 0.98150826 0.95079356 0.6624193 0.504862 -0.010049976 -0.81399125 -0.031179035 0.75307393 0.97845846 -0.022079973 -0.94262016 0.5902878 0.9804863 -0.37794387 0.48914364 -0.14239538 0.23187537 0.26120898 -0.03712172 -0.43110085 0.4098449 0.29067948 0.17990978 -0.1905431 -0.70489115 0.3747965 -0.42196602 -0.51840085 -0.44625133 -0.648061 0.78336155 0.80942523 0.6384995 0.11033062 -0.048741963 0.31907094 0.374794 -0.67016906 0.59481466 0.46450496 -0.011509103 0.30441082 0.26710838 0.7379038 -0.038537268 0.50306696 0.5669162 0.3777002 0.62941635 0.886372 0.7033367 -0.49603513 -0.123824656 -0.3274047 0.63459945 0.25254992 -0.46256632 0.6837401 0.68127906 -0.3939156 -0.5898101 -0.92020196 -0.1769879 0.05517767 -0.2767597 0.24081613 -0.5347923 0.016452 -0.23662207 0.16966856 0.14021993 0.33463243 0.12733904 0.36373103 0.6863069 -0.11773787 -0.97867566 -0.36279592 0.8258962 0.74405855 -0.77436036 0.012048649 0.8666011 -0.99045223 0.32497567 -0.43892592 -0.12510502 0.8587868 0.2662951 0.13046277 -0.76733595 0.22081195 0.43759045 -0.37945268 -0.8234341 0.24554062 0.6397822 0.86768526 0.14313543 0.17380005 0.68323684 -0.045335274 0.6430822 0.554695 0.38525864 -0.8214427 0.07128585 -0.01989622 -0.18031102 -0.24001716 -0.20624463 0.80861646 -0.23695207 0.55264896 -0.6355668 0.80437404 -0.10570656 -0.19512069 -0.1492903 -0.7003574 0.91614974 0.5447259 -0.5618514 0.4775288 -0.83056396 -0.12835893 -0.19525385 -0.019201089 0.69435513 -0.6900041 0.67257786 -0.29634765 -0.14150171 0.5915653 -0.049917538 -0.60444665 -0.8321228 0.14833464 -0.061087266 -0.73455507 0.18219702 0.95271486 0.50912774 -0.9781416 -0.27463722 -0.0813664 0.41560316 0.027957188 0.5562171 0.56799906 -0.3551272 -0.8614293 0.19009145 0.4699997 0.3150557 -0.025339656 0.48661855 -0.5736927 0.6810106 -0.9101963 -0.74796426 -0.92946696 -0.8666921 -0.1957395 -0.9951622 -0.35802382 -0.23948637 0.675637 0.8885408 -0.35811028 0.40672246 -0.58444315 0.94482505 0.45571253 0.026401518 -0.055938493 0.045915946 -0.22403587 0.022644438 -0.64289576 -0.39651003 -0.05474603 -0.9122835 -0.62636065 -0.8317674 0.044319045 -0.70711327 0.052209284 -0.91261256 0.12670922 0.6380668 -0.86142904 -0.034722302 0.85743016 0.02451079 -0.80077976 0.30423972 -0.33552983 0.5793682 0.6563385 0.59869134 -0.5072382 0.41218406 0.5416819 -0.09905215 -0.7765379 0.44754484 0.843882 0.8784073 0.3888371 -0.4184879 -0.83374846 -0.566652 0.583989 -0.33919343 -0.039848264 -0.61863005 0.71356076 0.8231314 -0.5307559 0.25171208 0.86101764 0.41496822 -0.45917404 0.2156879 0.103269204 0.6141305 0.08721452 -0.34198618 -0.96317387 -0.88150656 -0.52429473 -0.60359406 -0.7115433 -0.5140926 -0.20812246 -0.54769313 0.31263244 -0.36954805 0.552202 0.022524552 0.3652331 -0.16148517 0.9177207 0.24542724 -0.7748026 0.10576238 -0.8854804 0.084279016 0.6673488 0.081316486 0.4536836 0.7669223 -0.6845608 -0.91197664 0.21295953 -0.60481876 -0.021338955 -0.6767385 0.7650555 0.47672194 -0.23144227 0.22740649 -0.6419597 -0.54968756 0.15070225 -0.70312476 -0.97404647 -0.50736845 1.0158929 -0.32352018 -0.5361241 0.01702783 -0.72664565 0.6361559 -0.20975456 -0.23723549 0.9382953 -0.6770732 0.5715112 -0.7958278 -0.15836425 0.28418806 -0.8169756 -0.27904373 0.8610449 0.22348256 -0.012753983 0.3513575 -0.34322006 0.31580874 -0.9953068 -0.47492605 0.87479293 0.9668492 0.5859143 0.28373346 -0.2810786 -0.8127706 -0.9404163 0.03876185 0.025539553 -0.620838 -0.820539 -0.089755714 0.11318633 0.522658 0.42165264 0.7047518 -0.15878108 -0.16349363 0.54619265 0.78791016 -0.17070116 0.24458641 -0.8682383 -0.51893884 0.21900274 -0.8935464 -0.63925236 0.032515466 0.64422786 0.87950104 0.30396408 0.89503646 0.67311096 0.04716882 0.016018087 0.35046396 -0.83933645 0.04556919 -0.8896761 0.8185867 0.7113434 0.01914565 -0.10771473 -0.79341704 -0.061905485 -0.085751206 0.05254653 0.11599703 -0.5541019 0.93729866 0.59955186 -0.22619243 -0.38215983 0.13532895 0.10676015 -0.037030794 0.75048244 -0.5301099 -0.8254838 0.9470079 0.80977863 0.72841805 0.08284113 0.34840944 0.8373276 0.6424386 0.50716066 -0.22499214 0.037158854 -0.31833473 -0.6666208 0.8873835 -0.34303796 -0.44602063 -0.5268319 0.84666693 0.8388122 0.8622497 0.95784 0.5558805 0.6180357 0.21673658 0.50492835 0.31103873 0.7854601 -0.5632805 0.86804664 -0.0016103827 -0.053591464 -0.9244407 -0.4060368 -0.0026143931 -0.39705044 -0.020333584 0.04804314 -0.29051596 -0.52948195 0.76739246 -0.51583135 0.8913301 -0.45364314 0.42999238 -0.09428256 -0.8415609 0.3744642 -0.20820254 -0.24209866 0.32550514 0.6465034 -0.040213797 -0.26749215 0.25988072 -0.5607442 0.47407815 0.73522085 0.9140388 -0.3539903 0.54634976 -0.78164876 -0.7566098 0.74198085 -0.9190788 0.87537694 0.08353906 -0.24148764 -0.2764235 -0.060084276 -0.54385555 -0.62283534 -0.60172296 -0.7809843 -0.5336215 0.72039974 0.6768156 -0.23161848 0.8289666 -0.5696156 -0.09234595 0.9472349 -0.17403397 0.39727423 -0.26798695 0.16386499 0.1791187 -0.7615409 -0.6382299 0.9608521 0.11709749 -0.5325659 -0.45964074 0.92822075 -0.78853023 -0.6176052 -0.098081626 0.67094296 0.9514158 -0.37278116 0.24411695 0.6154564 -0.28560656 -0.19474019 -0.5140018 0.5384241 -0.26167655 -0.2325485 0.5158337 -0.32805634 0.8494661 -0.67056227 -0.43656942 -0.9408298 0.58010215 -0.33559287 -0.64666283 -0.7822063 -0.6690843 -0.68393445 0.5039557 0.31053072 -0.8297636 -0.6284872 -0.24567233 -0.5475497 -0.40089422 0.532375 -0.67145073 0.95174295 -0.81353223 0.039323196 0.36874175 -0.22054686 -0.92254496 -0.5553044 -0.5727377 -0.9200912 0.62619936 0.13956952 0.3983687 0.46795973 -0.8147261 -0.77053046 -0.32651505 -0.4749237 -0.14295456 -0.22007617 -0.32921627 0.23808217 -0.9414059 -0.99153274 0.87575525 -0.4861753 -0.23598136 -0.6630259 0.5634375 -0.3002007 0.7752201 -0.6591886 -0.9846867 -0.5247625 -0.943548 0.48550016 0.9236529 0.4358409 -0.058544412 0.7120584 1.0141484 0.26450008 -0.9034392 -0.60885674 -0.22217664 0.61656773 -0.7761152 -0.6770801 0.95470226 -0.005511181 0.6186306 -0.27091223 0.0059059975 -0.61201036 0.31543857 0.12979572 0.037579224 0.9484071 -0.35258085 0.25529316 -0.1807445 0.32787955 0.13625228 0.63983107 0.69699055 1.0108829 0.5198139 0.98153174 0.39020178 0.07395303 -0.06808426 -0.69261277 -0.33857575 0.18022014 -0.882342 -0.47671238 -0.2929554 0.24905771 -0.007924578 0.38736537 0.43774745 0.8739438 -0.14763163 -0.064555764 0.82762 -0.79187965 0.7000908 0.02559388 -0.45538175 0.43665946 0.5861748 -0.71195287 0.40021363 0.91389984 0.64750785 0.9227945 -0.5199552 0.9018193 0.4329806 -0.57576 -0.6537182 0.7316647 -0.56915736 0.884501 -0.18588161 0.8114699 -0.2238357 -0.6942864 -0.22590634 0.42446715 -0.70349586 -0.6625515 -0.67552805 -0.538255 -0.9195407 0.19484273 -0.022635167 -0.42981353 -0.65226656 0.23082103 0.16458559 0.9127186 -0.2935604 0.88746333 -0.9286284 0.79883605 0.67483264 -0.053384244 0.63410807 0.5560893 0.57239485 -0.9235439 0.8317823 1.0042828 -0.5177135 -0.5948552 -0.12830627 0.32886955 0.580023 0.4550708 0.5394647 -0.5221465 0.90451914 0.08149823 -0.75977874 -0.13882689 -0.09756279 -0.028191732 -0.50148326 -0.078237645 -0.31766278 0.7421527 -0.5218793 0.10363916 0.37697244 -0.694034 -0.51209575 -0.47853664 0.91457826 0.5339076 -0.7645319 -0.76002884 -0.9690267 -0.9306304 -0.61221325 0.22168374 -0.2519856 0.52447575 0.61757714 0.45597306 0.55954874 0.19046225 0.2021423 -0.08307379 0.63727814 -0.45147544 -0.53001606 0.08029699 -0.32416677 0.41514057 -0.39434654 0.3845308 -0.8597239 0.1925121 0.8484348 -0.1708428 -0.074002765 0.053590044 0.8671962 0.72036004 -0.13546187 0.20022361 -0.4035643 -0.3432446 0.3839151 -0.5804992 0.68916446 0.0075108605 0.6609831 0.17571993 -0.5972539 -0.43724203 0.053594343 0.7433715 -0.8108287 -1.0231141 0.35816658 0.1268034 0.5373002 -0.7552938 0.21215108 -0.86504424 -0.86267203 0.43892294 -0.22740442 0.19511086 -0.8709484 -0.6880378 -0.14158279 -0.571062 -0.18725824 0.8715739 0.41945732 -0.6679976 -0.8093725 0.06433235 -0.90024817 0.6719153 0.8276667 -0.82511765 -0.017506752 0.62475157 -0.7787464 -0.8142211 0.31014085 0.012051125 0.873795 -0.5218186 1.004688 0.86007535 -0.6134489 -0.1378746 0.7006919 0.8473718 -0.66434216 0.72299707 -0.84208024 0.38000146 -0.15506357 0.25125903 -0.8860027 0.73142207 0.95748234 0.81752264 -0.24085425 0.60885954 0.8310753 0.010713535 0.09643901 0.076383285 0.72414553 -0.73006004 -0.8162564 -0.2189213 0.24391422 -0.9033094 0.25861773 0.9418701 -0.7118477 -0.06915415 -0.5876403 0.47498345 0.21123977 0.23110008 -0.7410569 -0.09140569 -0.067668445 0.044226892 0.2247886 0.771167 0.634255 -0.22241479 0.35484236 0.5768742 0.8065019 -0.65078306 -0.5996482 -0.6194382 -0.7768931 0.61385155 0.14662401 -0.91939646 0.6463196 0.83575827 0.34398955 -0.205033 -0.16954042 -0.9125145 0.43890488 -0.30375433 0.83022976 -0.1457336 0.28484368 0.07507207 -0.9335686 0.058281355 -0.8492653 -0.4780774 -0.98706657 -0.36646175 0.09822222 0.54072636 0.5451632 -0.68733495 0.14569539 0.26584622 -0.7637396 -0.6863537 -0.8855423 -0.8213428 -0.7573138 0.6000958 0.44841745 0.50751245 0.9277211 0.41097724 -0.86043113 0.9268327 0.8189615 0.6664776 0.5180719 -0.6864735 -0.07629288 -0.3476641 -0.026739255 -0.99623793 0.44258115 -0.19023025 -0.31835592 0.8352782 0.75234866 0.51571643 0.6973855 -0.62485737 -0.49226856 -0.8214929 -0.52519614 0.4534645 -0.8923632 0.5970381 1.0312172 0.0069765756 -0.70971304 0.6779254 0.39538378 -0.7763295 -0.528441 0.40563697 -0.06653807 0.5300597 0.9966508 -0.8998891 -0.030388651 -0.6585899 1.0162692 -0.31738275 -0.82055485 0.7088889 -0.8145968 -0.34162697 -0.7294144 0.18778017 0.7023192 0.27566406 -0.81050175 0.44566143 -0.38560987 -0.92306477 -0.3399316 -0.5175215 0.18808323 0.7814978 -0.9669952 0.25638273 0.14489004 -0.15785694 0.16087395 0.93675464 -0.8213063 0.9224241 -0.75654656 -0.2824095 0.08585447 0.51546586 -0.061240714 -0.672244 0.07936979 0.41705227 -0.30078158 -0.08828322 0.81068873 0.20928498 -0.4450971 0.7184934 -0.31656027 -0.8843425 0.30447453 0.993173 0.7826129 0.5832673 -0.20626956 -0.794693 -0.7822179 -0.60843015 -0.7527787 0.81955725 0.669938 -0.020658981 0.6571233 0.010392235 0.0492957 -0.25368586 -0.7399198 -0.9400589 0.23637459 0.079306394 0.9061471 0.6885489 0.3365845 -0.8488899 0.07802782 0.94648737 0.80295396 0.41248983 -0.36644292 -0.3053406 0.8169296 0.7660209 -0.37894064 0.81526977 -0.2128189 -0.7414841 1.0217522 -0.2460478 -0.355902 -0.39127353 -0.9202237 -0.96940786 -0.6947335 0.25935727 0.2635062 -0.20637323 -0.121957846 -0.2836463 -0.43715605 -0.51763576 0.2716185 -0.095837586 -0.96363574 -0.46955976 -0.084097944 0.37113887 -0.83817875 0.51149654 0.25684905 -0.41211224 -0.67441183 0.6011678 -0.96015745 0.9824453 -0.26841253 0.922655 0.030378267 0.77234644 -0.67654663 0.38344532 0.5080309 0.82155347 -0.6269052 -0.8444505 0.054831825 0.065308794 0.800089 -0.42327452 0.5995545 -0.5662177 -0.7602282 0.63192 0.8263765 0.38091812 0.34121454 0.61755484 -0.36971945 0.4246813 0.6914594 -0.8222219 -0.87805337 0.5024776 0.6564688 -0.9022403 -0.052798327 -0.84286726 0.7174028 0.8883697 0.7856492 0.7888531 -0.6676608 0.9966459 0.15004112 -0.03289535 -0.14331019 0.12714176 0.7273172 -0.4583877 0.64623857 0.07962065 -0.23678565 0.6181392 0.8313416 0.5009563 -0.05674177 0.059922274 0.014337041 0.06431055 -0.2471748 -0.5628881 -0.31076434 0.7290702 -0.90647846 0.5915146 -0.029053403 0.8656144 0.9405402 -0.8567165 -0.46629968 -0.46275392 0.7018462 0.7340834 -0.8140674 -0.2277648 -0.8847539 0.9256885 0.7615822 0.23433825 -0.44843844 0.686398 0.7083265 0.25787038 0.113437764 0.18362355 0.7914412 0.3367481 -0.8528138 0.24866423 0.92286783 0.8189624 0.78626406 0.4440763 -0.008816009 -0.83172435 0.28750205 0.38826713 0.7137129 0.12684539 0.15458569 -0.6784347 0.41855675 0.012682839 -0.8374768 -0.53159803 -0.7313282 -0.15436001 0.7151805 0.44070005 0.30047256 0.9463593 -0.48260668 0.20226817 -0.446869 -0.2076681 -0.6289014 -0.9496806 0.03860711 0.823364 -0.20247844 -0.47975785 -0.31339315 -0.3671024 0.1852792 -0.9208124 -0.4107467 0.8930046 -0.123224564 -0.3120423 0.8873686 0.05454436 -0.7446735 -0.21707004 -0.94685584 -0.5446957 -0.17965436 0.7079325 -0.7048004 -0.7086931 -0.2967206 0.9144015 0.33400086 -0.48422313 -0.20809068 0.68269736 -0.2598092 -0.92989826 0.7998746 -0.1676301 0.60823154 -0.62297606 0.621019 0.5677774 -0.08021421 0.00755969 -0.5826396 0.45552438 0.8968549 0.8725033 0.07357567 -0.6925831 0.68641824 -0.6681911 -0.20999004 0.90751153 0.57810456 0.28596628 -0.05995035 0.31672674 0.7790751 0.7682973 -0.7403453 0.8770769 -0.6725896 -0.7942519 0.6360842 -0.2712984 0.9687003 -0.7055226 -0.30324712 0.47190577 0.6831073 -0.87485075 0.7606421 0.11923815 0.6588364 -1.0022321 0.52495253 -0.861039 -0.9453035 0.12927653 0.50679255 0.62331754 -0.8350638 -0.926874 0.14161861 -0.7656917 -0.5293047 -0.8969451 0.12364173 -0.3871081 -0.96007586 0.65480316 0.11955775 -0.9539335 0.40562582 -0.2827455 -0.826763 -0.63325167 0.599123 -0.3876992 0.5561869 0.041015804 -0.32590657 0.91690487 0.3302687 -0.07083914 0.58856714 0.39222163 0.91649705 -0.330226 -0.8511029 0.3910715 -0.4168632 0.29706126 -0.9577842 -0.5350874 -0.37687665 0.18435834 0.39344865 -0.51792485 -0.5949414 0.2933211 0.045328807 -0.86942506 -0.6294805 -0.14723288 -0.05093589 -0.5587931 0.9433342 -0.74725807 0.94390166 0.7559848 0.82771677 -0.07381181 -0.5014133 0.532844 0.72329366 -0.50285846 0.95328015 0.84850276 0.081066385 0.74248207 -0.6755948 -0.84551156 0.1910125 -0.88761204 0.52374285 -0.83239543 -0.94473237 0.37057704 -0.078614496 0.9445524 -0.9169194 -0.63097745 -0.24698564 0.332866 0.4011768 -0.19467288 -0.68579435 0.26156938 -0.04666657 0.4145686 -0.19644189 -0.6883855 0.3240446 0.34882766 0.26269692 -0.6355071 -0.18703458 0.21298468 0.28244364 -0.8276308 0.4314676 -0.3113488 0.94185746 -0.49386215 -0.99215084 -0.13490498 -0.64994675 0.58536494 0.6711414 -0.97856903 0.57998455 0.61976016 0.0272662 -0.13635632 0.49404833 -0.8062711 -0.33031636 0.6424875 -0.15329373 -0.39753896 -1.0197607 0.6125954 0.14774552 0.52021676 -0.24172652 -0.46610004 -0.23223725 0.350325 -0.38863415 0.050213423 0.2878582 0.32310796 -0.8580616 0.2061365 0.52663004 -0.22486258 -0.5466513 -0.6033157 -0.52794015 -0.9748814 0.32719752 0.6178179 -0.20751625 0.2466698 0.2447963 -0.60673034 0.38533658 0.38051543 0.6713585 0.5408572 0.05826467 -0.5697018 0.24906604 0.24461377 0.6455284 0.3959493 -0.6133518 -0.40124112 -0.46649045 -0.8021114 0.40627968 0.9763523 0.91781086 0.20957614 -0.019924337 -0.69608545 0.8636596 0.8520375 0.42695165 -0.16339405 0.3942663 0.5285614 -0.50742847 0.77215767 -0.14854908 -0.44675854 0.3022787 0.65137595 0.6348533 0.28927812 -0.43705377 -0.15271424 0.6692735 0.39030984 -0.16389565 0.009051846 -0.6387913 -0.47163016 -0.1474764 -0.8230677 0.91216403 0.87823164 -0.82416093 0.27383465 -1.001248 -0.02806956 -0.90820694 0.8022569 -0.09793317 0.6768828 1.0066297 -0.42130774 -0.8048478 -0.4052277 -0.89051056 -0.7763505 -0.3585596 0.24755162 0.92266345 -0.3572265 -0.81240803 0.3395939 0.90065444 -0.31290022 -0.16231412 0.72201437 -0.8522046 0.90390736 0.6491976 0.37587595 -0.1847744 0.9187556 -0.69708145 -0.7663542 -0.8158107 0.20693484 0.03950253 0.2412185 -0.87555707 0.026839226 0.58325684 0.72864616 0.4938205 -0.14663917 0.7237416 -0.9483777 1.0058533 0.22966348 0.2179768 -0.38665652 0.39060485 -0.21173246 -0.24333747 -0.06740284 -0.3127227 0.24580167 -0.32195464 0.79920137 -0.10021264 0.15592933 0.86346304 0.6881928 -0.49699458 0.9377464 0.74503666 0.26933068 -0.9074947 0.74910975 -0.778356 -0.7450283 0.85171354 -0.40554368 0.70922655 -0.18065883 0.85314715 -0.9217544 0.82973754 0.2897335 -0.08790233 0.24794243 0.24699391 -0.28022742 0.34028396 0.043272864 0.39298713 0.89803994 -0.4365882 0.6405405 -0.120830856 -0.13058981 -0.05217162 -0.549006 -0.55840015 -0.053844195 0.9397538 0.4252498 0.5610341 0.47636133 -0.42361942 -0.61283255 0.18807533 -0.64961493 -0.9729869 -0.2527514 -0.2768158 -0.9414912 0.13617381 0.39573318 -0.26832628 -0.78449386 0.6182244 0.47232285 0.41624933 0.5335422 0.9125514 0.63506335 0.88970315 0.88920236 0.6668612 0.25968423 -0.13760275 0.618668 0.90475917 0.95060885 0.75802827 0.31623873 0.7650675 0.64716357 0.19764712 0.35391682 -0.30312192 0.6523142 0.5167001 0.4117314 0.16066033 0.34491366 -0.6145289 -0.77067065 0.2477057 -0.6770627 0.40039438 -1.034275 -0.3862359 0.95494336 0.7248759 -0.7997185 0.65023357 0.8106485 0.68675274 0.85135216 0.64408267 0.9379629 0.064691186 0.28711057 0.25315574 -0.1530439 -0.7773812 0.23131332 0.704866 -0.7229076 0.4704761 -0.5987693 0.16336861 -0.92223066 -0.9914446 0.46219116 0.42546946 -0.83982354 -0.5070864 0.92228127 0.3157046 0.45399097 -0.82960635 0.48974717 0.055028994 -0.15748203 0.08385827 0.01877979 -0.13330951 0.3476264 -0.18323964 -0.8285186 0.4810645 -0.07716934 0.5141998 -0.97144437 -0.28897578 0.5358885 -0.4757656 0.5041308 -0.8288982 -0.6225521 0.633042 0.36619663 -0.9449781 0.7048108 0.1475131 0.9817456 0.55696756 -0.5797059 -0.60961926 0.5001231 -0.29306397 0.30613342 0.97767293 -0.97898424 -0.9613764 -0.17425326 0.82594633 -0.24457482 0.2751073 0.94670165 0.8798761 -0.06857802 -0.46651375 0.89425623 -0.43021017 -0.77487624 -0.02782207 -0.6656239 -0.2764834 -0.24173217 0.9670273 -0.8991739 -0.037532777 0.7799288 0.020163067 -0.69450206 -0.28308177 -0.98443466 0.7478173 0.56458914 0.6281023 -0.27065086 0.82702136 -0.6254238 -0.7345713 -0.7783881 0.65313023 -0.1692147 0.23950183 -0.66398436 0.4727834 -0.47101927 0.91156846 0.21364717 0.2134526 -0.490448 0.5259168 -0.063662946 -0.8279355 0.9562046 -0.4888042 -0.45723516 -0.8063578 0.12615351 -0.5640301 -0.23629405 0.75338554 0.51616234 0.00374965 0.7684628 -0.504791 -0.44291183 -0.5712069 0.5807021 -0.1183073 -0.078714535 0.5669444 0.21734957 0.90222657 -0.17287356 -0.14603916 0.14937839 -0.39940917 -0.7174908 -0.40895855 0.7086099 0.79007673 -0.1758456 0.40421656 0.12700547 0.42910498 -0.6765322 -0.3344944 0.93812275 -0.058940608 0.9720208 -0.49204624 -0.050806623 0.6538303 0.3167096 0.16539896 -0.8232792 0.7866322 -0.60694087 0.07825711 0.03117645 0.9841832 -0.6402683 -0.73533195 0.7816546 0.17956792 -0.9685723 0.58105475 -0.0446082 0.81079936 0.5793614 0.83487076 -0.014678836 0.49906704 0.3857851 0.034982756 -0.48026142 0.88624513 0.3081317 0.3240772 -0.7087652 0.9039658 0.2554186 0.26562157 -0.91735053 -0.001423961 0.57065094 -0.21756814 -0.66351897 0.7871212 0.6973048 0.35616973 0.17059766 0.65756977 -0.5818457 -0.6171645 0.882088 0.34837866 -0.5977841 -0.28308576 0.4073156 -0.88259137 -0.09319516 -0.07081389 0.250869 0.79645747 -0.08152286 -0.7626831 -0.35304597 -0.39559543 0.77502763 0.6305088 -0.03226299 0.6708299 0.11888102 -0.36552817 0.66036767 0.62257856 -0.35839948 0.20977774 0.30916578 0.7552151 -0.12920183 -0.12073874 -0.5214508 -0.6791147 0.4893685 0.51812804 0.9458303 0.9606601 -0.011930737 0.9158406 0.4762795 0.61582315 0.41704962 -0.5034323 0.057844147 0.28048512 0.47456083 0.5398773 0.7281006 -0.75813437 -0.58920133 -0.8498719 0.61900187 0.60647494 -0.9601936 -0.21797237 -0.23664443 0.35217702 0.73689723 0.61282676 -0.11844546 -0.1173694 0.89551055 0.33964992 0.5130825 -0.8819531 0.093411714 0.7856459 -0.113217466 -0.04004971 0.8624669 -0.95750034 0.045338444 0.4405922 0.4875148 -0.036864776 -0.9147025 0.7656046 -0.5775951 0.026530743 -0.90226245 0.22953176 0.09145366 -0.46894258 0.07531889 0.38518465 -0.023977324 -0.07520988 0.3619256 0.3305921 -0.3222809 -0.18189466 0.47001714 0.26235825 -0.55777615 0.78676856 0.3568169 -0.6498597 0.39229968 -0.0072200787 -0.99976826 -0.28906062 0.17239451 -0.665187 0.19604449 0.1965166 0.04444142 -0.93306047 -0.39902502 0.175784 0.22520539 -0.5256528 -0.12234463 -0.80095696 0.86786145 -0.6897123 -0.22792053 0.652931 -0.84057397 0.9598777 -0.12340081 0.80170035 -0.78240067 -0.66453934 -0.24902797 0.851358 0.22474772 0.701383 0.8944534 -0.44629964 -0.15144975 -0.5605302 -0.25302097 -0.6644856 0.4003484 -0.52361596 0.83551186 -0.34955332 0.7675886 0.39526016 0.026948666 0.63720685 -0.7266903 0.6556825 0.60400665 -0.2143204 -0.50429666 -0.43108496 0.49300736 -0.20488448 -0.3901698 0.6131668 -0.9746127 -0.6280152 0.07769473 -0.4628011 0.08175043 -0.5724962 -0.43020153 0.21542239 0.7566845 0.3631569 0.092626 0.3865543 0.21026266 0.82691365 -0.13170132 0.6928735 0.7006362 0.27804035 0.20026478 -0.1850236 -0.44212058 0.22753063 -0.75846934 -0.49446374 -0.011160705 -0.84330326 0.7236648 -0.24697068 0.7974256 0.9055453 -0.61630124 0.67832226 0.9430554 -0.44968346 -0.107278414 -0.5752425 -0.5924841 0.4994568 0.54212695 0.14160168 0.43328395 0.33464965 0.5241668 -0.79898006 -0.55664665 -0.9646201 -0.6419654 0.5999587 -0.025714904 0.9857366 -0.39174187 0.24342892 0.08090153 0.8389008 -0.67755 0.47562483 -0.5394617 -0.38484842 -0.08256862 -0.3064056 0.9387051 -0.45973343 0.69983 0.3563614 -0.5860497 0.46831146 0.5028503 -0.44204774 0.14567822 -0.4450198 -0.7363609 0.9265213 -0.6124872 0.11591553 0.50928724 0.67763835 -0.0338767 -0.79447025 0.1275173 -0.093032524 0.50578326 -0.35891986 -0.2905448 -0.19543608 -0.24132216 0.35010156 -0.86696035 0.17838544 0.3288621 -0.29603663 0.6137543 0.44078153 0.9117033 -0.60441357 1.0107049 -0.026230842 0.78864515 0.116668284 0.30606923 0.17028095 -0.0733297 0.81059325 0.3241639 -0.3560278 0.47524107 -0.9889189 -0.64372045 0.3940866 0.62375957 -0.8815784 -0.78190666 0.98159593 -0.35431075 0.9855522 0.41751373 -0.47638273 0.10140588 0.9427566 0.21123028 0.1296028 -0.8506573 0.1618233 0.37593526 0.47314224 -0.48238415 0.65968025 0.24215332 0.7505429 0.9319262 0.087332584 -0.31262872 -0.9173993 0.71200085 -0.8098603 0.74055463 -0.09942589 -0.46554273 0.5293455 -0.52203137 -0.7959006 -0.83496565 0.3733173 -0.38483784 -0.61381364 -0.017067438 -0.08324914 0.20407268 -0.14350486 -0.013225838 -0.9142848 0.98038435 0.03169091 0.913145 -0.3348181 0.43529218 0.6757755 -0.056527216 0.95776075 -0.58495873 0.76632094 -0.6300519 0.069700316 0.17476676 0.3016969 0.8666686 0.2268911 -0.4259346 -0.36334956 -0.6136731 0.27635753 -0.33314776 0.7459436 -0.41826537 0.15289477 -0.004505082 0.2922898 -0.7487756 -0.49139223 -0.5284135 -0.2805444 -0.24661486 0.6715522 0.5494977 0.18178189 0.7875303 -0.93412083 -0.12881699 0.5639913 -0.03210913 -0.05236068 0.6034711 -0.6700402 0.9073193 -0.7616301 1.0218853 0.4334768 0.3760627 0.09416624 -0.14935094 -0.029372483 0.59390736 -0.5509806 -0.57769066 -0.82122356 -0.6840904 0.31537005 -0.41152975 -0.7938105 0.92819023 0.50504434 -0.31065887 0.55983406 -0.024432216 0.9723886 -0.6954324 -0.8276904 -0.8994404 -0.11813652 -0.59096974 -0.34821427 0.69953424 -0.955554 -0.45914525 -0.82651055 0.5005758 0.09958807 0.33910844 0.26768667 0.78880167 0.6305043 -0.27235916 -0.16438314 0.052092962 -0.023733363 -0.5782609 -0.45452452 0.35643807 0.7930629 0.2503468 -0.39627233 0.17492768 -0.9257899 0.4107889 -0.54403335 0.34134552 -0.20491701 -0.44666755 -0.24447678 -0.719344 -0.83744806 -0.23724616 -0.33033106 0.63312 -0.74909234 0.94628054 -0.8369585 -0.5821909 0.8157434 0.9411779 -0.48050487 -0.049847532 0.35915637 0.8761318 -0.23839188 -0.7559014 -0.5559958 -0.79968345 0.80333406 1.0084751 0.7690343 -0.219048 -0.41067046 0.15274373 0.41777378 0.1959028 0.110059746 -0.4166098 0.29297224 0.6951536 0.5733429 0.93069077 0.07963244 -0.26451954 -0.052050278 -0.61097085 -0.8112176 0.5856975 -0.8999005 0.6705904 -0.1925067 0.105748646 -0.8413044 0.2214244 -0.53955853 -0.581312 -0.5322591 -0.3330352 -0.018554889 0.5649438 -0.46802175 -0.44630316 -0.27477625 0.35640416 0.3062055 0.9517943 0.5554129 -0.7172195 0.1814737 0.71129686 -0.108621895 -0.73322517 0.07401426 -0.31901515 -0.40653497 0.65599376 -7.6269975E-4 0.9442729 -0.084767155 0.21021149 0.62371707 -0.44078422 -0.46328804 -0.32226267 0.9014523 0.6769362 -0.9175215 0.06089209 0.37781972 0.25851643 0.49345553 0.60387313 -0.18257791 0.058983427 0.042416524 0.3580266 0.20280646 0.1241027 -0.082402945 0.12964727 0.0054349336 -0.09285855 -0.47758916 0.6614626 -0.28152016 0.66659915 -0.3804008 0.7453835 0.9151467 0.99246365 -0.3367181 0.43986923 0.49104813 -0.09813198 -0.19467044 -0.7657881 -0.111916855 -0.8427898 0.15349594 -0.68541807 0.17615241 0.12900247 -0.71209514 0.47500122 0.16967571 0.54806226 0.20463681 -0.5080153 -0.84023815 0.8309144 -0.6790545 -0.028941272 0.85019946 0.91003454 1.0033383 0.43806824 0.28564835 0.2045627 -0.95281535 -0.21504728 0.13809223 -0.67884463 -0.74397695 -0.18429285 -0.09203375 -0.7048983 0.5599964 0.3260341 -0.84070873 0.69955385 0.42277867 -0.7304259 0.2756475 0.4630124 -0.3132038 -0.6193184 0.57843924 0.89203364 -0.856457 0.7625387 -0.4111758 -0.10785426 -0.68710303 -1.0073936 0.0089202 0.34853342 0.083807446 -0.901984 0.7180636 -0.7040425 -0.4565631 -0.429789 1.0018712 0.7038187 0.11418753 -0.7658189 0.05769597 -0.42649657 0.45066488 0.4464072 0.817146 0.9230416 -0.5746999 -0.97656345 -0.8187401 0.8331573 -0.019838097 0.6554064 0.5840518 -0.53863776 -0.9338811 0.031809993 0.4098646 0.0054755607 0.25444868 0.51641804 0.39185512 -0.85339934 0.6446879 -0.30203032 0.09258032 -0.3209157 -0.14615834 0.90341526 -0.48213845 0.41805553 -0.08569833 -0.28233153 0.032763053 0.73926854 0.2810877 0.42601153 -0.9991187 0.55784017 -0.42514962 0.41425073 0.89682746 0.27119255 0.9833861 0.905464 -0.42364118 -0.35436273 -0.39072958 0.6935258 -0.6610757 0.65787363 -0.12373564 0.9492554 -0.8404359 0.6108413 -0.283603 0.25374895 0.88335747 -0.8734683 0.3552819 0.20406891 0.30598783 0.2967541 -0.62421525 0.8331315 0.5916892 0.14818561 0.9175854 0.37650773 0.03400774 0.7005143 0.25175005 -1.0000443 -0.87586606 0.1705209 -0.7595466 -0.7073736 -0.27996957 0.26260296 0.30089316 -0.44017234 0.08551422 0.37771997 -0.90452534 -0.3872249 -0.61464673 0.6211185 -0.3033787 0.19752967 0.38894457 -0.30270508 -0.016043557 0.6638273 -0.6249438 0.096336655 -0.8461549 -0.16905391 0.43210012 -1.0182272 -0.32397473 0.35081893 -0.2715243 0.86008483 -0.1152497 0.2530687 0.60772574 0.8551187 0.011413094 0.026374009 -0.4522212 0.64016575 0.799059 -0.009614972 0.57417357 -0.6360195 -0.31258887 0.4782127 -0.38936394 0.87386185 0.2245281 -0.6397654 0.024627468 -0.87664306 0.88868994 -0.8401821 0.0685275 0.5490134 0.9333549 -0.48134243 0.55475813 -0.008374406 0.9864706 0.91407233 0.27633426 0.48981565 -0.0140302945 0.31098726 0.28953683 -0.6824028 0.22119194 0.59034455 0.23075856 -0.41099754 -0.9974313 0.13769418 0.9171553 0.72742337 0.13263512 -0.34952366 -0.2592811 -0.5731345 0.16881484 -0.17019317 0.80151325 0.9751741 0.15978943 -0.4965154 0.20953524 -0.09376167 -0.6922683 1.0116553 0.72814786 0.35730445 0.23880887 0.0604198 0.30402133 0.49664485 -0.4759042 -0.08000596 -0.6130117 0.9586364 0.754459 -0.43549952 0.025112802 0.523975 0.71343225 0.58843786 -0.7567027 -0.663933 -0.7277968 0.7226593 0.32600546 0.907452 -0.07501507 -0.51715666 0.09556747 0.45150653 -0.94196475 -0.38025331 0.06007632 0.61114687 -0.41808668 0.42948002 0.33152714 0.22788522 -0.8562059 -0.80943024 0.11257808 0.6069898 0.7991673 -0.5290026 -0.48870668 0.63109076 -0.8545321 0.225836 -0.24788427 0.9480812 -0.09612062 -0.70432335 -0.6122989 0.2750275 0.34553668 0.14476751 -0.6183177 0.2094024 -0.14382133 -0.89385533 -0.48485816 0.3690643 -0.90424746 -0.9725553 -0.344687 -1.0115625 0.2490104 -0.23942631 -0.7519444 0.29495096 0.6004463 0.16578445 0.716436 -0.8902236 -0.45392793 0.58377105 -0.3019072 0.8545105 -0.74831915 -0.6642099 0.41632593 -0.34449714 0.12313222 -0.6354631 -0.44713467 -0.79140633 0.3975577 0.21093807 0.042057108 -0.86207104 0.40299472 0.9862232 -0.69065475 0.97720975 -0.09643635 0.10581644 0.9066516 -0.55122757 0.060508147 -0.89107007 0.95589685 0.56483847 -0.68301666 0.08900476 -0.43310905 -0.44609794 0.96166277 -0.6507803 -0.66665673 0.44118115 -0.72981226 0.040365722 -0.16092917 0.69619393 0.38759416 0.42453283 -0.15159446 0.91161954 0.4239817 0.057246856 0.7152887 -0.8718783 -0.6552726 0.33445275 -0.098860025 0.3235109 -0.40675947 -0.10045983 0.95044243 -0.68038976 0.7467087 0.2772494 0.02272651 0.6005795 -0.6760686 -0.4875732 0.09035885 0.5900808 -0.13963063 -0.12537186 0.122690715 -0.12013677 -0.6425064 -0.1776734 -0.4802303 -0.791963 0.3980473 -0.88423777 0.14152512 0.4937599 -1.0101144 0.42270905 0.27905637 0.6446856 -0.11973623 -0.4965046 0.7128393 -0.13662948 -0.6267221 -0.45827088 0.6414567 0.20875335 0.8665384 0.99807113 -0.5751327 -0.97949684 -0.054730657 -0.8063933 0.39806598 0.5386555 -0.17559709 -0.9244371 -0.14692447 0.5507239 0.8952971 0.59731007 0.123818 -0.8615607 0.06311486 0.7882652 0.8168435 -0.036084604 0.10902832 0.291687 0.305584 0.685057 -0.09174834 0.25699735 -0.84430426 -0.9753331 0.5393092 0.22136343 -0.10431998 0.6851292 -0.23717459 -0.11490227 0.3829288 0.28281388 0.24809085 -0.4318655 -0.84736437 0.7481422 0.34821713 0.6829797 -0.7000803 -0.39319074 -0.45955658 0.01864352 -0.36176556 -0.36117893 0.80100757 0.44362903 0.56032884 -0.8279689 0.9781007 -0.5588321 -0.820654 -0.66478926 0.9638922 0.56448114 -0.51524186 0.9067422 -0.8100818 0.90903527 0.1986526 0.6435838 -0.28128472 0.119470656 0.28833443 0.7424712 -0.23046377 0.13311602 -0.9777013 0.43952474 -0.06414903 -0.19385906 0.9443935 0.02454915 0.23622733 0.51624095 0.20461275 -0.65032035 0.71255517 0.79272664 -0.10527173 -0.6372718 -0.11387873 0.73738706 0.5555294 -0.37304103 -0.7305913 0.27211556 -0.15955037 0.7584898 0.018040854 0.41838372 0.31291837 -0.8392279 0.89904255 0.012873743 0.7303989 -0.17845297 0.42507938 -0.82342815 -0.70237565 -0.4718188 -0.46327028 0.6890415 0.6139363 0.65578413 -0.43021435 -0.068710305 -0.8718597 0.83462095 -0.6938086 -0.29035714 0.57076925 0.33330798 -0.06754494 0.30286402 -0.7963708 -0.94138515 -0.90626043 0.44686186 0.5800515 0.080628864 -0.3976188 -0.6022887 0.7997906 0.48016006 0.21580069 -0.48345384 -0.09811388 0.8632752 -0.067968905 0.56727195 -0.30568215 -0.6978045 -0.51712966 -0.4412601 -0.8369152 -0.41572618 0.52440023 -0.07056385 0.92024755 -0.6233329 0.82746357 0.976347 0.81928545 -0.7939191 -0.87305176 -0.30241966 0.38964343 0.60442317 0.25621256 0.31050035 -0.2921419 0.9278578 0.5510208 0.6229212 -0.083933346 -0.98569185 0.86732376 0.8981862 -0.94532955 -0.9824057 0.7393649 -0.37854597 -0.045558963 -0.52212024 0.654916 0.021972785 -0.9334082 0.65276355 0.21567374 -0.39927846 -0.5207317 -0.5060933 0.7283083 -0.119119085 -0.4249944 -0.8970694 -0.14029555 -0.2812976 0.09295807 0.67203224 -0.7015512 -0.3583466 0.8459362 0.03610176 -0.5692979 -0.923486 0.2796737 0.86195207 0.4708919 0.80138224 -0.8467519 0.32579285 0.7112776 0.69630826 0.13242723 0.20974328 -0.42825714 0.119959034 0.90784407 0.40152976 -0.02963424 -0.8277958 -0.71359295 0.2165288 0.6197544 0.4021775 -0.42131466 -0.010774079 -0.891228 0.21091227 -0.27646923 -0.86655945 -0.19166052 0.013455967 0.3297528 -0.4995631 -0.8078825 0.5651215 0.7808317 -0.04888613 0.84585065 -0.35877067 -0.06815717 0.2751068 0.7026914 0.21013546 0.6957772 -0.75517184 -0.3914165 -0.3136356 0.91072154 -0.23539986 -0.99120206 0.7726062 0.8295981 0.23149669 0.5515746 -0.49124667 0.79008746 0.21053366 0.12133322 -0.3600846 -0.11991102 0.037238833 -0.43660694 0.82243204 -0.40379697 0.69741964 -0.15197167 -0.04499196 -0.36194146 0.71530014 0.9257512 -0.35213405 0.77599156 -0.39038146 0.5929519 0.21085142 -0.20266645 -0.19696343 -0.7902821 0.9512456 0.26365325 -0.4027983 -0.22697143 -0.6589819 0.6538323 0.9166794 -0.40173998 0.67055094 0.71032035 -0.6304051 0.35539296 0.5472871 -0.8623715 0.42420754 0.8734041 -0.6292777 -0.2644102 -0.8379755 -0.47383502 -0.04805708 0.3034598 0.08675795 -0.22379811 -0.3696521 0.12069446 -0.57245696 -0.20204021 0.66127974 -0.29569542 -0.751839 0.095403716 0.3611257 -0.4105873 -0.13028105 -0.9606552 0.7441207 0.07937273 0.04778367 0.22336456 0.6131035 -0.27172178 -0.41941813 -0.72335976 0.910353 0.72766083 0.19564371 0.5797143 -0.5265089 -0.09081951 0.5992917 -0.752449 -0.3603942 0.53356266 -0.82628906 -0.18622479 0.47543287 0.93943614 -0.44950554 0.059647117 -0.36496156 0.8149923 -0.75531113 -0.5781715 0.95413977 -0.77520645 0.030704606 0.9920804 -0.37235624 0.59713143 -0.6040874 0.51485705 -0.8122835 0.21853015 -0.6647276 0.33029318 -0.7488059 -0.4408872 -0.7168103 0.16819435 0.942167 -0.046894096 -0.3251835 0.78034574 -0.6466871 0.65917504 0.42881548 0.8098758 -0.47680622 0.33376706 0.0062894463 -0.5832863 -0.14150673 0.83803475 -0.10778868 0.27924487 -0.07094878 0.4236558 -0.62858534 -0.3565145 0.8635119 -0.5597454 0.47418833 -0.027219826 0.637896 -0.504916 0.9735349 0.7216116 -0.38372248 0.6244765 0.48190117 0.19159204 0.74108833 0.27238247 0.4295446 -0.006098418 -0.5157143 0.6698494 0.9466339 -0.18128617 0.8884468 -0.4985973 0.19564256 -0.30934718 0.3130897 -0.8423025 -0.28374177 -0.30816188 -0.69397074 0.6002677 0.6948018 -0.35146478 0.7755843 0.18924046 0.64643615 -0.09883287 0.15654966 0.62596446 -0.2318579 -0.42144373 0.57009405 0.944491 -0.22772376 0.83532375 -0.26593474 0.8336465 0.89446586 -0.9353208 -0.41496867 0.6729418 0.778433 -0.22103596 -0.04968296 -0.24573408 -0.9099043 -0.5218877 0.9145211 0.9975591 0.03633895 0.84616333 -0.86414903 -0.5150952 -0.8449016 0.103612155 -0.44796222 -0.48490095 0.9554389 0.9397961 -0.70330477 0.21951734 0.911863 -0.515983 -0.19263116 0.34751093 -0.40981922 0.15228857 0.8988651 0.6983216 -0.46969283 0.46819082 -0.7391554 0.12181451 -0.23831405 0.7089785 -0.7759767 0.7346512 0.6292152 0.89687 0.9187794 0.2690925 0.28832296 -0.7567227 0.36716455 -0.8252164 -0.49115804 0.68782985 -0.22952984 0.9378286 0.7123951 -0.9205237 0.9686789 -0.9109541 0.6738529 0.7461018 0.7759333 0.74920815 0.17029153 -0.5508541 0.3773855 0.68078864 0.2180047 -0.5332841 -0.40017337 0.28945738 0.97588456 0.5521669 -0.43098277 -0.9652607 0.5876547 -0.7760827 0.75476724 0.2348324 0.49136013 0.97935325 0.016844938 -0.7715869 0.12361521 -0.59204155 -0.024844859 0.81276625 -0.04583014 1.0041128 -0.4485514 -0.77172935 0.24888949 -0.8583002 -0.9372936 0.47325236 -0.42911154 -0.5078403 -0.6829324 -0.70111006 0.49347526 0.8499439 0.22092666 -0.11296701 0.7309504 -0.84807944 0.045088932 0.64060855 0.69863784 0.99161875 0.40534386 -0.6568898 0.44073415 0.020890685 -0.41333923 -0.44784752 0.81797814 -0.010921089 0.39810827 0.9434216 -0.21018228 -0.26067868 0.21695217 -0.30381086 0.9468153 -0.07925748 0.6610054 -0.39866358 -0.19812639 -0.08757232 -0.23441863 0.88850707 0.7371402 0.050341085 0.866287 -0.4683275 -0.12676744 0.33178088 0.4886896 -0.10686152 0.06359053 0.5623179 0.5050495 0.21962477 -0.30874145 -0.5258294 0.6956583 0.4325055 0.3679396 -0.95041955 -0.111048184 -0.13781087 -0.5798802 0.07903305 -0.503374 -0.47392958 -0.24067208 -0.3344335 0.14301297 -0.78412133 0.005647532 0.26759675 -0.90924716 -0.41658002 0.4979873 -0.015966697 0.7521176 -0.62023187 0.77513134 0.17689267 0.82421964 0.53925914 -0.16596104 0.9804721 -0.65140635 0.24667126 -0.9733038 0.80758274 -0.73212904 0.37829745 -0.8175369 -0.7625113 0.57871914 0.7882269 -0.9523626 -0.11645684 0.96427906 0.38567638 -0.4613685 0.32527518 0.5812198 -1.0165209 0.93943673 -0.78258455 -0.7236989 -0.518133 -0.40345526 0.9670822 0.25501186 -0.040635537 -0.18391123 0.1004023 -0.7478332 0.8841803 -0.9931065 0.0056008794 0.24515802 -0.6951344 -0.09333539 -0.5875479 0.913852 0.8862219 -0.019519454 -0.28717762 0.13963416 -0.23846143 0.9356967 0.9297567 0.31487212 -0.9063031 0.7804498 -0.9413644 -0.65944797 0.12355551 -0.8791523 0.008364856 -0.10901081 0.103108294 0.85233927 0.1320984 0.5286188 -0.18286508 -0.0074703344 -0.16612287 0.38298732 -0.6781023 -0.09640535 -0.33896664 -0.066566214 0.7009116 -0.23008037 -0.3347415 -0.59602386 -0.75332457 -0.22753455 -0.9750922 -0.17673819 0.8105917 0.8297705 0.36519873 -0.26572844 -0.0032285918 -0.9787054 0.45938954 -0.115473524 -0.08454465 0.46240854 0.102336526 0.64765966 0.94243807 1.0109048 -0.3033831 -0.5784253 0.5398804 0.5451998 -0.908461 -0.46079543 -0.08411575 0.6805828 -0.7112487 0.073102504 -0.10616002 -0.28510135 0.21861738 -0.30995268 0.26187137 1.0123613 0.9735507 -0.31455272 -0.74201596 -0.9019168 -0.69726026 -0.8775203 0.31824964 0.13808852 0.1509027 -0.8000203 -0.95955455 0.8539777 0.4736075 -0.5697231 0.5670649 -0.5039425 -0.98242927 -0.81850684 0.54530036 -0.8988315 -0.17217274 0.4397288 0.17758682 -0.96102446 0.357787 0.46347845 -0.0939226 -0.8653301 -0.7840806 0.58514595 -0.1407386 -0.83872235 0.8129171 -0.07608929 0.04141794 0.6336452 -0.10190639 0.9033163 0.3853988 -0.18290275 -0.8810572 -0.76754814 -0.57624835 0.81872064 0.057721857 -0.8434608 0.8366959 -0.2871276 -0.8585232 0.69750243 0.11807749 0.4420185 0.14555337 0.22041667 -0.7514629 -0.5958574 0.16483226 -0.31138685 0.5490484 -0.50371736 -0.3655532 -0.25357008 -0.25162226 1.0085974 -0.9411625 -0.732035 0.26251927 0.6239753 -0.24549587 -0.051789917 0.1673195 -0.28445837 -0.4822015 0.08453799 -0.88203245 0.85032856 -0.9801159 -0.56818783 0.41656774 -0.40508896 -0.39240152 -0.6392781 -0.40906966 -0.19498491 -0.6670029 -0.8972843 -0.09314273 -0.6383176 -0.007027999 0.3108048 0.82052255 0.8460907 -0.3769106 -0.09562873 -0.13005567 0.82458746 0.9420822 -0.48775434 0.3622452 0.21285494 0.6337579 0.7130805 0.72232383 0.9636746 0.7370041 -0.90504855 0.21504968 0.8536777 -0.7773591 0.25634265 0.45533744 -0.893419 -0.3754318 -0.53074265 0.37490025 -0.49866742 -0.9931897 0.7825417 -0.90808505 -0.62110376 -0.25139588 0.78083175 0.45859677 -0.8932153 0.8343581 0.30761993 -0.009423023 0.17907341 -0.35418606 -0.7415609 -0.035985395 0.81814915 0.9459467 -0.38238457 0.66887885 0.04399206 -0.67680806 -0.16858733 0.6531262 0.6379951 0.35010436 0.2573259 0.1230776 0.88000137 0.9800384 0.39194518 -0.8448292 -0.7816527 0.45588157 -0.44620696 0.51157004 -0.19751443 0.876405 -0.7431151 -0.91655254 0.85420847 0.70901144 0.7224128 -0.8924563 0.9300366 -0.49561247 -0.6087895 0.39311767 0.38456443 0.1072519 0.5390589 0.4108737 -0.7175665 -0.923105 0.798427 0.3594911 -0.28815752 0.14597827 -0.20123908 0.3492321 -0.3755007 0.006796151 -0.9375161 -0.7140683 -0.18694869 0.7702855 0.30978143 -0.6299324 0.95973647 0.45430842 -0.21783794 0.50155497 0.08673155 -0.9006638 0.6305309 -0.22321923 0.21148632 0.5482675 0.15717685 -0.6188114 -0.27802944 0.4581125 -0.29269448 0.2116582 0.9437736 0.9581926 0.0863263 0.7847714 0.74125695 0.9608523 -0.24009682 0.8328623 -0.81837285 -0.9253398 0.42400038 0.9998554 -0.7654758 0.89213604 0.48824638 -0.5522072 0.9567642 0.80521613 -0.5096458 0.19600727 0.8303932 0.39426598 -0.49339408 0.48121288 0.7299411 -0.55624115 5.2120665E-4 0.77212656 -0.7411751 -0.22575656 -0.117154814 0.1383006 0.9416375 -0.6257947 -0.055230822 -0.02939751 0.49652672 0.44399455 -0.08997449 0.16423728 -0.2522556 0.9149398 0.13447447 0.9952439 -0.53637964 0.3519605 0.1874532 0.25115332 0.50033647 0.6140483 0.9328101 0.61520284 0.1384947 -0.12697095 -0.33799154 0.906503 0.22886653 -0.58321834 -0.38420266 0.42841196 -0.5104002 0.9267452 -0.60586363 0.97062945 0.45005494 -0.1636324 -0.9487088 0.45433378 -0.25270805 -0.101568125 0.7459902 0.48573098 0.94810575 0.7385906 -0.89471567 0.77367127 -0.031821433 0.570019 -0.33819512 0.3520861 0.9099563 -0.20124367 0.09413211 -0.8536473 0.0410791 -0.01864276 0.7310256 -0.8585447 -0.6394961 0.5191674 0.092135586 -0.91839594 0.18986836 0.021398105 0.76090246 -0.008745094 -0.31344467 -0.643467 0.74213934 -0.3225702 -0.7753588 -0.19840455 0.16909248 -0.73999906 -0.5497862 0.8490469 0.5461007 0.26977342 -0.21763042 -0.1548682 0.15560985 -0.8669359 -0.3663222 -0.72657436 -0.13986929 -0.0962224 0.6233449 0.73763067 0.4683001 -0.15163189 0.3212093 -0.5014995 0.108169906 -0.5415768 -0.50140214 -0.13408507 0.42749518 -0.9139366 0.3832244 0.31577832 -0.9687047 -0.57753295 0.30247295 0.12682875 0.94894874 0.3748327 -0.1764185 -0.4921985 0.63978 0.56362283 0.12156511 -0.5536157 -0.6158833 0.35024914 0.96388936 -0.83055115 0.017788066 0.688527 -0.1392858 -0.8665698 0.78984064 0.32349226 -0.6679202 -0.6861122 -0.70351815 0.016288115 0.90599644 -0.25656274 -0.27997234 -0.24596241 -0.39572155 0.5817565 0.49102128 0.2954124 -0.31243944 -0.1216958 0.24566448 -0.64114505 0.3559881 0.16728826 -0.24014342 -0.51093787 0.31260937 -0.18199272 -0.2653543 0.25392213 0.10116342 -0.4653558 -0.023443216 -0.8949936 0.22339854 0.5280078 -0.9690566 -0.36991596 0.7342095 0.43591088 0.7771211 -0.65149885 0.8127066 0.9676242 -0.9746982 -0.8614667 -0.0636952 -0.47655356 0.10619044 0.09735835 -0.71224415 0.27674392 -0.3484924 0.47383565 0.004693083 0.47455078 -0.5502919 0.38896552 -0.59137356 0.9880113 -0.79775095 -0.3272847 0.4562255 -0.6874807 -0.6047906 0.26519823 0.7431499 -0.005563549 -0.24567276 -0.42975092 0.3277517 0.1079207 -0.5470527 -0.73868495 0.24616171 0.2889726 -0.8966228 -0.17358702 0.29233262 0.13668358 0.65541923 0.5167213 -0.71118945 0.059995167 0.1216792 0.05755847 0.08783318 0.23619506 -0.2949908 0.07259144 -0.70505303 -0.24122581 -0.7935546 0.4224831 0.042211313 0.49615744 -0.7782313 -0.3446336 -0.8551354 0.005250545 -0.2203968 0.5755525 0.6464193 0.9535238 -0.06714603 0.08031113 0.3455602 0.9033448 -0.19327584 -0.53846306 0.31923544 -0.9693488 0.39859033 -0.75900257 0.9311968 -0.9071816 0.5490827 -0.94766945 -0.27147052 -0.96250224 0.30786037 -0.41244513 -0.07591302 0.8101381 0.3426054 -0.14391926 -0.38420242 -0.19402874 -0.39745358 -0.81113356 -0.28933132 -0.3780494 0.23088726 -0.36212704 -0.4177217 -0.021468224 0.1045751 0.79799867 0.5255334 -0.0025763214 0.051016912 0.27474156 0.42128527 0.773486 0.23633347 -0.42317724 0.76860726 0.12583734 -0.03219565 0.7091325 -0.6959929 0.5959366 0.21980794 0.38497764 -0.43284208 0.54672635 0.31809852 -0.38570446 -0.19405909 -0.13255143 -0.86238694 -0.94261724 -0.3748377 -0.08789057 -0.75791377 -0.87693256 0.16238642 0.5577605 0.07707584 -0.26679564 0.20754117 -0.5141288 0.67295736 -0.45633036 -0.31844646 -0.38799366 0.9476567 0.9188886 -0.1237419 0.18975128 -0.8064623 0.82379425 -0.12027559 0.94919896 -0.95681643 -0.85820234 -0.4145359 -0.6325024 -0.7459702 0.5207292 -0.6119438 0.14521119 -0.36893874 0.26681054 0.24710311 -0.7166259 0.22471786 -0.34337902 0.7117119 0.76332414 -0.89259124 -0.22069912 -0.64961064 -0.79037017 0.8718303 0.9476928 -0.0341386 -0.06506158 0.14809394 -0.26065424 -0.9063793 -0.77475214 -0.67886674 0.99330807 -0.87628174 -0.8697242 0.8277343 0.10896048 -0.18544166 -0.19095887 0.3351776 -0.10924078 -0.7692224 0.7682952 0.42354155 0.9882004 -0.5664335 0.95458513 0.48856628 -0.38874805 -0.19085577 -0.70278364 -0.42794263 0.16639063 0.84548795 -0.53395903 -0.2594303 0.23089401 0.69068074 0.20472617 -0.83799994 -0.4561731 -0.8234596 -0.5798343 0.9886173 -0.5705796 0.4798658 0.09554871 -0.4324097 0.2302939 0.49943933 -0.341061 -0.8969582 0.6285348 -0.8385886 0.8142054 -0.8261501 0.07990702 0.7734785 -0.5790288 -0.9086241 0.9742967 -0.8409738 -0.93046385 -0.76808393 0.74785554 0.8274024 -0.15525304 -0.9258063 -0.2256289 -1.0312387 -0.9216816 -0.31978554 -0.039868798 0.48346055 -0.16935834 -0.27590394 -0.40537062 -0.7027164 0.015161205 -0.76877224 -0.6086037 -0.46662587 -0.7784635 -0.5317603 -0.9520262 0.5042894 -0.93039554 -0.61281335 -0.23349838 -0.5410076 0.90831536 -0.0875479 -0.077438235 -0.18196392 0.56093836 0.48836514 0.9656355 -0.5108644 -0.15242033 -0.7073985 0.18815911 0.10401844 -0.36406773 0.5026546 -0.34464222 0.47204262 0.623983 -0.20792733 0.91145134 0.09569997 -0.6356058 -0.4444549 -0.27828774 -0.61399806 0.7999981 0.45904276 0.23162287 -0.41333544 -0.92540145 -0.1265208 -0.09430731 -0.34329215 -0.21778779 -0.7313125 -0.62079144 0.03106195 -0.85357213 -0.46681607 -0.51317775 0.23165946 -0.6538377 0.626803 -0.3178301 0.709872 -0.5981252 -0.41355932 -0.4161736 -0.06897658 -0.5575719 0.94508344 -0.3102493 0.5449427 0.90024793 0.12134975 0.11445509 -0.47822857 0.94411755 -0.14709574 0.31506062 0.47272658 -0.6648631 0.6228111 -0.5825974 -0.009197209 -0.7041994 0.77215344 0.46784714 0.7207751 -0.23459053 -0.8975047 0.10402738 0.32880473 0.6752746 -0.367509 -0.7764391 -0.5713948 0.48208344 0.7431664 -0.32663175 -0.898999 0.07496523 0.7976605 -0.8177034 -0.7173312 -0.6052934 0.5617696 -0.43890387 0.9474291 0.6086092 -0.26467353 0.41632965 -0.5676496 -0.9332693 -0.554659 0.89917487 0.67701596 -0.15664726 -0.84353095 0.0057242704 0.45276317 -0.014131119 0.801784 0.34868956 0.4815453 -0.78168905 0.9629293 -0.35214156 -0.73163164 -0.04661385 -0.57362837 0.9998325 -0.7551044 -0.71710813 0.85540533 0.8672833 -0.3926985 0.0241058 0.6677886 -0.10861987 -0.22470258 0.101666115 0.25442114 1.0020093 0.3778307 -0.56680363 0.13126636 -0.9601026 -0.79316276 -0.5594818 0.83361435 0.86018354 -0.47551444 0.05417274 0.9224089 0.86550903 -0.16088817 -0.7813703 0.045615118 -0.32805246 -0.16511348 -0.35433972 0.90700895 0.819805 -0.8307247 -0.76248944 -0.039844573 0.25746068 -0.73738915 0.625548 0.75029683 -0.9041203 -0.6895894 0.3417363 0.73024946 0.3388292 -0.5898101 0.54328644 -0.04870173 -0.28195745 0.9395627 0.1171641 -0.050401315 0.4950924 0.42360303 -0.71466625 0.15710089 -0.9086965 -0.15563187 0.03747674 -0.6589314 0.8133633 -0.24537309 0.67142963 -0.024070412 0.13742676 -0.24589965 -0.7498863 0.60662127 -0.34070015 0.6555908 0.43421856 0.21864697 0.361376 0.74097157 0.1366402 0.12010118 -0.6336062 -0.82670224 -0.6611951 0.8432727 0.9153253 0.6854479 0.45296034 0.82622427 -0.17532061 -0.8970023 0.05846532 0.35501474 -0.3613591 -0.058138262 -0.25302505 -0.32559118 0.6157996 -0.25732753 -0.57954556 0.6612589 0.18796404 -0.45602286 0.13415702 0.008973448 0.66619635 0.34265763 -0.9259501 -0.10220245 -0.372504 0.39225474 0.32697117 0.12364272 0.3334936 -0.09858298 -0.059048075 0.98174095 0.8012755 -0.6794771 -0.8932646 -0.37978226 0.83897054 0.22750871 -0.54272574 -0.33078843 -0.86438584 -0.7968104 -0.97150713 0.88743484 0.7838773 -0.92676765 -0.3043054 -0.32763064 0.12490735 -0.5063171 -0.09217343 -0.7299229 0.24103722 -0.5282624 -0.09069897 0.8706546 0.46047574 0.274705 0.11300825 -0.99315447 0.28946868 0.40128297 0.47322 -0.885821 0.97455966 0.9317766 0.33071578 -0.7881398 0.6446234 -0.4313314 0.6951728 